{"learner":{"attributes":{"scikit_learn":"{\"_estimator_type\": \"classifier\"}"},"feature_names":[],"feature_types":[],"gradient_booster":{"model":{"gbtree_model_param":{"num_parallel_tree":"1","num_trees":"1000"},"iteration_indptr":[0,10,20,30,40,50,60,70,80,90,100,110,120,130,140,150,160,170,180,190,200,210,220,230,240,250,260,270,280,290,300,310,320,330,340,350,360,370,380,390,400,410,420,430,440,450,460,470,480,490,500,510,520,530,540,550,560,570,580,590,600,610,620,630,640,650,660,670,680,690,700,710,720,730,740,750,760,770,780,790,800,810,820,830,840,850,860,870,880,890,900,910,920,930,940,950,960,970,980,990,1000],"tree_info":[0,1,2,3,4,5,6,7,8,9,0,1,2,3,4,5,6,7,8,9,0,1,2,3,4,5,6,7,8,9,0,1,2,3,4,5,6,7,8,9,0,1,2,3,4,5,6,7,8,9,0,1,2,3,4,5,6,7,8,9,0,1,2,3,4,5,6,7,8,9,0,1,2,3,4,5,6,7,8,9,0,1,2,3,4,5,6,7,8,9,0,1,2,3,4,5,6,7,8,9,0,1,2,3,4,5,6,7,8,9,0,1,2,3,4,5,6,7,8,9,0,1,2,3,4,5,6,7,8,9,0,1,2,3,4,5,6,7,8,9,0,1,2,3,4,5,6,7,8,9,0,1,2,3,4,5,6,7,8,9,0,1,2,3,4,5,6,7,8,9,0,1,2,3,4,5,6,7,8,9,0,1,2,3,4,5,6,7,8,9,0,1,2,3,4,5,6,7,8,9,0,1,2,3,4,5,6,7,8,9,0,1,2,3,4,5,6,7,8,9,0,1,2,3,4,5,6,7,8,9,0,1,2,3,4,5,6,7,8,9,0,1,2,3,4,5,6,7,8,9,0,1,2,3,4,5,6,7,8,9,0,1,2,3,4,5,6,7,8,9,0,1,2,3,4,5,6,7,8,9,0,1,2,3,4,5,6,7,8,9,0,1,2,3,4,5,6,7,8,9,0,1,2,3,4,5,6,7,8,9,0,1,2,3,4,5,6,7,8,9,0,1,2,3,4,5,6,7,8,9,0,1,2,3,4,5,6,7,8,9,0,1,2,3,4,5,6,7,8,9,0,1,2,3,4,5,6,7,8,9,0,1,2,3,4,5,6,7,8,9,0,1,2,3,4,5,6,7,8,9,0,1,2,3,4,5,6,7,8,9,0,1,2,3,4,5,6,7,8,9,0,1,2,3,4,5,6,7,8,9,0,1,2,3,4,5,6,7,8,9,0,1,2,3,4,5,6,7,8,9,0,1,2,3,4,5,6,7,8,9,0,1,2,3,4,5,6,7,8,9,0,1,2,3,4,5,6,7,8,9,0,1,2,3,4,5,6,7,8,9,0,1,2,3,4,5,6,7,8,9,0,1,2,3,4,5,6,7,8,9,0,1,2,3,4,5,6,7,8,9,0,1,2,3,4,5,6,7,8,9,0,1,2,3,4,5,6,7,8,9,0,1,2,3,4,5,6,7,8,9,0,1,2,3,4,5,6,7,8,9,0,1,2,3,4,5,6,7,8,9,0,1,2,3,4,5,6,7,8,9,0,1,2,3,4,5,6,7,8,9,0,1,2,3,4,5,6,7,8,9,0,1,2,3,4,5,6,7,8,9,0,1,2,3,4,5,6,7,8,9,0,1,2,3,4,5,6,7,8,9,0,1,2,3,4,5,6,7,8,9,0,1,2,3,4,5,6,7,8,9,0,1,2,3,4,5,6,7,8,9,0,1,2,3,4,5,6,7,8,9,0,1,2,3,4,5,6,7,8,9,0,1,2,3,4,5,6,7,8,9,0,1,2,3,4,5,6,7,8,9,0,1,2,3,4,5,6,7,8,9,0,1,2,3,4,5,6,7,8,9,0,1,2,3,4,5,6,7,8,9,0,1,2,3,4,5,6,7,8,9,0,1,2,3,4,5,6,7,8,9,0,1,2,3,4,5,6,7,8,9,0,1,2,3,4,5,6,7,8,9,0,1,2,3,4,5,6,7,8,9,0,1,2,3,4,5,6,7,8,9,0,1,2,3,4,5,6,7,8,9,0,1,2,3,4,5,6,7,8,9,0,1,2,3,4,5,6,7,8,9,0,1,2,3,4,5,6,7,8,9,0,1,2,3,4,5,6,7,8,9,0,1,2,3,4,5,6,7,8,9,0,1,2,3,4,5,6,7,8,9,0,1,2,3,4,5,6,7,8,9,0,1,2,3,4,5,6,7,8,9,0,1,2,3,4,5,6,7,8,9,0,1,2,3,4,5,6,7,8,9,0,1,2,3,4,5,6,7,8,9,0,1,2,3,4,5,6,7,8,9,0,1,2,3,4,5,6,7,8,9,0,1,2,3,4,5,6,7,8,9,0,1,2,3,4,5,6,7,8,9,0,1,2,3,4,5,6,7,8,9,0,1,2,3,4,5,6,7,8,9,0,1,2,3,4,5,6,7,8,9,0,1,2,3,4,5,6,7,8,9,0,1,2,3,4,5,6,7,8,9,0,1,2,3,4,5,6,7,8,9,0,1,2,3,4,5,6,7,8,9],"trees":[{"base_weights":[1.2743261E-2,-2.3363785E-1,2.9327781E0,-3.009035E-1,3.4636872E0,4.2860146E0,-3.3462662E-1,-3.9008963E-1,2.3297215E0,4.3975908E-1,-4.0540542E-2,4.7631454E0,4.6875E-1,-5.2685954E-2,1.460177E-1,-4.2569622E-1,2.7803738E0,3.7452948E0,4.587154E-2,4.8779297E-1,5.7522126E-2,-4.5112785E-2,2.596154E-1,-4.590571E-1,1.9216418E0,3.90625E-1,-3.7974685E-2,4.378882E0,8.1280786E-1,1.9465649E-1,-4.956897E-2,-4.708654E-2,1.9072166E-1,3.8054606E-1,-2.9010242E-2,4.5762712E-1,1.15384616E-1,-3.6912754E-2,2.1153846E-1],"categories":[],"categories_nodes":[],"categories_segments":[],"categories_sizes":[],"default_left":[0,0,0,0,0,0,0,0,0,0,0,0,0,0,0,0,0,0,0,0,0,0,0,0,0,0,0,0,0,0,0,0,0,0,0,0,0,0,0],"id":0,"left_children":[1,3,5,7,9,11,13,15,17,-1,-1,19,21,-1,-1,23,25,27,29,-1,-1,-1,-1,31,33,-1,-1,35,37,-1,-1,-1,-1,-1,-1,-1,-1,-1,-1],"loss_changes":[6.21707E2,1.9924855E2,2.987406E2,1.8476271E2,5.3526108E1,8.449927E1,7.883627E0,8.684401E1,8.336781E1,0E0,0E0,1.7489624E1,1.3695686E1,0E0,0E0,5.9711227E1,3.1939049E1,2.6057098E1,1.2184717E1,0E0,0E0,0E0,0E0,2.1617355E1,4.5769127E1,0E0,0E0,2.91893E0,7.0314655E0,0E0,0E0,0E0,0E0,0E0,0E0,0E0,0E0,0E0,0E0],"parents":[2147483647,0,0,1,1,2,2,3,3,4,4,5,5,6,6,7,7,8,8,11,11,12,12,15,15,16,16,17,17,18,18,23,23,24,24,27,27,28,28],"right_children":[2,4,6,8,10,12,14,16,18,-1,-1,20,22,-1,-1,24,26,28,30,-1,-1,-1,-1,32,34,-1,-1,36,38,-1,-1,-1,-1,-1,-1,-1,-1,-1,-1],"split_conditions":[2.9377074E0,3.2118435E0,7.9094267E-1,1.9062142E0,1.4432624E-1,9.56098E-2,1.7962403E0,2.262108E0,2.8427565E-1,4.3975908E-1,-4.0540542E-2,1.9841776E0,9.086022E-2,-5.2685954E-2,1.460177E-1,1.9424473E0,2.8615357E-2,2.2768681E-1,1.0947348E-1,4.8779297E-1,5.7522126E-2,-4.5112785E-2,2.596154E-1,2.9289818E0,6.080501E-3,3.90625E-1,-3.7974685E-2,9.103308E-1,9.077293E-2,1.9465649E-1,-4.956897E-2,-4.708654E-2,1.9072166E-1,3.8054606E-1,-2.9010242E-2,4.5762712E-1,1.15384616E-1,-3.6912754E-2,2.1153846E-1],"split_indices":[374,493,149,890,816,138,33,765,501,0,0,255,818,0,0,90,342,1235,35,0,0,0,0,617,870,0,0,0,430,0,0,0,0,0,0,0,0,0,0],"split_type":[0,0,0,0,0,0,0,0,0,0,0,0,0,0,0,0,0,0,0,0,0,0,0,0,0,0,0,0,0,0,0,0,0,0,0,0,0,0,0],"sum_hessian":[8.6219995E2,7.9595996E2,6.624E1,7.8263995E2,1.332E1,4.662E1,1.9619999E1,7.578E2,2.4839998E1,1.062E1,2.6999998E0,4.1219997E1,5.3999996E0,1.8359999E1,1.26E0,7.5024E2,7.5599995E0,1.494E1,9.9E0,3.996E1,1.26E0,4.3199997E0,1.0799999E0,7.4051996E2,9.719999E0,5.3999996E0,2.1599998E0,1.1879999E1,3.06E0,1.6199999E0,8.28E0,7.3763995E2,2.8799999E0,4.8599997E0,4.8599997E0,1.0799999E1,1.0799999E0,1.9799999E0,1.0799999E0],"tree_param":{"num_deleted":"0","num_feature":"1280","num_nodes":"39","size_leaf_vector":"1"}},{"base_weights":[2.2011101E-2,-4.091966E-1,2.8125541E0,-4.638728E-1,2.7952757E0,4.052369E0,8.228175E-3,-5.06155E-1,1.243094E0,-4.1871924E-2,3.8589213E0,2.5862068E-1,4.4855394E0,-4.4910184E-1,3.768473E-1,-5.1575136E-1,1.7065868E0,3.395722E0,-2.4956973E-1,4.415888E-1,-2.8846154E-2,-4.8302874E-2,2.3282443E-1,4.6642337E0,7.013575E-1,-5.3817272E-2,9.016394E-2,-5.321436E-1,5.5950266E-1,-2.8846154E-2,2.7876106E-1,4.0625E-1,-2.8846154E-2,-5.028463E-2,1.15384616E-1,5.6962025E-1,4.788966E0,2.1153846E-1,-3.8922157E-2,-5.3917684E-2,1.5648855E-1,2.857143E-1,-1.7970404E-2,1.15384616E-1,-2.8846154E-2,6.7307696E-2,4.846767E-1],"categories":[],"categories_nodes":[],"categories_segments":[],"categories_sizes":[],"default_left":[0,0,0,0,0,0,0,0,0,0,0,0,0,0,0,0,0,0,0,0,0,0,0,0,0,0,0,0,0,0,0,0,0,0,0,0,0,0,0,0,0,0,0,0,0,0,0],"id":1,"left_children":[1,3,5,7,9,11,13,15,17,-1,19,21,23,25,-1,27,29,31,33,-1,-1,-1,-1,35,37,-1,-1,39,41,-1,-1,-1,-1,-1,-1,43,45,-1,-1,-1,-1,-1,-1,-1,-1,-1,-1],"loss_changes":[1.0398425E3,1.3244708E2,4.020985E2,5.3810196E1,4.5031425E1,1.3063586E2,6.4391685E1,1.6163254E1,5.9005478E1,0E0,2.3541763E1,1.5368808E1,4.5361694E1,4.503649E0,0E0,1.2942505E1,8.007479E0,1.9546745E1,4.710564E0,0E0,0E0,0E0,0E0,3.2257202E1,7.639472E0,0E0,0E0,1.127327E1,1.9637772E1,0E0,0E0,0E0,0E0,0E0,0E0,1.9169912E0,1.2520264E1,0E0,0E0,0E0,0E0,0E0,0E0,0E0,0E0,0E0,0E0],"parents":[2147483647,0,0,1,1,2,2,3,3,4,4,5,5,6,6,7,7,8,8,10,10,11,11,12,12,13,13,15,15,16,16,17,17,18,18,23,23,24,24,27,27,28,28,35,35,36,36],"right_children":[2,4,6,8,10,12,14,16,18,-1,20,22,24,26,-1,28,30,32,34,-1,-1,-1,-1,36,38,-1,-1,40,42,-1,-1,-1,-1,-1,-1,44,46,-1,-1,-1,-1,-1,-1,-1,-1,-1,-1],"split_conditions":[6.94545E-1,1.8283672E0,3.778277E-1,1.6293987E0,8.020559E-2,1.3821337E-1,1.5062252E0,3.2542489E0,6.4343326E-2,-4.1871924E-2,1.4056036E-1,1.3447907E0,4.158363E-1,5.1883197E-1,3.768473E-1,2.392581E0,4.6441883E-1,7.6560473E-1,1.8189576E0,4.415888E-1,-2.8846154E-2,-4.8302874E-2,2.3282443E-1,7.0958235E-4,1.3006291E-1,-5.3817272E-2,9.016394E-2,1.8248452E0,4.5419127E-2,-2.8846154E-2,2.7876106E-1,4.0625E-1,-2.8846154E-2,-5.028463E-2,1.15384616E-1,1.9175636E-2,5.4760077E-3,2.1153846E-1,-3.8922157E-2,-5.3917684E-2,1.5648855E-1,2.857143E-1,-1.7970404E-2,1.15384616E-1,-2.8846154E-2,6.7307696E-2,4.846767E-1],"split_indices":[894,1183,407,288,979,84,329,633,706,0,169,509,529,1120,0,1153,63,353,25,0,0,0,0,745,134,0,0,1138,104,0,0,0,0,0,0,1,173,0,0,0,0,0,0,0,0,0,0],"split_type":[0,0,0,0,0,0,0,0,0,0,0,0,0,0,0,0,0,0,0,0,0,0,0,0,0,0,0,0,0,0,0,0,0,0,0,0,0,0,0,0,0,0,0,0,0,0,0],"sum_hessian":[8.6219995E2,7.4754E2,1.14659996E2,7.3583997E2,1.17E1,7.92E1,3.546E1,7.1874E2,1.7099998E1,3.06E0,8.639999E0,8.28E0,7.092E1,3.2399998E1,3.06E0,7.1639996E2,2.34E0,6.4799995E0,1.062E1,7.5599995E0,1.0799999E0,6.66E0,1.6199999E0,6.75E1,3.4199998E0,3.096E1,1.4399999E0,7.0613995E2,1.0259999E1,1.0799999E0,1.26E0,5.3999996E0,1.0799999E0,9.54E0,1.0799999E0,2.1599998E0,6.534E1,1.0799999E0,2.34E0,7.0451996E2,1.6199999E0,1.8E0,8.46E0,1.0799999E0,1.0799999E0,1.0799999E0,6.4259995E1],"tree_param":{"num_deleted":"0","num_feature":"1280","num_nodes":"47","size_leaf_vector":"1"}},{"base_weights":[5.79238E-3,-3.311076E-1,1.0471501E0,-4.1768727E-1,1.2874252E0,2.4555159E-1,2.6024532E0,-4.4522116E-1,1.4439656E0,-1.2964584E-2,3.8454707E0,-6.85145E-2,3.3154671E0,7.061746E-1,3.7432675E0,-4.623649E-1,1.25E0,-2.529183E-1,2.8599222E0,-2.8846157E-1,1.7065868E0,4.4000003E-1,-3.0973453E-2,-2.5051478E-1,1.583851E0,4.185336E0,5.188679E-1,2.4390244E0,-4.7664642E-3,9.090908E-2,4.1512733E0,-4.9187836E-1,5.248619E-1,3.101266E-1,-4.2452835E-2,-4.1871924E-2,1.9230768E-2,3.768473E-1,-2.8846154E-2,-5.2603614E-2,1.3087249E-1,2.7876106E-1,-2.8846154E-2,-4.911956E-1,4.225352E-1,3.1762917E0,-6.849317E-2,4.4279176E-1,1.15384616E-1,-3.7974685E-2,1.6346155E-1,-3.8922157E-2,3.6348124E0,-3.1115884E-1,1.7065868E0,-4.298643E-2,1.15384616E-1,4.4405966E0,-1.1363638E-1,-5.1277142E-2,2.4940616E-2,-4.4554457E-2,3.185484E-1,-5.2544773E-2,9.016394E-2,1.9626169E-1,-1.5202706E-2,1.3274336E-2,3.8721806E-1,1.15384616E-1,-4.6623796E-2,3.953975E-1,1.15384616E-1,-5.2325584E-2,1.3114755E-1,2.7876106E-1,-2.8846154E-2,4.636262E-1,3.5714284E-2,-3.2786887E-2,1.9230768E-2],"categories":[],"categories_nodes":[],"categories_segments":[],"categories_sizes":[],"default_left":[0,0,0,0,0,0,0,0,0,0,0,0,0,0,0,0,0,0,0,0,0,0,0,0,0,0,0,0,0,0,0,0,0,0,0,0,0,0,0,0,0,0,0,0,0,0,0,0,0,0,0,0,0,0,0,0,0,0,0,0,0,0,0,0,0,0,0,0,0,0,0,0,0,0,0,0,0,0,0,0,0],"id":2,"left_children":[1,3,5,7,9,11,13,15,17,19,21,23,25,27,29,31,33,35,37,39,41,-1,-1,43,45,47,49,51,53,55,57,59,61,-1,-1,-1,-1,-1,-1,-1,-1,-1,-1,63,65,67,69,-1,-1,-1,-1,-1,71,73,75,-1,-1,77,79,-1,-1,-1,-1,-1,-1,-1,-1,-1,-1,-1,-1,-1,-1,-1,-1,-1,-1,-1,-1,-1,-1],"loss_changes":[3.0318613E2,9.203834E1,2.627199E2,3.2451897E1,1.1115349E2,1.3569112E2,1.5255188E2,1.8372307E1,2.3020508E1,1.1454425E1,2.7307922E1,3.9022663E1,2.9599106E1,3.472809E1,6.602521E1,1.7940506E1,2.1156555E1,4.5995194E-1,1.5789856E1,8.581016E0,8.007479E0,0E0,0E0,1.9089125E1,3.410818E1,2.11232E0,4.8718786E0,2.9147003E1,1.1531789E1,3.5405185E0,4.993622E1,9.262192E0,4.8151386E1,0E0,0E0,0E0,0E0,0E0,0E0,0E0,0E0,0E0,0E0,4.5918846E0,2.7941795E1,1.3422256E1,4.0870743E0,0E0,0E0,0E0,0E0,0E0,7.785797E-2,7.1013017E0,8.007479E0,0E0,0E0,2.8338196E1,2.937636E-1,0E0,0E0,0E0,0E0,0E0,0E0,0E0,0E0,0E0,0E0,0E0,0E0,0E0,0E0,0E0,0E0,0E0,0E0,0E0,0E0,0E0,0E0],"parents":[2147483647,0,0,1,1,2,2,3,3,4,4,5,5,6,6,7,7,8,8,9,9,10,10,11,11,12,12,13,13,14,14,15,15,16,16,17,17,18,18,19,19,20,20,23,23,24,24,25,25,26,26,27,27,28,28,29,29,30,30,31,31,32,32,43,43,44,44,45,45,46,46,52,52,53,53,54,54,57,57,58,58],"right_children":[2,4,6,8,10,12,14,16,18,20,22,24,26,28,30,32,34,36,38,40,42,-1,-1,44,46,48,50,52,54,56,58,60,62,-1,-1,-1,-1,-1,-1,-1,-1,-1,-1,64,66,68,70,-1,-1,-1,-1,-1,72,74,76,-1,-1,78,80,-1,-1,-1,-1,-1,-1,-1,-1,-1,-1,-1,-1,-1,-1,-1,-1,-1,-1,-1,-1,-1,-1],"split_conditions":[6.513502E-1,1.2349341E0,3.998763E-1,1.2506776E0,6.5616715E-1,2.3559E0,7.289254E-1,3.178047E0,2.1974392E0,4.469192E-1,1.0102197E-1,2.46066E0,4.640236E-1,1.1273852E-2,1.094314E-1,1.6718673E0,2.548138E-2,2.4980295E-1,3.2994133E-1,4.789529E-1,1.0061732E-2,4.4000003E-1,-3.0973453E-2,3.5471034E-1,2.7622292E-2,1.8375899E0,1.2846483E-1,3.323166E-4,1.0457436E0,2.3132952E-1,1.2637254E0,2.567134E0,9.036233E-1,3.101266E-1,-4.2452835E-2,-4.1871924E-2,1.9230768E-2,3.768473E-1,-2.8846154E-2,-5.2603614E-2,1.3087249E-1,2.7876106E-1,-2.8846154E-2,2.349561E0,7.3522646E-3,7.8529954E-2,9.593064E-2,4.4279176E-1,1.15384616E-1,-3.7974685E-2,1.6346155E-1,-3.8922157E-2,1.4648021E0,9.644826E-1,5.646725E-4,-4.298643E-2,1.15384616E-1,3.8392738E-2,4.7337255E-1,-5.1277142E-2,2.4940616E-2,-4.4554457E-2,3.185484E-1,-5.2544773E-2,9.016394E-2,1.9626169E-1,-1.5202706E-2,1.3274336E-2,3.8721806E-1,1.15384616E-1,-4.6623796E-2,3.953975E-1,1.15384616E-1,-5.2325584E-2,1.3114755E-1,2.7876106E-1,-2.8846154E-2,4.636262E-1,3.5714284E-2,-3.2786887E-2,1.9230768E-2],"split_indices":[1026,1037,1037,77,513,1091,873,761,757,963,895,757,563,246,520,513,332,1,14,728,130,0,0,752,396,64,183,1022,471,4,689,757,759,0,0,0,0,0,0,0,0,0,0,829,244,653,1056,0,0,0,0,0,33,667,186,0,0,210,0,0,0,0,0,0,0,0,0,0,0,0,0,0,0,0,0,0,0,0,0,0,0],"split_type":[0,0,0,0,0,0,0,0,0,0,0,0,0,0,0,0,0,0,0,0,0,0,0,0,0,0,0,0,0,0,0,0,0,0,0,0,0,0,0,0,0,0,0,0,0,0,0,0,0,0,0,0,0,0,0,0,0,0,0,0,0,0,0,0,0,0,0,0,0,0,0,0,0,0,0,0,0,0,0,0,0],"sum_hessian":[8.6219995E2,6.5195996E2,2.1023999E2,6.1956E2,3.2399998E1,1.395E2,7.074E1,6.1127997E2,8.28E0,2.214E1,1.0259999E1,1.27439995E2,1.2059999E1,2.7179998E1,4.3559998E1,6.0587994E2,5.3999996E0,4.14E0,4.14E0,1.98E1,2.34E0,9E0,1.26E0,1.1556E2,1.1879999E1,8.82E0,3.2399998E0,7.2E0,1.998E1,4.5E0,3.9059998E1,5.8877997E2,1.7099998E1,2.1599998E0,3.2399998E0,3.06E0,1.0799999E0,3.06E0,1.0799999E0,1.782E1,1.9799999E0,1.26E0,1.0799999E0,8.532E1,3.0239998E1,5.58E0,6.2999997E0,7.74E0,1.0799999E0,2.1599998E0,1.0799999E0,2.34E0,4.8599997E0,1.764E1,2.34E0,3.4199998E0,1.0799999E0,3.6539997E1,2.52E0,5.7294E2,1.5839999E1,1.3139999E1,3.9599998E0,8.388E1,1.4399999E0,7.5599995E0,2.2679998E1,1.26E0,4.3199997E0,1.0799999E0,5.22E0,3.7799997E0,1.0799999E0,1.6199999E1,1.4399999E0,1.26E0,1.0799999E0,3.4739998E1,1.8E0,1.4399999E0,1.0799999E0],"tree_param":{"num_deleted":"0","num_feature":"1280","num_nodes":"81","size_leaf_vector":"1"}},{"base_weights":[9.26782E-3,-3.3246347E-1,2.277709E0,-4.567786E-1,9.2016435E-1,-4.2436365E-2,3.5016198E0,-4.8224854E-1,1.5246637E0,-1.19384885E-1,3.4787018E0,-4.810496E-1,2.1893492E0,7.241379E-1,4.108617E0,-4.9829203E-1,2.5675676E0,-1.19453944E-1,3.5221675E-1,-4.119194E-1,2.6987448E0,4.317618E0,-2.1739133E-1,-5.3883206E-2,6.7307696E-2,-3.7974685E-2,3.478261E-1,1.2779552E-1,2.9865775E-1,1.2566845E0,4.426987E0,-5.0991756E-1,1.2343097E0,6.7307696E-2,3.0916032E-1,-4.393306E-2,6.7307696E-2,-4.982047E-1,1.6346155E-1,-2.8846154E-2,3.648649E-1,4.6010637E-1,1.9230768E-2,1.9230768E-2,-3.977273E-2,-4.0540543E-1,1.835443E0,2.837838E-1,-2.3012555E-1,4.5602293E0,3.5714284E-2,-5.187009E-2,9.90566E-2,2.7099237E-1,-3.7974685E-2,-5.4228384E-2,1.3513512E-2,-4.956897E-2,1.9230768E-2,2.596154E-1,1.9230768E-2,1.9230768E-2,-4.0540542E-2,4.7359872E-1,1.3054188E-1],"categories":[],"categories_nodes":[],"categories_segments":[],"categories_sizes":[],"default_left":[0,0,0,0,0,0,0,0,0,0,0,0,0,0,0,0,0,0,0,0,0,0,0,0,0,0,0,0,0,0,0,0,0,0,0,0,0,0,0,0,0,0,0,0,0,0,0,0,0,0,0,0,0,0,0,0,0,0,0,0,0,0,0,0,0],"id":3,"left_children":[1,3,5,7,9,11,13,15,17,19,21,23,25,27,29,31,33,35,-1,37,39,41,43,-1,-1,-1,-1,45,-1,47,49,51,53,-1,-1,-1,-1,55,-1,-1,-1,-1,-1,-1,-1,57,59,-1,61,63,-1,-1,-1,-1,-1,-1,-1,-1,-1,-1,-1,-1,-1,-1,-1],"loss_changes":[6.699076E2,1.1737581E2,3.2142676E2,3.5250824E1,1.8164902E2,4.026754E1,1.2191791E2,3.4355835E1,2.9715187E1,4.185352E1,6.2084625E1,2.6500835E0,2.3705502E1,1.918156E1,4.9441467E1,1.4191315E1,1.5923996E0,1.7812841E0,0E0,8.873751E0,1.4616024E1,1.7964355E1,4.1634992E-1,0E0,0E0,0E0,0E0,1.21438E1,0E0,1.82376E1,2.7708496E1,9.33754E0,1.2413727E1,0E0,0E0,0E0,0E0,1.3172674E0,0E0,0E0,0E0,0E0,0E0,0E0,0E0,6.543926E-1,3.4505835E0,0E0,4.318931E-1,2.3736206E1,0E0,0E0,0E0,0E0,0E0,0E0,0E0,0E0,0E0,0E0,0E0,0E0,0E0,0E0,0E0],"parents":[2147483647,0,0,1,1,2,2,3,3,4,4,5,5,6,6,7,7,8,8,9,9,10,10,11,11,12,12,13,13,14,14,15,15,16,16,17,17,19,19,20,20,21,21,22,22,27,27,29,29,30,30,31,31,32,32,37,37,45,45,46,46,48,48,49,49],"right_children":[2,4,6,8,10,12,14,16,18,20,22,24,26,28,30,32,34,36,-1,38,40,42,44,-1,-1,-1,-1,46,-1,48,50,52,54,-1,-1,-1,-1,56,-1,-1,-1,-1,-1,-1,-1,58,60,-1,62,64,-1,-1,-1,-1,-1,-1,-1,-1,-1,-1,-1,-1,-1,-1,-1],"split_conditions":[1.1034646E0,1.2559574E0,9.2091046E-2,2.1220722E0,6.328042E-1,1.4000314E0,7.0427936E-1,3.1391907E0,1.3761871E0,1.5489702E0,1.5359852E0,1.2754991E0,1.6856008E0,5.6967056E-1,1.5764546E-1,2.600176E0,1.9560146E0,5.252749E-1,3.5221675E-1,1.2939656E0,4.3696478E-1,1.4507676E0,2.6046013E-4,-5.3883206E-2,6.7307696E-2,-3.7974685E-2,3.478261E-1,8.161716E-1,2.9865775E-1,1.8063147E-2,3.9242095E-1,2.871102E0,9.2445426E-2,6.7307696E-2,3.0916032E-1,-4.393306E-2,6.7307696E-2,1.3115642E0,1.6346155E-1,-2.8846154E-2,3.648649E-1,4.6010637E-1,1.9230768E-2,1.9230768E-2,-3.977273E-2,1.5199353E-1,2.5001627E-1,2.837838E-1,1.9422181E-2,1.6959474E0,3.5714284E-2,-5.187009E-2,9.90566E-2,2.7099237E-1,-3.7974685E-2,-5.4228384E-2,1.3513512E-2,-4.956897E-2,1.9230768E-2,2.596154E-1,1.9230768E-2,1.9230768E-2,-4.0540542E-2,4.7359872E-1,1.3054188E-1],"split_indices":[727,759,388,816,388,879,851,15,1087,690,494,194,816,354,949,149,0,0,0,314,714,394,1,0,0,0,0,222,0,1253,570,690,882,0,0,0,0,528,0,0,0,0,0,0,0,4,134,0,0,1250,0,0,0,0,0,0,0,0,0,0,0,0,0,0,0],"split_type":[0,0,0,0,0,0,0,0,0,0,0,0,0,0,0,0,0,0,0,0,0,0,0,0,0,0,0,0,0,0,0,0,0,0,0,0,0,0,0,0,0,0,0,0,0,0,0,0,0,0,0,0,0,0,0,0,0,0,0,0,0,0,0,0,0],"sum_hessian":[8.6219995E2,7.5006E2,1.1213999E2,6.8292E2,6.714E1,3.9059998E1,7.3079994E1,6.75E2,7.9199996E0,4.842E1,1.872E1,3.33E1,5.7599998E0,1.3499999E1,5.9579998E1,6.723E2,2.6999998E0,4.8599997E0,3.06E0,4.464E1,3.7799997E0,1.5119999E1,3.6E0,3.2219997E1,1.0799999E0,2.1599998E0,3.6E0,1.15199995E1,1.9799999E0,6.4799995E0,5.31E1,6.6851996E2,3.7799997E0,1.0799999E0,1.6199999E0,3.7799997E0,1.0799999E0,4.3559998E1,1.0799999E0,1.0799999E0,2.6999998E0,1.4039999E1,1.0799999E0,1.0799999E0,2.52E0,9.36E0,2.1599998E0,2.6999998E0,3.7799997E0,5.13E1,1.8E0,6.6527997E2,3.2399998E0,1.6199999E0,2.1599998E0,4.0859997E1,2.6999998E0,8.28E0,1.0799999E0,1.0799999E0,1.0799999E0,1.0799999E0,2.6999998E0,4.8239998E1,3.06E0],"tree_param":{"num_deleted":"0","num_feature":"1280","num_nodes":"65","size_leaf_vector":"1"}},{"base_weights":[3.4754197E-3,-4.2539427E-1,3.03775E0,-4.94835E-1,1.6803279E0,5.658128E-2,4.3417516E0,-5.1352245E-1,1.3010204E0,-5.14158E-2,3.9983306E0,-3.3557048E-1,2.4895399E0,-4.3227684E-2,4.7226276E0,-5.3116405E-1,1.097561E0,3.3783785E-1,-4.4747084E-2,4.4495416E-1,-2.8846154E-2,-5.013928E-1,2.1153846E-1,-3.0973453E-2,3.5795456E-1,-4.6075087E-2,1.15384616E-1,4.821056E0,8.196721E-3,-5.3530186E-1,1.15384616E-1,-4.6075087E-2,3.5029942E-1,-5.354559E-2,1.9230768E-2,4.8933253E-1,9.016394E-2,-5.394278E-2,5.6962024E-2],"categories":[],"categories_nodes":[],"categories_segments":[],"categories_sizes":[],"default_left":[0,0,0,0,0,0,0,0,0,0,0,0,0,0,0,0,0,0,0,0,0,0,0,0,0,0,0,0,0,0,0,0,0,0,0,0,0,0,0],"id":4,"left_children":[1,3,5,7,9,11,13,15,17,-1,19,21,23,25,27,29,31,-1,-1,-1,-1,33,-1,-1,-1,-1,-1,35,-1,37,-1,-1,-1,-1,-1,-1,-1,-1,-1],"loss_changes":[1.1245815E3,1.1154854E2,4.1578925E2,2.5293762E1,1.2617428E2,3.287372E1,1.2452881E2,2.124414E1,2.9988503E1,0E0,2.445578E1,1.3172043E1,1.5693567E1,4.00029E0,3.0893677E1,5.6358185E0,3.235101E1,0E0,0E0,0E0,0E0,7.816138E-1,0E0,0E0,0E0,0E0,0E0,1.4583008E1,0E0,3.5835419E0,0E0,0E0,0E0,0E0,0E0,0E0,0E0,0E0,0E0],"parents":[2147483647,0,0,1,1,2,2,3,3,4,4,5,5,6,6,7,7,8,8,10,10,11,11,12,12,13,13,14,14,15,15,16,16,21,21,27,27,29,29],"right_children":[2,4,6,8,10,12,14,16,18,-1,20,22,24,26,28,30,32,-1,-1,-1,-1,34,-1,-1,-1,-1,-1,36,-1,38,-1,-1,-1,-1,-1,-1,-1,-1,-1],"split_conditions":[1.3052163E0,1.9471401E0,1.5337526E0,2.3620226E0,3.5127026E-1,8.7707365E-1,7.6899767E-1,3.064514E0,1.3330518E-3,-5.14158E-2,1.9537672E-4,1.8060957E0,3.1013146E-1,2.2349358E-2,1.355062E0,2.6091757E0,1.3435787E0,3.3783785E-1,-4.4747084E-2,4.4495416E-1,-2.8846154E-2,9.3566453E-1,2.1153846E-1,-3.0973453E-2,3.5795456E-1,-4.6075087E-2,1.15384616E-1,6.554542E-1,8.196721E-3,3.412432E0,1.15384616E-1,-4.6075087E-2,3.5029942E-1,-5.354559E-2,1.9230768E-2,4.8933253E-1,9.016394E-2,-5.394278E-2,5.6962024E-2],"split_indices":[941,530,257,1101,236,755,756,672,228,0,326,1175,639,56,1220,630,257,0,0,0,0,9,0,0,0,0,0,191,0,437,0,0,0,0,0,0,0,0,0],"split_type":[0,0,0,0,0,0,0,0,0,0,0,0,0,0,0,0,0,0,0,0,0,0,0,0,0,0,0,0,0,0,0,0,0,0,0,0,0,0,0],"sum_hessian":[8.6219995E2,7.5618E2,1.0602E2,7.3277997E2,2.34E1,3.2579998E1,7.3439995E1,7.2593994E2,6.8399997E0,1.2419999E1,1.098E1,2.88E1,3.7799997E0,5.9399996E0,6.75E1,7.1874E2,7.2E0,2.6999998E0,4.14E0,9.9E0,1.0799999E0,2.772E1,1.0799999E0,1.26E0,2.52E0,4.8599997E0,1.0799999E0,6.606E1,1.4399999E0,7.1766E2,1.0799999E0,4.8599997E0,2.34E0,2.664E1,1.0799999E0,6.4619995E1,1.4399999E0,7.1549994E2,2.1599998E0],"tree_param":{"num_deleted":"0","num_feature":"1280","num_nodes":"39","size_leaf_vector":"1"}},{"base_weights":[-1.5060262E-2,-2.008799E-1,1.9937141E0,2.0454545E0,-3.050924E-1,4.5454544E-1,2.9519145E0,3.5130112E0,-2.4523163E-1,-4.0698698E-1,6.3695127E-1,-1.5923588E-2,2.6653697E0,3.9206128E0,1.1627907E0,4.0879827E0,-1.546392E-1,1.6346155E-1,-5.147059E-2,-4.408106E-1,9.1484463E-1,2.2852912E0,1.8181799E-2,-2.3404257E-1,1.9465649E-1,3.4536085E-1,1.3274336E-2,4.177263E0,3.020134E-2,2.3029046E0,-2.5700936E-1,4.3537016E0,8.0152676E-2,-3.5714287E-2,1.9230768E-2,-4.5249552E-1,2.3154362E-1,3.3636365E0,-2.0186338E-1,2.4390243E-1,3.3920367E0,1.3736264E0,-2.4520259E-1,5.9859157E-1,-4.729012E-1,4.4304314E0,8.860759E-1,-1.3513516E-1,3.2708933E0,-4.8128348E-2,6.7307696E-2,1.0176992E-1,4.5558378E-1,-4.681569E-2,9.5300265E-2,6.7307696E-2,3.8687783E-1,-5.084746E-2,1.6346155E-1,1.9026549E-1,-3.3141214E-2,3.795181E-1,8.196721E-3,2.7375564E-1,7.0422525E-3,5.5950265E-2,-4.858079E-2,-4.0540542E-2,1.6442953E-1,-5.2423906E-2,1.9230768E-2,4.6488148E-1,1.0714286E-1,-2.8846154E-2,1.6346155E-1,1.9230768E-2,-3.4351148E-2,3.8054606E-1,1.9230768E-2],"categories":[],"categories_nodes":[],"categories_segments":[],"categories_sizes":[],"default_left":[0,0,0,0,0,0,0,0,0,0,0,0,0,0,0,0,0,0,0,0,0,0,0,0,0,0,0,0,0,0,0,0,0,0,0,0,0,0,0,0,0,0,0,0,0,0,0,0,0,0,0,0,0,0,0,0,0,0,0,0,0,0,0,0,0,0,0,0,0,0,0,0,0,0,0,0,0,0,0],"id":5,"left_children":[1,3,5,7,9,11,13,15,17,19,21,23,25,27,29,31,33,-1,-1,35,37,39,41,43,-1,-1,-1,45,-1,47,49,51,-1,-1,-1,53,-1,55,57,59,61,63,65,67,69,71,73,75,77,-1,-1,-1,-1,-1,-1,-1,-1,-1,-1,-1,-1,-1,-1,-1,-1,-1,-1,-1,-1,-1,-1,-1,-1,-1,-1,-1,-1,-1,-1],"loss_changes":[3.2260693E2,1.8579875E2,1.0658646E2,1.1919377E2,7.290572E1,3.047648E1,7.329291E1,4.6013397E1,8.2778E0,3.096466E1,7.569938E1,1.1208345E1,9.8026085E0,2.5411041E1,2.843409E1,1.2788208E1,3.4128243E-1,0E0,0E0,2.2535278E1,4.8206085E1,4.4946045E1,1.9971977E1,4.9567976E0,0E0,0E0,0E0,1.8354736E1,0E0,2.3192368E1,2.1095076E0,6.8405457E0,0E0,0E0,0E0,1.5088516E1,0E0,4.8711433E0,8.083694E0,8.455859E0,1.7116623E1,1.5982271E1,9.352417E0,6.6299434E0,7.43525E-1,1.3049835E1,3.2497566E0,3.185158E-1,1.0689415E1,0E0,0E0,0E0,0E0,0E0,0E0,0E0,0E0,0E0,0E0,0E0,0E0,0E0,0E0,0E0,0E0,0E0,0E0,0E0,0E0,0E0,0E0,0E0,0E0,0E0,0E0,0E0,0E0,0E0,0E0],"parents":[2147483647,0,0,1,1,2,2,3,3,4,4,5,5,6,6,7,7,8,8,9,9,10,10,11,11,12,12,13,13,14,14,15,15,16,16,19,19,20,20,21,21,22,22,23,23,27,27,29,29,30,30,31,31,35,35,37,37,38,38,39,39,40,40,41,41,42,42,43,43,44,44,45,45,46,46,47,47,48,48],"right_children":[2,4,6,8,10,12,14,16,18,20,22,24,26,28,30,32,34,-1,-1,36,38,40,42,44,-1,-1,-1,46,-1,48,50,52,-1,-1,-1,54,-1,56,58,60,62,64,66,68,70,72,74,76,78,-1,-1,-1,-1,-1,-1,-1,-1,-1,-1,-1,-1,-1,-1,-1,-1,-1,-1,-1,-1,-1,-1,-1,-1,-1,-1,-1,-1,-1,-1],"split_conditions":[1.7592175E0,3.895234E-3,6.28304E-1,5.199698E-2,2.0346642E-1,1.4571232E0,6.164462E-1,1.5369577E0,5.3347374E-4,2.1217687E0,7.0364185E-2,5.323764E-1,3.4631964E-2,1.3499873E-2,1.02727085E-1,3.2646233E-1,7.509057E-2,1.6346155E-1,-5.147059E-2,2.6356924E0,1.4202578E-1,6.325664E-1,8.241128E-3,9.4961144E-2,1.9465649E-1,3.4536085E-1,1.3274336E-2,2.5416008E-1,3.020134E-2,5.4809767E-1,8.515472E-1,1.2068053E-1,8.0152676E-2,-3.5714287E-2,1.9230768E-2,2.2410257E0,2.3154362E-1,1.775767E-1,6.6709524E-1,4.092995E-3,2.6494887E-1,3.4256583E-1,3.3653027E-4,2.5878634E-4,1.9281834E-1,1.9397595E0,2.2612046E-1,1.9175636E-2,3.0851784E-1,-4.8128348E-2,6.7307696E-2,1.0176992E-1,4.5558378E-1,-4.681569E-2,9.5300265E-2,6.7307696E-2,3.8687783E-1,-5.084746E-2,1.6346155E-1,1.9026549E-1,-3.3141214E-2,3.795181E-1,8.196721E-3,2.7375564E-1,7.0422525E-3,5.5950265E-2,-4.858079E-2,-4.0540542E-2,1.6442953E-1,-5.2423906E-2,1.9230768E-2,4.6488148E-1,1.0714286E-1,-2.8846154E-2,1.6346155E-1,1.9230768E-2,-3.4351148E-2,3.8054606E-1,1.9230768E-2],"split_indices":[946,642,1028,764,671,460,1270,1153,554,1234,959,432,189,587,195,44,0,0,0,1028,358,1201,554,231,0,0,0,241,0,521,51,418,0,0,0,843,0,97,553,331,634,1270,764,99,59,1033,29,1,335,0,0,0,0,0,0,0,0,0,0,0,0,0,0,0,0,0,0,0,0,0,0,0,0,0,0,0,0,0,0],"split_type":[0,0,0,0,0,0,0,0,0,0,0,0,0,0,0,0,0,0,0,0,0,0,0,0,0,0,0,0,0,0,0,0,0,0,0,0,0,0,0,0,0,0,0,0,0,0,0,0,0,0,0,0,0,0,0,0,0,0,0,0,0,0,0,0,0,0,0,0,0,0,0,0,0,0,0,0,0,0,0],"sum_hessian":[8.6219995E2,7.9001996E2,7.218E1,3.4199997E1,7.5581995E2,2.8259998E1,4.392E1,2.0519999E1,1.3679999E1,6.8256E2,7.3259995E1,2.4119999E1,4.14E0,2.772E1,1.6199999E1,1.764E1,2.8799999E0,1.0799999E0,1.2599999E1,6.6618E2,1.638E1,1.9259998E1,5.3999996E1,2.2499998E1,1.6199999E0,2.8799999E0,1.26E0,2.574E1,1.9799999E0,8.639999E0,7.5599995E0,1.6019999E1,1.6199999E0,1.8E0,1.0799999E0,6.6419995E2,1.9799999E0,4.5E0,1.1879999E1,7.2E0,1.2059999E1,8.099999E0,4.5899998E1,4.68E0,1.782E1,2.358E1,2.1599998E0,2.6999998E0,5.9399996E0,6.4799995E0,1.0799999E0,1.26E0,1.4759999E1,6.5754E2,6.66E0,1.0799999E0,3.4199998E0,1.0799999E1,1.0799999E0,1.26E0,5.9399996E0,1.062E1,1.4399999E0,3.4199998E0,4.68E0,1.0259999E1,3.564E1,2.6999998E0,1.9799999E0,1.674E1,1.0799999E0,2.1779999E1,1.8E0,1.0799999E0,1.0799999E0,1.0799999E0,1.6199999E0,4.8599997E0,1.0799999E0],"tree_param":{"num_deleted":"0","num_feature":"1280","num_nodes":"79","size_leaf_vector":"1"}},{"base_weights":[-2.3169622E-2,-4.50237E-1,2.0640328E0,-4.8309115E-1,2.982709E0,5.790464E-2,4.061735E0,-5.23846E-1,3.7943694E-1,-3.4351148E-2,4.0601507E-1,-2.872861E-1,2.3523421E0,4.7234874E0,6.355283E-1,-5.354387E-1,6.772334E-1,-1.4809594E-1,3.1203008E0,-4.1996834E-1,2.3053892E0,3.262032E0,-3.8922157E-2,4.8173366E0,1.3274336E-2,3.2954547E-1,-3.13093E-1,-5.413483E-1,1.460177E-1,-2.7272728E-1,2.540984E-1,-4.1984737E-1,2.1518986E0,3.820755E-1,1.9230768E-2,-5.1374346E-1,1.6442953E-1,2.7876106E-1,6.7307696E-2,-2.8846154E-2,3.90625E-1,4.8647282E-1,1.15384616E-1,6.7307696E-2,-4.9682878E-2,-5.4430384E-2,6.7307696E-2,1.9230768E-2,-4.298643E-2,-5.334395E-2,1.15384616E-1,6.7307696E-2,2.596154E-1,-5.463025E-2,6.7307696E-2],"categories":[],"categories_nodes":[],"categories_segments":[],"categories_sizes":[],"default_left":[0,0,0,0,0,0,0,0,0,0,0,0,0,0,0,0,0,0,0,0,0,0,0,0,0,0,0,0,0,0,0,0,0,0,0,0,0,0,0,0,0,0,0,0,0,0,0,0,0,0,0,0,0,0,0],"id":6,"left_children":[1,3,5,7,9,11,13,15,17,-1,-1,19,21,23,25,27,29,31,33,35,37,39,-1,41,-1,-1,43,45,-1,47,-1,49,51,-1,-1,53,-1,-1,-1,-1,-1,-1,-1,-1,-1,-1,-1,-1,-1,-1,-1,-1,-1,-1,-1],"loss_changes":[7.703651E2,8.235396E1,5.8808746E2,2.520813E1,2.626633E1,5.9491093E1,1.6373535E2,9.827728E0,4.7713978E1,0E0,0E0,2.347968E1,2.5760468E1,2.5848267E1,3.3985596E1,8.737213E0,1.298019E1,1.8629229E1,1.0176155E1,1.305943E1,7.52758E-1,1.8235748E1,0E0,4.842163E0,0E0,0E0,2.244196E0,2.7804413E0,0E0,4.8457423E-1,0E0,5.2989993E0,3.2862568E-1,0E0,0E0,2.7294865E0,0E0,0E0,0E0,0E0,0E0,0E0,0E0,0E0,0E0,0E0,0E0,0E0,0E0,0E0,0E0,0E0,0E0,0E0,0E0],"parents":[2147483647,0,0,1,1,2,2,3,3,4,4,5,5,6,6,7,7,8,8,11,11,12,12,13,13,14,14,15,15,16,16,17,17,18,18,19,19,20,20,21,21,23,23,26,26,27,27,29,29,31,31,32,32,35,35],"right_children":[2,4,6,8,10,12,14,16,18,-1,-1,20,22,24,26,28,30,32,34,36,38,40,-1,42,-1,-1,44,46,-1,48,-1,50,52,-1,-1,54,-1,-1,-1,-1,-1,-1,-1,-1,-1,-1,-1,-1,-1,-1,-1,-1,-1,-1,-1],"split_conditions":[8.272878E-1,1.8890375E0,4.233312E-1,7.776924E-1,3.200971E-2,3.817764E-1,1.3580322E0,1.8379093E0,1.5401976E0,-3.4351148E-2,4.0601507E-1,2.0573545E0,3.14978E-1,2.741489E-1,7.322126E-2,2.3623435E0,1.3738391E0,8.606094E-1,9.657656E-3,1.4187102E0,2.8081816E-1,1.34542035E-2,-3.8922157E-2,1.6563154E0,1.3274336E-2,3.2954547E-1,1.8808959E-2,1.4375314E0,1.460177E-1,2.6046013E-4,2.540984E-1,1.2027252E0,5.872201E-1,3.820755E-1,1.9230768E-2,1.8211304E0,1.6442953E-1,2.7876106E-1,6.7307696E-2,-2.8846154E-2,3.90625E-1,4.8647282E-1,1.15384616E-1,6.7307696E-2,-4.9682878E-2,-5.4430384E-2,6.7307696E-2,1.9230768E-2,-4.298643E-2,-5.334395E-2,1.15384616E-1,6.7307696E-2,2.596154E-1,-5.463025E-2,6.7307696E-2],"split_indices":[435,105,407,923,88,859,1213,335,868,0,0,336,416,188,240,801,1017,715,431,1253,1,88,0,329,0,0,38,691,0,1,0,1254,26,0,0,1028,0,0,0,0,0,0,0,0,0,0,0,0,0,0,0,0,0,0,0],"split_type":[0,0,0,0,0,0,0,0,0,0,0,0,0,0,0,0,0,0,0,0,0,0,0,0,0,0,0,0,0,0,0,0,0,0,0,0,0,0,0,0,0,0,0,0,0,0,0,0,0,0,0,0,0,0,0],"sum_hessian":[8.6219995E2,7.1639996E2,1.4579999E2,7.1045996E2,5.9399996E0,7.3259995E1,7.253999E1,6.7877997E2,3.1679998E1,1.6199999E0,4.3199997E0,6.4439995E1,8.82E0,6.0479996E1,1.2059999E1,6.7283997E2,5.9399996E0,2.7359999E1,4.3199997E0,6.21E1,2.34E0,6.4799995E0,2.34E0,5.9219997E1,1.26E0,2.52E0,9.54E0,6.7157996E2,1.26E0,4.5E0,1.4399999E0,2.5199999E1,2.1599998E0,3.2399998E0,1.0799999E0,6.012E1,1.9799999E0,1.26E0,1.0799999E0,1.0799999E0,5.3999996E0,5.814E1,1.0799999E0,1.0799999E0,8.46E0,6.705E2,1.0799999E0,1.0799999E0,3.4199998E0,2.4119999E1,1.0799999E0,1.0799999E0,1.0799999E0,5.9039997E1,1.0799999E0],"tree_param":{"num_deleted":"0","num_feature":"1280","num_nodes":"55","size_leaf_vector":"1"}},{"base_weights":[-5.7924213E-3,-2.5848567E-1,1.9653769E0,-3.5354912E-1,1.9620253E0,3.6044362E-1,3.8470068E0,-4.6213388E-1,5.7419354E-1,-6.706411E-2,3.2794578E0,-4.5681085E-2,3.1268013E0,4.412666E0,1.0086454E-1,-4.9649298E-1,4.6589017E-1,-1.4603618E-1,2.521449E0,1.6442953E-1,-5.0699305E-2,3.9454095E0,-1.7241381E-1,1.6121496E0,-3.940887E-1,4.090909E-1,-3.2786887E-2,4.5454544E-1,4.672489E0,-4.6075087E-2,1.6346155E-1,-5.041672E-1,1.1077844E0,-3.9523214E-1,1.923077E0,-4.3525338E-1,9.4813615E-1,3.9280245E0,1.7937218E-1,-3.0973453E-2,4.3270526E0,-3.6912754E-2,1.9230768E-2,3.3263597E-1,-4.393306E-2,7.013575E-1,-5.1371706E-1,-3.2786887E-2,1.15384616E-1,1.4285715E-1,4.799082E-1,-5.1037848E-2,1.3114755E-1,-3.0973453E-2,2.1153846E-1,-5.181696E-2,6.7307696E-2,3.2394367E-1,-2.0361993E-2,6.521739E-2,-5.4250825E-2,-3.3141214E-2,2.1875E-1,-3.2786887E-2,4.4836488E-1,-3.571429E-2,2.1153846E-1,4.6274218E-1,9.016394E-2,-3.8922157E-2,2.1153846E-1,-5.4016627E-2,1.9230768E-2],"categories":[],"categories_nodes":[],"categories_segments":[],"categories_sizes":[],"default_left":[0,0,0,0,0,0,0,0,0,0,0,0,0,0,0,0,0,0,0,0,0,0,0,0,0,0,0,0,0,0,0,0,0,0,0,0,0,0,0,0,0,0,0,0,0,0,0,0,0,0,0,0,0,0,0,0,0,0,0,0,0,0,0,0,0,0,0,0,0,0,0,0,0],"id":7,"left_children":[1,3,5,7,9,11,13,15,17,19,21,23,25,27,29,31,33,35,37,-1,-1,39,41,43,45,-1,-1,47,49,-1,-1,51,53,55,57,59,61,63,65,-1,67,-1,-1,-1,-1,69,71,-1,-1,-1,-1,-1,-1,-1,-1,-1,-1,-1,-1,-1,-1,-1,-1,-1,-1,-1,-1,-1,-1,-1,-1,-1,-1],"loss_changes":[4.304689E2,1.6238818E2,2.9516656E2,7.43486E1,8.469269E1,6.092344E1,9.51236E1,2.1241028E1,1.0905974E2,1.0937247E1,4.4770844E1,2.8452583E1,2.4456161E1,3.8148743E1,6.7311144E0,8.386993E0,3.092584E1,1.8615082E1,6.841002E1,0E0,0E0,2.751825E1,3.622737E-1,3.1564054E1,5.680784E0,0E0,0E0,2.304253E0,8.190613E0,0E0,0E0,7.813797E0,5.4257035E0,2.4422507E0,2.613504E1,5.73987E0,2.0294056E1,3.2352737E1,1.0020696E1,0E0,1.1117065E1,0E0,0E0,0E0,0E0,7.639472E0,7.9816914E-1,0E0,0E0,0E0,0E0,0E0,0E0,0E0,0E0,0E0,0E0,0E0,0E0,0E0,0E0,0E0,0E0,0E0,0E0,0E0,0E0,0E0,0E0,0E0,0E0,0E0,0E0],"parents":[2147483647,0,0,1,1,2,2,3,3,4,4,5,5,6,6,7,7,8,8,9,9,10,10,11,11,12,12,13,13,14,14,15,15,16,16,17,17,18,18,21,21,22,22,23,23,24,24,27,27,28,28,31,31,32,32,33,33,34,34,35,35,36,36,37,37,38,38,40,40,45,45,46,46],"right_children":[2,4,6,8,10,12,14,16,18,20,22,24,26,28,30,32,34,36,38,-1,-1,40,42,44,46,-1,-1,48,50,-1,-1,52,54,56,58,60,62,64,66,-1,68,-1,-1,-1,-1,70,72,-1,-1,-1,-1,-1,-1,-1,-1,-1,-1,-1,-1,-1,-1,-1,-1,-1,-1,-1,-1,-1,-1,-1,-1,-1,-1],"split_conditions":[6.1029035E-1,1.7924082E0,1.5376784E0,1.870952E0,1.2809656E0,1.413317E0,4.274076E-1,1.1286175E0,4.8365492E-1,8.307632E-3,6.20278E-1,3.3207133E-2,5.208406E-1,2.3967266E-2,6.198891E-1,2.0016837E0,4.0630254E-1,2.1446006E0,1.644778E-1,1.6442953E-1,-5.0699305E-2,2.3861662E-2,2.6229912E-1,5.903487E-3,8.194738E-3,4.090909E-1,-3.2786887E-2,1.6364759E-2,2.334293E-2,-4.6075087E-2,1.6346155E-1,2.7476146E0,1.2025163E0,1.5225496E0,1.1679607E-1,7.191308E-3,1.17934E0,8.3830434E-1,1.6360987E0,-3.0973453E-2,8.717491E-1,-3.6912754E-2,1.9230768E-2,3.3263597E-1,-4.393306E-2,1.0244093E0,1.5719147E0,-3.2786887E-2,1.15384616E-1,1.4285715E-1,4.799082E-1,-5.1037848E-2,1.3114755E-1,-3.0973453E-2,2.1153846E-1,-5.181696E-2,6.7307696E-2,3.2394367E-1,-2.0361993E-2,6.521739E-2,-5.4250825E-2,-3.3141214E-2,2.1875E-1,-3.2786887E-2,4.4836488E-1,-3.571429E-2,2.1153846E-1,4.6274218E-1,9.016394E-2,-3.8922157E-2,2.1153846E-1,-5.4016627E-2,1.9230768E-2],"split_indices":[604,661,180,180,48,776,1261,1237,715,491,19,640,249,715,493,159,726,1134,595,0,0,57,0,907,531,0,0,10,982,0,0,425,12,0,349,595,48,256,972,0,1050,0,0,0,0,48,231,0,0,0,0,0,0,0,0,0,0,0,0,0,0,0,0,0,0,0,0,0,0,0,0,0,0],"split_type":[0,0,0,0,0,0,0,0,0,0,0,0,0,0,0,0,0,0,0,0,0,0,0,0,0,0,0,0,0,0,0,0,0,0,0,0,0,0,0,0,0,0,0,0,0,0,0,0,0,0,0,0,0,0,0,0,0,0,0,0,0,0,0,0,0,0,0,0,0,0,0,0,0],"sum_hessian":[8.6219995E2,7.6499994E2,9.72E1,7.3439996E2,3.0599998E1,5.31E1,4.41E1,6.5789996E2,7.65E1,1.2419999E1,1.8179998E1,4.716E1,5.9399996E0,3.816E1,5.9399996E0,6.3486E2,2.3039999E1,5.6519997E1,1.998E1,1.9799999E0,1.044E1,1.5119999E1,3.06E0,7.5599995E0,3.96E1,4.5E0,1.4399999E0,2.52E0,3.564E1,4.8599997E0,1.0799999E0,6.3251996E2,2.34E0,1.494E1,8.099999E0,4.5179996E1,1.1339999E1,1.2059999E1,7.9199996E0,1.26E0,1.386E1,1.9799999E0,1.0799999E0,3.7799997E0,3.7799997E0,3.4199998E0,3.618E1,1.4399999E0,1.0799999E0,1.8E0,3.384E1,6.3107996E2,1.4399999E0,1.26E0,1.0799999E0,1.386E1,1.0799999E0,4.68E0,3.4199998E0,3.6E0,4.1579998E1,5.9399996E0,5.3999996E0,1.4399999E0,1.062E1,6.8399997E0,1.0799999E0,1.2419999E1,1.4399999E0,2.34E0,1.0799999E0,3.51E1,1.0799999E0],"tree_param":{"num_deleted":"0","num_feature":"1280","num_nodes":"73","size_leaf_vector":"1"}},{"base_weights":[-6.9509014E-3,-2.5728613E-1,1.3086277E0,-3.270301E-1,1.2071042E0,1.5360168E-1,2.6587052E0,4.7099635E-2,-4.7939652E-1,-2.423901E-1,2.6941748E0,1.3503649E0,-2.4938963E-1,3.4565217E0,5.472103E-1,-3.0059984E-1,8.867161E-1,-4.933876E-1,2.3282443E-1,-5.2030463E-2,1.3087249E-1,4.06639E0,6.632653E-1,-1.7241381E-1,2.5229359E0,-3.9140448E-1,9.807074E-1,3.9065607E0,2.662722E-1,-4.3478262E-1,2.3372781E0,-3.5283262E-1,1.875E0,3.7319946E-1,2.4482758E0,-5.0535613E-1,1.4071857E0,4.3902442E-1,1.3114755E-1,-2.7272728E-1,2.0059881E0,-4.878049E-2,1.15384616E-1,-3.8922157E-2,3.364486E0,-4.6630096E-1,1.6346155E-1,2.9508197E-1,-2.3012555E-1,4.1334033E0,-6.3291155E-2,2.1153846E-1,-4.577465E-2,1.9230768E-2,-5.084746E-2,-1.1363638E-1,3.820755E-1,-4.0599536E-2,1.3800906E-1,-2.8846154E-2,2.9508197E-1,-2.0136706E-9,1.7413442E-1,-1.6196914E-9,3.256881E-1,-5.1340938E-2,1.3114755E-1,2.596154E-1,-3.0973453E-2,-4.298643E-2,1.9230768E-2,1.9230768E-2,2.7876106E-1,3.90411E-1,1.3274336E-2,-5.237316E-2,5.6962024E-2,1.9230768E-2,-4.0540542E-2,1.15384616E-1,4.3941146E-1,1.9230768E-2,-2.8846154E-2,1.9230768E-2,-3.2786887E-2],"categories":[],"categories_nodes":[],"categories_segments":[],"categories_sizes":[],"default_left":[0,0,0,0,0,0,0,0,0,0,0,0,0,0,0,0,0,0,0,0,0,0,0,0,0,0,0,0,0,0,0,0,0,0,0,0,0,0,0,0,0,0,0,0,0,0,0,0,0,0,0,0,0,0,0,0,0,0,0,0,0,0,0,0,0,0,0,0,0,0,0,0,0,0,0,0,0,0,0,0,0,0,0,0,0],"id":8,"left_children":[1,3,5,7,9,11,13,15,17,19,21,23,25,27,29,31,33,35,-1,-1,-1,37,39,41,43,45,47,49,51,53,55,57,59,61,63,65,67,-1,-1,69,71,-1,-1,-1,73,75,-1,-1,77,79,81,-1,-1,-1,-1,83,-1,-1,-1,-1,-1,-1,-1,-1,-1,-1,-1,-1,-1,-1,-1,-1,-1,-1,-1,-1,-1,-1,-1,-1,-1,-1,-1,-1,-1],"loss_changes":[2.846192E2,7.454697E1,2.1503482E2,3.9573654E1,7.225875E1,3.6758945E1,1.0531558E2,5.9149677E1,2.0519463E1,8.328247E0,4.3230103E1,3.468214E1,1.0400695E1,6.500366E1,3.3782234E1,1.6954924E1,4.6654236E1,1.1891319E1,0E0,0E0,0E0,2.8430023E0,1.040023E1,4.444588E0,2.8022453E1,8.671003E0,1.5516722E1,3.6498962E1,1.0018542E1,6.9298816E-1,2.5012688E1,1.3537313E1,9.043977E0,2.3395273E1,2.8705475E1,7.8303757E0,7.622272E0,0E0,0E0,4.8457423E-1,4.1987514E0,0E0,0E0,0E0,1.4409752E1,3.3348837E0,0E0,0E0,4.318931E-1,2.451056E1,2.3734176E-1,0E0,0E0,0E0,0E0,2.937636E-1,0E0,0E0,0E0,0E0,0E0,0E0,0E0,0E0,0E0,0E0,0E0,0E0,0E0,0E0,0E0,0E0,0E0,0E0,0E0,0E0,0E0,0E0,0E0,0E0,0E0,0E0,0E0,0E0,0E0],"parents":[2147483647,0,0,1,1,2,2,3,3,4,4,5,5,6,6,7,7,8,8,9,9,10,10,11,11,12,12,13,13,14,14,15,15,16,16,17,17,21,21,22,22,23,23,24,24,25,25,26,26,27,27,28,28,29,29,30,30,31,31,32,32,33,33,34,34,35,35,36,36,39,39,40,40,44,44,45,45,48,48,49,49,50,50,55,55],"right_children":[2,4,6,8,10,12,14,16,18,20,22,24,26,28,30,32,34,36,-1,-1,-1,38,40,42,44,46,48,50,52,54,56,58,60,62,64,66,68,-1,-1,70,72,-1,-1,-1,74,76,-1,-1,78,80,82,-1,-1,-1,-1,84,-1,-1,-1,-1,-1,-1,-1,-1,-1,-1,-1,-1,-1,-1,-1,-1,-1,-1,-1,-1,-1,-1,-1,-1,-1,-1,-1,-1,-1],"split_conditions":[1.3062451E0,2.0820758E0,3.1292692E-1,6.735091E-3,7.1061766E-1,5.867445E-2,3.7414488E-1,4.5972586E-1,2.275488E0,6.317721E-1,1.2908964E-2,6.2051006E-2,1.0208125E0,1.06969714E-1,8.450353E-1,2.347248E0,5.105284E-1,2.1140506E0,2.3282443E-1,-5.2030463E-2,1.3087249E-1,2.9960763E-1,4.4536576E-1,1.341916E-1,2.7726991E-2,1.7366068E0,1.22376606E-1,3.6848776E0,6.1541118E-2,2.9171262E-2,1.1466676E0,1.7964716E0,1.1940032E0,1.1491592E0,9.149307E-2,2.3514483E0,1.4458247E-2,4.3902442E-1,1.3114755E-1,1.5837914E-1,6.4864963E-1,-4.878049E-2,1.15384616E-1,-3.8922157E-2,1.4645022E-1,1.7676058E0,1.6346155E-1,2.9508197E-1,2.2733794E-1,6.288947E-3,4.5158017E-1,2.1153846E-1,-4.577465E-2,1.9230768E-2,-5.084746E-2,2.0229541E-1,3.820755E-1,-4.0599536E-2,1.3800906E-1,-2.8846154E-2,2.9508197E-1,-2.0136706E-9,1.7413442E-1,-1.6196914E-9,3.256881E-1,-5.1340938E-2,1.3114755E-1,2.596154E-1,-3.0973453E-2,-4.298643E-2,1.9230768E-2,1.9230768E-2,2.7876106E-1,3.90411E-1,1.3274336E-2,-5.237316E-2,5.6962024E-2,1.9230768E-2,-4.0540542E-2,1.15384616E-1,4.3941146E-1,1.9230768E-2,-2.8846154E-2,1.9230768E-2,-3.2786887E-2],"split_indices":[305,501,1117,54,1273,236,955,1278,858,922,794,1195,591,17,591,993,990,640,0,0,0,581,195,975,1124,865,207,973,7,0,81,640,353,394,1066,38,1147,0,0,1,128,0,0,0,54,175,0,0,0,1066,0,0,0,0,0,0,0,0,0,0,0,0,0,0,0,0,0,0,0,0,0,0,0,0,0,0,0,0,0,0,0,0,0,0,0],"split_type":[0,0,0,0,0,0,0,0,0,0,0,0,0,0,0,0,0,0,0,0,0,0,0,0,0,0,0,0,0,0,0,0,0,0,0,0,0,0,0,0,0,0,0,0,0,0,0,0,0,0,0,0,0,0,0,0,0,0,0,0,0,0,0,0,0,0,0,0,0,0,0,0,0,0,0,0,0,0,0,0,0,0,0,0,0],"sum_hessian":[8.6219995E2,7.2504E2,1.3715999E2,6.9281995E2,3.2219997E1,7.452E1,6.2639996E1,2.007E2,4.9211996E2,1.674E1,1.548E1,1.8179998E1,5.6339996E1,4.4999996E1,1.764E1,1.4237999E2,5.8319996E1,4.9049997E2,1.6199999E0,1.4759999E1,1.9799999E0,8.639999E0,6.8399997E0,8.28E0,9.9E0,5.112E1,5.22E0,3.9239998E1,5.7599998E0,1.1879999E1,5.7599998E0,1.3986E2,2.52E0,4.482E1,1.3499999E1,4.8815997E2,2.34E0,7.2E0,1.4399999E0,4.5E0,2.34E0,7.2E0,1.0799999E0,2.34E0,7.5599995E0,5.0039997E1,1.0799999E0,1.4399999E0,3.7799997E0,3.7079998E1,2.1599998E0,1.0799999E0,4.68E0,1.0799999E0,1.0799999E1,2.52E0,3.2399998E0,1.3643999E2,3.4199998E0,1.0799999E0,1.4399999E0,3.6E1,8.82E0,3.6E0,9.9E0,4.8671997E2,1.4399999E0,1.0799999E0,1.26E0,3.4199998E0,1.0799999E0,1.0799999E0,1.26E0,6.2999997E0,1.26E0,4.7879997E1,2.1599998E0,1.0799999E0,2.6999998E0,3.4199998E0,3.366E1,1.0799999E0,1.0799999E0,1.0799999E0,1.4399999E0],"tree_param":{"num_deleted":"0","num_feature":"1280","num_nodes":"85","size_leaf_vector":"1"}},{"base_weights":[-2.3169809E-3,-3.3843517E-1,2.3941674E0,-4.160318E-1,2.0662196E0,2.6026237E-1,4.0339775E0,-4.8411283E-1,7.075472E-1,-8.474578E-2,3.851455E0,-2.967141E-1,3.262032E0,-1.2195124E-1,4.602574E0,-5.2834696E-1,1.0319707E-1,-8.0367416E-2,3.8317757E0,1.4285715E-1,-5E-2,-3.2786887E-2,4.3975908E-1,-4.8969075E-1,2.3154362E-1,-3.2786887E-2,4.1721854E-1,-4.7752813E-2,1.15384616E-1,4.7657166E0,-3.4351148E-2,-5.329587E-1,1.15384616E-1,1.8028419E0,-3.881512E-1,-3.527228E-1,2.4431818E0,4.3150687E-1,5.7522126E-2,-5.4082718E-2,6.7307696E-2,4.839872E0,1.0176992E-1,-5.45196E-2,1.3776335E-2,-2.8169015E-2,3.3282676E-1,-4.8748005E-2,1.1832061E-1,1.6346155E-1,-4.7375165E-2,2.9508197E-1,6.7307696E-2,4.897709E-1,1.15384616E-1],"categories":[],"categories_nodes":[],"categories_segments":[],"categories_sizes":[],"default_left":[0,0,0,0,0,0,0,0,0,0,0,0,0,0,0,0,0,0,0,0,0,0,0,0,0,0,0,0,0,0,0,0,0,0,0,0,0,0,0,0,0,0,0,0,0,0,0,0,0,0,0,0,0,0,0],"id":9,"left_children":[1,3,5,7,9,11,13,15,17,19,21,23,25,27,29,31,33,35,37,-1,-1,-1,-1,39,-1,-1,-1,-1,-1,41,-1,43,-1,45,47,49,51,-1,-1,-1,-1,53,-1,-1,-1,-1,-1,-1,-1,-1,-1,-1,-1,-1,-1],"loss_changes":[6.961196E2,1.4227853E2,3.7091492E2,5.656897E1,9.19483E1,7.99826E1,1.424386E2,1.8074692E1,1.0468086E2,8.1295395E0,3.1250992E1,2.1690392E1,2.5807785E1,4.2708755E0,4.427466E1,5.620468E0,4.1971283E1,2.4807375E1,1.0990196E1,0E0,0E0,0E0,0E0,2.6710587E0,0E0,0E0,0E0,0E0,0E0,9.310303E0,0E0,5.362076E0,0E0,3.674207E1,6.688926E0,8.548177E0,1.1768436E0,0E0,0E0,0E0,0E0,4.999756E0,0E0,0E0,0E0,0E0,0E0,0E0,0E0,0E0,0E0,0E0,0E0,0E0,0E0],"parents":[2147483647,0,0,1,1,2,2,3,3,4,4,5,5,6,6,7,7,8,8,9,9,10,10,11,11,12,12,13,13,14,14,15,15,16,16,17,17,18,18,23,23,29,29,31,31,33,33,34,34,35,35,36,36,41,41],"right_children":[2,4,6,8,10,12,14,16,18,20,22,24,26,28,30,32,34,36,38,-1,-1,-1,-1,40,-1,-1,-1,-1,-1,42,-1,44,-1,46,48,50,52,-1,-1,-1,-1,54,-1,-1,-1,-1,-1,-1,-1,-1,-1,-1,-1,-1,-1],"split_conditions":[1.2156585E0,9.9353635E-1,3.2088045E-2,3.6945912E-1,1.1959911E-1,1.0162709E0,3.9811817E-1,1.0612121E0,1.9852355E0,1.107392E-2,3.1549135E-1,1.723783E-1,6.644636E-1,1.0279964E0,4.5574665E-2,3.2657502E0,2.3151416E-2,1.6156799E0,5.8660634E-2,1.4285715E-1,-5E-2,-3.2786887E-2,4.3975908E-1,3.3542815E-1,2.3154362E-1,-3.2786887E-2,4.1721854E-1,-4.7752813E-2,1.15384616E-1,1.5374126E0,-3.4351148E-2,8.216519E-1,1.15384616E-1,4.1496488E-1,2.0864983E0,1.0409666E-2,1.4455241E0,4.3150687E-1,5.7522126E-2,-5.4082718E-2,6.7307696E-2,6.260832E-1,1.0176992E-1,-5.45196E-2,1.3776335E-2,-2.8169015E-2,3.3282676E-1,-4.8748005E-2,1.1832061E-1,1.6346155E-1,-4.7375165E-2,2.9508197E-1,6.7307696E-2,4.897709E-1,1.15384616E-1],"split_indices":[636,103,916,769,1061,616,1059,950,246,111,792,1209,459,0,906,1045,1081,481,929,0,0,0,0,387,0,0,0,0,0,381,0,864,0,953,230,732,13,0,0,0,0,21,0,0,0,0,0,0,0,0,0,0,0,0,0],"split_type":[0,0,0,0,0,0,0,0,0,0,0,0,0,0,0,0,0,0,0,0,0,0,0,0,0,0,0,0,0,0,0,0,0,0,0,0,0,0,0,0,0,0,0,0,0,0,0,0,0,0,0,0,0,0,0],"sum_hessian":[8.6219995E2,7.5689996E2,1.05299995E2,7.3404E2,2.2859999E1,4.626E1,5.9039997E1,6.9263995E2,4.1399998E1,1.0799999E1,1.2059999E1,3.978E1,6.4799995E0,7.2E0,5.1839996E1,6.4422E2,4.842E1,3.384E1,7.5599995E0,1.8E0,9E0,1.4399999E0,1.062E1,3.78E1,1.9799999E0,1.4399999E0,5.04E0,6.12E0,1.0799999E0,5.0219997E1,1.6199999E0,6.4313995E2,1.0799999E0,1.0259999E1,3.816E1,3.1319998E1,2.52E0,6.2999997E0,1.26E0,3.6719997E1,1.0799999E0,4.896E1,1.26E0,6.318E2,1.1339999E1,4.68E0,5.58E0,3.6539997E1,1.6199999E0,1.0799999E0,3.0239998E1,1.4399999E0,1.0799999E0,4.7879997E1,1.0799999E0],"tree_param":{"num_deleted":"0","num_feature":"1280","num_nodes":"55","size_leaf_vector":"1"}},{"base_weights":[1.1669081E-2,-2.243658E-1,2.135972E0,-3.0592856E-1,2.174716E0,2.8109925E0,-4.1774717E-1,-4.1558486E-1,1.5039513E0,2.942086E0,-3.288124E-1,3.0402365E0,3.7591964E-1,-5.2116275E-2,7.070267E-2,-4.648788E-1,1.2066687E0,2.5848842E0,-9.052696E-2,-3.363115E-2,3.240695E-1,-4.5951676E-2,2.1225482E-2,3.0846968E-1,2.0296292E-2,-4.527551E-2,2.043805E-1,-4.8863867E-1,1.572632E0,2.6919591E0,-3.2865125E-1,2.8991816E0,2.846245E-1,-3.4913304E-1,2.1048151E-1,-5.1323324E-2,3.4349554E-3,2.6677158E-1,-4.111605E-2,-3.4320932E-2,3.2544917E-1,7.149141E-2,-4.9923398E-2,7.3425256E-2,3.132856E-1,1.1064327E-1,-3.736907E-2,-5.192697E-2,1.0795623E-1],"categories":[],"categories_nodes":[],"categories_segments":[],"categories_sizes":[],"default_left":[0,0,0,0,0,0,0,0,0,0,0,0,0,0,0,0,0,0,0,0,0,0,0,0,0,0,0,0,0,0,0,0,0,0,0,0,0,0,0,0,0,0,0,0,0,0,0,0,0],"id":10,"left_children":[1,3,5,7,9,11,13,15,17,19,21,23,25,-1,-1,27,29,31,33,-1,-1,-1,-1,-1,-1,-1,-1,35,37,39,41,43,45,47,-1,-1,-1,-1,-1,-1,-1,-1,-1,-1,-1,-1,-1,-1,-1],"loss_changes":[4.3262286E2,1.5262244E2,1.4990701E2,1.4985452E2,5.0257683E1,3.702417E1,2.5679684E0,5.7317604E1,7.464025E1,2.041275E1,5.868253E-1,7.2388916E0,1.0633436E1,0E0,0E0,3.4149734E1,4.924872E1,1.7800354E1,1.1185794E1,0E0,0E0,0E0,0E0,0E0,0E0,0E0,0E0,8.794525E0,1.887865E1,1.9708199E1,2.3720052E0,9.110962E0,2.6888433E0,4.7721014E0,0E0,0E0,0E0,0E0,0E0,0E0,0E0,0E0,0E0,0E0,0E0,0E0,0E0,0E0,0E0],"parents":[2147483647,0,0,1,1,2,2,3,3,4,4,5,5,6,6,7,7,8,8,9,9,10,10,11,11,12,12,15,15,16,16,17,17,18,18,27,27,28,28,29,29,30,30,31,31,32,32,33,33],"right_children":[2,4,6,8,10,12,14,16,18,20,22,24,26,-1,-1,28,30,32,34,-1,-1,-1,-1,-1,-1,-1,-1,36,38,40,42,44,46,48,-1,-1,-1,-1,-1,-1,-1,-1,-1,-1,-1,-1,-1,-1,-1],"split_conditions":[2.9377074E0,2.5303712E0,9.0894175E-1,1.6361053E0,1.4432624E-1,9.56098E-2,1.7962403E0,2.6201992E0,2.9078826E-1,7.0125505E-2,2.4347197E-1,1.4204189E0,9.086022E-2,-5.2116275E-2,7.070267E-2,2.031354E0,9.977405E-2,9.9853104E-1,1.3152429E0,-3.363115E-2,3.240695E-1,-4.5951676E-2,2.1225482E-2,3.0846968E-1,2.0296292E-2,-4.527551E-2,2.043805E-1,1.3656504E0,7.714009E-3,9.452906E-1,4.8999493E-3,1.5786807E-1,6.266886E-2,1.5391712E0,2.1048151E-1,-5.1323324E-2,3.4349554E-3,2.6677158E-1,-4.111605E-2,-3.4320932E-2,3.2544917E-1,7.149141E-2,-4.9923398E-2,7.3425256E-2,3.132856E-1,1.1064327E-1,-3.736907E-2,-5.192697E-2,1.0795623E-1],"split_indices":[374,909,149,890,816,138,33,781,501,881,141,479,818,0,0,90,1235,359,1263,0,0,0,0,0,0,0,0,90,633,722,76,1078,1235,134,0,0,0,0,0,0,0,0,0,0,0,0,0,0,0],"split_type":[0,0,0,0,0,0,0,0,0,0,0,0,0,0,0,0,0,0,0,0,0,0,0,0,0,0,0,0,0,0,0,0,0,0,0,0,0,0,0,0,0,0,0,0,0,0,0,0,0],"sum_hessian":[8.608576E2,7.7557635E2,8.528122E1,7.509195E2,2.4656897E1,6.737211E1,1.7909111E1,7.087485E2,4.2170998E1,1.873818E1,5.918717E0,6.1348125E1,6.023986E0,1.6892597E1,1.0165125E0,6.8853986E2,2.0208595E1,2.4762674E1,1.7408323E1,1.553726E0,1.7184454E1,4.888528E0,1.0301888E0,6.0315765E1,1.0323606E0,4.511186E0,1.5127995E0,6.813546E2,7.1852484E0,9.888737E0,1.0319859E1,2.1556866E1,3.2058084E0,1.632611E1,1.0822109E0,6.5076953E2,3.0585114E1,4.4074903E0,2.7777581E0,1.6071538E0,8.281583E0,1.0015728E0,9.318286E0,2.5036292E0,1.9053236E1,1.123092E0,2.0827162E0,1.5157606E1,1.1685058E0],"tree_param":{"num_deleted":"0","num_feature":"1280","num_nodes":"49","size_leaf_vector":"1"}},{"base_weights":[1.9216307E-2,-4.3487868E-1,1.9355251E0,-4.8469272E-1,2.210241E0,2.616642E0,5.522929E-2,-5.1413447E-1,7.468506E-1,2.6735182E0,-3.605466E-2,-1.141844E-1,2.9029672E0,-3.882862E-1,2.916404E-1,-5.2145135E-1,1.3648714E-1,-3.176629E-1,2.3618884E0,2.935307E-1,1.7290121E-2,-5.0450623E-2,1.7950664E-1,2.9825974E0,4.2367932E-1,-5.3685904E-2,1.018825E0,-5.404945E-1,2.648658E-1,-4.964731E-2,7.1471155E-2,1.701987E-2,2.7812904E-1,3.0230267E0,-3.0184636E-2,-4.0645476E-2,1.6732371E-1,-3.5954863E-2,2.304062E-1,-5.450452E-2,8.612778E-2,1.9668162E-1,-2.8775966E-2,3.0578548E-1,-2.852554E-2],"categories":[],"categories_nodes":[],"categories_segments":[],"categories_sizes":[],"default_left":[0,0,0,0,0,0,0,0,0,0,0,0,0,0,0,0,0,0,0,0,0,0,0,0,0,0,0,0,0,0,0,0,0,0,0,0,0,0,0,0,0,0,0,0,0],"id":11,"left_children":[1,3,5,7,9,11,13,15,17,19,-1,21,23,25,-1,27,-1,29,31,-1,-1,-1,-1,33,35,-1,37,39,41,-1,-1,-1,-1,43,-1,-1,-1,-1,-1,-1,-1,-1,-1,-1,-1],"loss_changes":[7.524183E2,9.318172E1,2.1199152E2,2.5292114E1,1.656755E1,9.538977E1,5.832233E1,9.943893E0,2.9026237E1,6.8373337E0,0E0,1.0220383E1,2.0467712E1,8.888784E0,0E0,1.017012E1,0E0,2.3474755E0,5.6415596E0,0E0,0E0,0E0,0E0,1.5052063E1,5.44225E0,0E0,8.190662E0,4.6420593E0,1.6089403E1,0E0,0E0,0E0,0E0,1.3002502E1,0E0,0E0,0E0,0E0,0E0,0E0,0E0,0E0,0E0,0E0,0E0],"parents":[2147483647,0,0,1,1,2,2,3,3,4,4,5,5,6,6,7,7,8,8,9,9,11,11,12,12,13,13,15,15,17,17,18,18,23,23,24,24,26,26,27,27,28,28,33,33],"right_children":[2,4,6,8,10,12,14,16,18,20,-1,22,24,26,-1,28,-1,30,32,-1,-1,-1,-1,34,36,-1,38,40,42,-1,-1,-1,-1,44,-1,-1,-1,-1,-1,-1,-1,-1,-1,-1,-1],"split_conditions":[5.27033E-1,1.8695816E0,3.778277E-1,1.6293987E0,7.0912683E-1,1.2167835E-1,1.5062252E0,1.8248452E0,2.8751E-1,2.9078826E-1,-3.605466E-2,1.9316982E0,9.27361E-1,6.6652274E-1,2.916404E-1,2.055678E0,1.3648714E-1,1.6698958E0,1.8725091E-1,2.935307E-1,1.7290121E-2,-5.0450623E-2,1.7950664E-1,1.391331E0,1.0785584E0,-5.3685904E-2,3.1376235E-2,3.2547607E0,1.1278999E-2,-4.964731E-2,7.1471155E-2,1.701987E-2,2.7812904E-1,1.4127158E0,-3.0184636E-2,-4.0645476E-2,1.6732371E-1,-3.5954863E-2,2.304062E-1,-5.450452E-2,8.612778E-2,1.9668162E-1,-2.8775966E-2,3.0578548E-1,-2.852554E-2],"split_indices":[894,1183,407,288,473,1274,329,1138,211,501,0,644,249,1095,0,1153,0,25,303,0,0,0,0,458,27,0,205,27,814,0,0,0,0,925,0,0,0,0,0,0,0,0,0,0,0],"split_type":[0,0,0,0,0,0,0,0,0,0,0,0,0,0,0,0,0,0,0,0,0,0,0,0,0,0,0,0,0,0,0,0,0,0,0,0,0,0,0,0,0,0,0,0,0],"sum_hessian":[8.6269617E2,6.980556E2,1.6464055E2,6.859542E2,1.2101428E1,1.20572754E2,4.40678E1,6.705073E2,1.5446876E1,1.021978E1,1.8816488E0,1.1499304E1,1.0907345E2,3.890185E1,5.16595E0,6.6862616E2,1.8811485E0,9.794424E0,5.6524515E0,9.093908E0,1.1258714E0,1.0158322E1,1.3409818E0,1.0548254E2,3.590911E0,3.5746002E1,3.1558495E0,6.531214E2,1.5504789E1,8.79091E0,1.0035145E0,1.1337211E0,4.51873E0,1.0427853E2,1.2040129E0,2.5629535E0,1.0279574E0,1.8702818E0,1.2855676E0,6.516172E2,1.5042145E0,3.173169E0,1.233162E1,1.0326708E2,1.0114425E0],"tree_param":{"num_deleted":"0","num_feature":"1280","num_nodes":"45","size_leaf_vector":"1"}},{"base_weights":[6.611072E-3,-3.2088763E-1,8.9884657E-1,-4.200572E-1,9.4445515E-1,2.2933766E-1,1.9608365E0,-4.6267495E-1,6.764723E-1,-3.0319896E-2,2.548803E0,-1.9281888E-1,1.8896924E0,4.3873322E-1,2.5310163E0,-4.9079964E-1,4.2844617E-1,-1.9355768E-1,2.2688303E0,-3.0355805E-1,1.5940168E0,2.987516E-1,-3.8004946E-2,-4.5068917E-1,4.846263E-1,-3.493584E-1,2.5516052E0,-3.284113E-1,1.4956278E0,2.7934158E0,2.7197814E-1,-5.0488025E-1,8.114206E-1,-4.3588287E-1,2.4393778E0,-5.1399685E-2,1.2698841E-1,2.881607E0,-3.251368E-2,-4.8869076E-1,1.3137515E-1,2.5851727E-1,-3.2275893E-2,-5.199877E-1,4.6371114E-1,-1.05946906E-1,1.8547992E0,2.1619068E-2,-4.6957582E-2,2.835935E0,-6.7892104E-2,-5.160697E-2,1.1056032E-1,2.214884E0,-4.1002598E-2,2.9516797E0,4.8823435E-2,1.2081406E0,-4.4892415E-2,-5.120182E-2,5.0348666E-2,2.2266138E-1,-4.2151306E-2,-5.0775856E-2,2.1250203E-2,6.1222136E-2,2.7903423E-1,6.9736585E-2,3.1630895E-1,-5.28821E-2,2.0315023E-2,-5.4512925E-2,7.705932E-3,2.0859785E-1,-4.408444E-2,-3.3945113E-2,1.379161E-1,2.8966707E-1,3.3398446E-2,2.9955685E-1,1.4755972E-2,-2.9420584E-2,1.9617595E-2,2.7913278E-1,-3.2209225E-2,3.0307415E-1,-3.0220887E-2,-3.8516235E-2,7.0007004E-2,1.973889E-1,-2.9515764E-2],"categories":[],"categories_nodes":[],"categories_segments":[],"categories_sizes":[],"default_left":[0,0,0,0,0,0,0,0,0,0,0,0,0,0,0,0,0,0,0,0,0,0,0,0,0,0,0,0,0,0,0,0,0,0,0,0,0,0,0,0,0,0,0,0,0,0,0,0,0,0,0,0,0,0,0,0,0,0,0,0,0,0,0,0,0,0,0,0,0,0,0,0,0,0,0,0,0,0,0,0,0,0,0,0,0,0,0,0,0,0,0],"id":12,"left_children":[1,3,5,7,9,11,13,15,17,19,21,23,25,27,29,31,33,35,37,39,41,-1,-1,43,45,47,49,51,53,55,57,59,61,63,65,-1,-1,67,-1,69,-1,-1,-1,71,73,75,77,-1,-1,79,81,-1,-1,83,-1,85,87,89,-1,-1,-1,-1,-1,-1,-1,-1,-1,-1,-1,-1,-1,-1,-1,-1,-1,-1,-1,-1,-1,-1,-1,-1,-1,-1,-1,-1,-1,-1,-1,-1,-1],"loss_changes":[2.5147316E2,7.93943E1,1.6384369E2,2.7626846E1,7.211224E1,1.00496254E2,7.631595E1,1.4325775E1,3.129594E1,1.3639478E1,2.3519707E1,2.0273905E1,4.3947586E1,2.1184109E1,3.758786E1,1.0429337E1,3.1941757E1,7.83911E0,1.3570793E1,8.490618E0,9.246964E0,0E0,0E0,5.54303E0,2.6198812E1,6.119973E-1,1.6982864E1,4.7707553E0,1.5867352E1,2.4985046E1,5.8335752E0,4.15329E0,1.1807071E1,7.264855E-1,1.8135834E0,0E0,0E0,1.8094635E0,0E0,7.806845E-1,0E0,0E0,0E0,1.2165546E0,1.0344786E1,8.583186E0,1.4453945E1,0E0,0E0,8.295288E0,2.4799696E-1,0E0,0E0,1.2714836E1,0E0,1.4983032E1,1.448472E0,4.8208823E0,0E0,0E0,0E0,0E0,0E0,0E0,0E0,0E0,0E0,0E0,0E0,0E0,0E0,0E0,0E0,0E0,0E0,0E0,0E0,0E0,0E0,0E0,0E0,0E0,0E0,0E0,0E0,0E0,0E0,0E0,0E0,0E0,0E0],"parents":[2147483647,0,0,1,1,2,2,3,3,4,4,5,5,6,6,7,7,8,8,9,9,10,10,11,11,12,12,13,13,14,14,15,15,16,16,17,17,18,18,19,19,20,20,23,23,24,24,25,25,26,26,27,27,28,28,29,29,30,30,31,31,32,32,33,33,34,34,37,37,39,39,43,43,44,44,45,45,46,46,49,49,50,50,53,53,55,55,56,56,57,57],"right_children":[2,4,6,8,10,12,14,16,18,20,22,24,26,28,30,32,34,36,38,40,42,-1,-1,44,46,48,50,52,54,56,58,60,62,64,66,-1,-1,68,-1,70,-1,-1,-1,72,74,76,78,-1,-1,80,82,-1,-1,84,-1,86,88,90,-1,-1,-1,-1,-1,-1,-1,-1,-1,-1,-1,-1,-1,-1,-1,-1,-1,-1,-1,-1,-1,-1,-1,-1,-1,-1,-1,-1,-1,-1,-1,-1,-1],"split_conditions":[6.513502E-1,1.1032114E0,3.998763E-1,2.46066E0,6.5616715E-1,1.8108339E0,1.4969319E-1,1.6718673E0,4.563356E-1,4.469192E-1,1.0102197E-1,3.0836558E-1,6.2510574E-1,7.213277E-1,1.2982607E-1,3.178047E0,9.036233E-1,5.1083427E-2,6.1737204E-1,2.7537723E0,3.471537E-2,2.987516E-1,-3.8004946E-2,2.4881198E0,5.964969E-1,1.772973E-2,1.1572045E0,2.7208354E0,2.9171568E-1,2.9990485E-1,1.6529009E-1,2.6802218E0,1.4778196E-2,1.8569658E0,4.8601884E-1,-5.1399685E-2,1.2698841E-1,3.3307096E-1,-3.251368E-2,1.0767765E0,1.3137515E-1,2.5851727E-1,-3.2275893E-2,3.1296274E-1,1.24958396E-1,2.3948164E0,9.357974E-2,2.1619068E-2,-4.6957582E-2,5.9169567E-1,6.3921876E-2,-5.160697E-2,1.1056032E-1,1.7491603E-1,-4.1002598E-2,7.8892386E-1,7.162959E-1,8.359601E-1,-4.4892415E-2,-5.120182E-2,5.0348666E-2,2.2266138E-1,-4.2151306E-2,-5.0775856E-2,2.1250203E-2,6.1222136E-2,2.7903423E-1,6.9736585E-2,3.1630895E-1,-5.28821E-2,2.0315023E-2,-5.4512925E-2,7.705932E-3,2.0859785E-1,-4.408444E-2,-3.3945113E-2,1.379161E-1,2.8966707E-1,3.3398446E-2,2.9955685E-1,1.4755972E-2,-2.9420584E-2,1.9617595E-2,2.7913278E-1,-3.2209225E-2,3.0307415E-1,-3.0220887E-2,-3.8516235E-2,7.0007004E-2,1.973889E-1,-2.9515764E-2],"split_indices":[1026,1037,1037,757,513,1091,955,513,77,963,895,752,359,758,920,761,759,383,141,757,130,0,0,893,629,553,336,757,400,244,632,1161,875,611,1075,0,0,939,0,370,0,0,0,1025,1105,1213,259,0,0,1021,22,0,0,504,0,715,25,758,0,0,0,0,0,0,0,0,0,0,0,0,0,0,0,0,0,0,0,0,0,0,0,0,0,0,0,0,0,0,0,0,0],"split_type":[0,0,0,0,0,0,0,0,0,0,0,0,0,0,0,0,0,0,0,0,0,0,0,0,0,0,0,0,0,0,0,0,0,0,0,0,0,0,0,0,0,0,0,0,0,0,0,0,0,0,0,0,0,0,0,0,0,0,0,0,0,0,0,0,0,0,0,0,0,0,0,0,0,0,0,0,0,0,0,0,0,0,0,0,0,0,0,0,0,0,0],"sum_hessian":[8.5861536E2,6.2854553E2,2.3006987E2,5.8348376E2,4.506174E1,1.4185583E2,8.821403E1,5.6221094E2,2.127285E1,2.8641031E1,1.642071E1,1.1380421E2,2.805163E1,2.4521906E1,6.369212E1,5.454453E2,1.6765581E1,1.4324629E1,6.9482217E0,2.5212948E1,3.428083E0,1.4264066E1,2.156644E0,8.2670364E1,3.1133848E1,6.508281E0,2.1543348E1,1.4607994E1,9.913912E0,5.6851913E1,6.8402066E0,5.402164E2,5.228954E0,1.2273491E1,4.4920897E0,1.2283727E1,2.0409024E0,5.530788E0,1.417434E0,2.3249432E1,1.9635149E0,2.0297825E0,1.3983004E0,7.7247444E1,5.4229207E0,2.2401155E1,8.732692E0,1.0009755E0,5.5073056E0,1.9359383E1,2.1839647E0,1.348362E1,1.1243745E0,7.079577E0,2.834335E0,5.3681004E1,3.1709094E0,2.6817794E0,4.1584272E0,5.36908E2,3.3083937E0,2.0592945E0,3.1696594E0,1.1243948E1,1.0295427E0,1.1660279E0,3.326062E0,1.028367E0,4.502421E0,2.21975E1,1.051933E0,7.420945E1,3.0379915E0,1.4737518E0,3.9491687E0,2.0024176E1,2.3769803E0,4.645497E0,4.087195E0,1.816641E1,1.1929731E0,1.1145959E0,1.069369E0,5.687112E0,1.3924652E0,5.2474575E1,1.2064291E0,2.148045E0,1.0228641E0,1.5693479E0,1.1124315E0],"tree_param":{"num_deleted":"0","num_feature":"1280","num_nodes":"91","size_leaf_vector":"1"}},{"base_weights":[8.735369E-3,-3.5623297E-1,1.6096238E0,-4.679846E-1,6.7661655E-1,9.2084706E-2,2.4784732E0,-4.8333532E-1,2.0594614E0,-2.826297E-1,2.1358778E0,-4.333629E-1,1.8109978E0,1.0976098E0,2.861686E0,-5.031089E-1,8.361824E-1,5.9388753E-2,2.4809657E-1,-5.1312375E-1,1.9613994E0,2.7466023E0,1.7384408E-1,-5.171348E-1,6.2598467E-1,-4.402537E-2,2.7063184E0,2.2620952E-1,2.0309737E0,2.9616816E0,-3.8270187E-2,-5.185286E-1,3.313301E-1,-1.803778E-1,2.4166451E-1,-5.3817388E-2,2.1138964E-2,5.8415074E-2,2.3373735E-1,-3.0086119E-2,2.9472437E0,1.5900965E-1,-4.6098106E-2,-5.3945698E-2,2.0476872E-2,-3.4888126E-2,1.5765008E-1,1.7854918E-2,2.995779E-1,2.2641237E-1,-3.346849E-1,2.6402724E0,1.1346468E-1,4.7650444E-3,3.0214596E0,-5.2655835E-2,7.734255E-2,2.2084796E-1,-4.931966E-2,6.864529E-2,-4.5833007E-2,6.0082804E-2,3.0668926E-1,-5.0481524E-2,7.073764E-2,2.1557095E-2,2.9335842E-1,7.109535E-2,-3.6066603E-2,6.4005785E-2,3.0758572E-1],"categories":[],"categories_nodes":[],"categories_segments":[],"categories_sizes":[],"default_left":[0,0,0,0,0,0,0,0,0,0,0,0,0,0,0,0,0,0,0,0,0,0,0,0,0,0,0,0,0,0,0,0,0,0,0,0,0,0,0,0,0,0,0,0,0,0,0,0,0,0,0,0,0,0,0,0,0,0,0,0,0,0,0,0,0,0,0,0,0,0,0],"id":13,"left_children":[1,3,5,7,9,11,13,15,17,19,21,23,25,27,29,31,33,-1,-1,35,37,39,41,43,45,-1,47,49,51,53,-1,55,57,59,-1,-1,-1,-1,-1,-1,61,-1,-1,-1,-1,-1,-1,-1,-1,-1,63,65,67,-1,69,-1,-1,-1,-1,-1,-1,-1,-1,-1,-1,-1,-1,-1,-1,-1,-1],"loss_changes":[5.036863E2,8.134855E1,2.107944E2,2.5597046E1,9.712224E1,5.4352615E1,5.069458E1,1.688649E1,1.008728E0,2.2982204E1,3.243297E1,4.42638E0,2.9567871E1,1.8835007E1,2.6767517E1,8.17984E0,1.600903E1,0E0,0E0,8.2742596E-1,7.912445E-1,1.3652451E1,7.5545244E0,8.096733E-1,4.108559E0,0E0,6.9374847E0,1.6067738E1,1.2936207E1,1.32283325E1,0E0,6.750778E0,1.9511436E1,1.9600775E0,0E0,0E0,0E0,0E0,0E0,0E0,3.6826324E0,0E0,0E0,0E0,0E0,0E0,0E0,0E0,0E0,0E0,2.3736095E0,5.4498024E0,1.3262953E0,0E0,7.7738037E0,0E0,0E0,0E0,0E0,0E0,0E0,0E0,0E0,0E0,0E0,0E0,0E0,0E0,0E0,0E0,0E0],"parents":[2147483647,0,0,1,1,2,2,3,3,4,4,5,5,6,6,7,7,8,8,9,9,10,10,11,11,12,12,13,13,14,14,15,15,16,16,19,19,20,20,21,21,22,22,23,23,24,24,26,26,27,27,28,28,29,29,31,31,32,32,33,33,40,40,50,50,51,51,52,52,54,54],"right_children":[2,4,6,8,10,12,14,16,18,20,22,24,26,28,30,32,34,-1,-1,36,38,40,42,44,46,-1,48,50,52,54,-1,56,58,60,-1,-1,-1,-1,-1,-1,62,-1,-1,-1,-1,-1,-1,-1,-1,-1,64,66,68,-1,70,-1,-1,-1,-1,-1,-1,-1,-1,-1,-1,-1,-1,-1,-1,-1,-1],"split_conditions":[9.666128E-1,1.2559574E0,1.7680088E-1,3.1391907E0,4.463474E-1,1.1694562E0,3.399705E-1,1.9752073E0,7.1183264E-2,1.5489702E0,5.737368E-1,1.335784E0,9.7070545E-1,1.6857371E0,1.7939678E0,2.4655504E0,1.3761871E0,5.9388753E-2,2.4809657E-1,1.595345E0,4.7659874E-2,7.232452E-3,5.105987E-1,3.3566067E0,3.099928E-4,-4.402537E-2,2.2493872E-1,1.3543165E-1,1.057271E0,3.4691393E-1,-3.8270187E-2,1.9860928E0,1.0034055E-2,9.241689E-2,2.4166451E-1,-5.3817388E-2,2.1138964E-2,5.8415074E-2,2.3373735E-1,-3.0086119E-2,8.064708E-2,1.5900965E-1,-4.6098106E-2,-5.3945698E-2,2.0476872E-2,-3.4888126E-2,1.5765008E-1,1.7854918E-2,2.995779E-1,2.2641237E-1,1.7977619E0,2.764068E-1,2.4804479E-1,4.7650444E-3,9.959202E-2,-5.2655835E-2,7.734255E-2,2.2084796E-1,-4.931966E-2,6.864529E-2,-4.5833007E-2,6.0082804E-2,3.0668926E-1,-5.0481524E-2,7.073764E-2,2.1557095E-2,2.9335842E-1,7.109535E-2,-3.6066603E-2,6.4005785E-2,3.0758572E-1],"split_indices":[727,759,388,15,700,351,759,816,73,690,473,1154,1131,272,464,690,1087,0,0,577,1180,660,1265,148,797,0,1060,148,1026,690,0,388,558,937,0,0,0,0,0,0,388,0,0,0,0,0,0,0,0,0,758,1060,843,0,255,0,0,0,0,0,0,0,0,0,0,0,0,0,0,0,0],"split_type":[0,0,0,0,0,0,0,0,0,0,0,0,0,0,0,0,0,0,0,0,0,0,0,0,0,0,0,0,0,0,0,0,0,0,0,0,0,0,0,0,0,0,0,0,0,0,0,0,0,0,0,0,0,0,0,0,0,0,0,0,0,0,0,0,0,0,0,0,0,0,0],"sum_hessian":[8.600913E2,7.010454E2,1.5904588E2,6.3309326E2,6.795213E1,5.830897E1,1.00736916E2,6.300752E2,3.018067E0,4.148697E1,2.6465162E1,4.5230522E1,1.3078449E1,2.2722658E1,7.801426E1,6.213822E2,8.693001E0,1.2122023E0,1.8058647E0,3.832208E1,3.1648905E0,1.9877878E1,6.5872846E0,4.2390194E1,2.8403285E0,3.8659437E0,9.212505E0,1.23939085E1,1.032875E1,7.5766205E1,2.2480571E0,6.1047974E2,1.0902506E1,5.8293853E0,2.863615E0,3.7289967E1,1.0321096E0,1.2263366E0,1.9385539E0,1.1970383E0,1.868084E1,1.5730767E0,5.014208E0,4.13639E1,1.0262942E0,1.7146794E0,1.125649E0,1.1126769E0,8.099829E0,2.0195582E0,1.0374351E1,7.552101E0,2.776649E0,1.5591383E0,7.420706E1,6.0729767E2,3.182036E0,2.815087E0,8.087419E0,1.0585327E0,4.7708526E0,1.198516E0,1.7482323E1,9.36152E0,1.012831E0,1.0022042E0,6.549897E0,1.0075141E0,1.7691349E0,1.9423363E0,7.2264725E1],"tree_param":{"num_deleted":"0","num_feature":"1280","num_nodes":"71","size_leaf_vector":"1"}},{"base_weights":[1.2854461E-3,-4.1721478E-1,2.1898773E0,-5.1165146E-1,9.623369E-1,6.1610617E-2,2.834797E0,-5.304174E-1,1.1044594E0,-4.1578576E-1,2.531313E0,-3.242022E-1,2.0106916E0,-4.257654E-2,3.0050132E0,-5.3482693E-1,1.0475564E-1,2.698125E-1,-4.41954E-2,-5.3002845E-2,1.10937886E-1,-1.168962E-2,3.0403018E0,-4.9534371E-1,1.8397892E-1,-3.0306542E-2,2.7134788E-1,-4.6044342E-2,1.20997846E-1,3.047368E0,-3.0537162E-2,-5.377725E-1,4.4627026E-2,6.9605105E-2,-4.0276553E-2,3.141882E-1,6.884774E-2,-5.31147E-2,2.1388724E-2,3.082223E0,1.3779767E-2,-5.407216E-2,3.1839717E-2,1.0119816E-1,3.098334E-1],"categories":[],"categories_nodes":[],"categories_segments":[],"categories_sizes":[],"default_left":[0,0,0,0,0,0,0,0,0,0,0,0,0,0,0,0,0,0,0,0,0,0,0,0,0,0,0,0,0,0,0,0,0,0,0,0,0,0,0,0,0,0,0,0,0],"id":14,"left_children":[1,3,5,7,9,11,13,15,17,19,21,23,25,27,29,31,-1,-1,-1,-1,-1,33,35,37,-1,-1,-1,-1,-1,39,-1,41,-1,-1,-1,-1,-1,-1,-1,43,-1,-1,-1,-1,-1],"loss_changes":[7.912127E2,9.496832E1,1.9015363E2,2.1189575E1,1.0226311E2,2.567017E1,5.2238464E1,5.237808E0,2.1210203E1,5.079646E0,2.8549683E1,1.1515741E1,9.987423E0,4.183555E0,1.5017334E1,2.1791687E0,0E0,0E0,0E0,0E0,0E0,1.5729356E0,2.2229462E0,8.074107E-1,0E0,0E0,0E0,0E0,0E0,9.644531E0,0E0,1.8625793E0,0E0,0E0,0E0,0E0,0E0,0E0,0E0,1.3549805E-1,0E0,0E0,0E0,0E0,0E0],"parents":[2147483647,0,0,1,1,2,2,3,3,4,4,5,5,6,6,7,7,8,8,9,9,10,10,11,11,12,12,13,13,14,14,15,15,21,21,22,22,23,23,29,29,31,31,39,39],"right_children":[2,4,6,8,10,12,14,16,18,20,22,24,26,28,30,32,-1,-1,-1,-1,-1,34,36,38,-1,-1,-1,-1,-1,40,-1,42,-1,-1,-1,-1,-1,-1,-1,44,-1,-1,-1,-1,-1],"split_conditions":[1.3052163E0,1.6048213E0,1.5337526E0,2.3620226E0,8.0667627E-1,8.7707365E-1,7.6899767E-1,2.6091757E0,1.3330518E-3,8.829366E-1,1.254428E-1,1.8060957E0,3.1013146E-1,2.443772E-2,9.1069E-1,3.0110898E0,1.0475564E-1,2.698125E-1,-4.41954E-2,-5.3002845E-2,1.10937886E-1,6.2149934E-2,7.5594336E-1,1.6175579E0,1.8397892E-1,-3.0306542E-2,2.7134788E-1,-4.6044342E-2,1.20997846E-1,1.0034655E0,-3.0537162E-2,2.5280561E0,4.4627026E-2,6.9605105E-2,-4.0276553E-2,3.141882E-1,6.884774E-2,-5.31147E-2,2.1388724E-2,4.4804734E-1,1.3779767E-2,-5.407216E-2,3.1839717E-2,1.0119816E-1,3.098334E-1],"split_indices":[941,530,257,1101,236,755,756,630,228,568,354,1175,639,56,282,355,0,0,0,0,0,12,901,1225,0,0,0,0,0,336,0,354,0,0,0,0,0,0,0,1129,0,0,0,0,0],"split_type":[0,0,0,0,0,0,0,0,0,0,0,0,0,0,0,0,0,0,0,0,0,0,0,0,0,0,0,0,0,0,0,0,0,0,0,0,0,0,0,0,0,0,0,0,0],"sum_hessian":[8.618414E2,7.241748E2,1.3766656E2,6.783666E2,4.5808193E1,3.226988E1,1.0539669E2,6.71244E2,7.122554E0,2.4778658E1,2.1029535E1,2.7633585E1,4.636294E0,5.9285827E0,9.946811E1,6.700327E2,1.2112863E0,3.140909E0,3.981645E0,2.3658958E1,1.1196998E0,3.670094E0,1.7359442E1,2.6322908E1,1.3106775E0,1.2126625E0,3.4236314E0,4.919708E0,1.0088749E0,9.8289986E1,1.1781211E0,6.6847766E2,1.5550995E0,1.0286613E0,2.6414328E0,1.631867E1,1.0407706E0,2.5296965E1,1.0259428E0,9.706783E1,1.2221555E0,6.665501E2,1.9275583E0,1.2423395E0,9.582549E1],"tree_param":{"num_deleted":"0","num_feature":"1280","num_nodes":"45","size_leaf_vector":"1"}},{"base_weights":[-1.2420022E-2,9.901876E-1,-3.1376815E-1,2.0958076E0,-1.11811794E-1,-3.957575E-1,9.257515E-1,2.4702117E0,2.1437281E-1,9.6106726E-1,-4.1974807E-1,-4.4663557E-1,1.0124658E0,3.845357E-2,1.6381476E0,2.734145E0,4.9644357E-1,-1.9953755E-1,2.3051088E-1,1.7342155E0,-2.86021E-1,-4.8174113E-1,1.8116722E-1,-4.6544144E-1,8.8165295E-1,-2.0644529E-1,2.5231156E0,-3.2701764E-1,1.2113973E0,5.338959E-1,2.67974E0,8.617009E-1,2.9683833E0,-2.5352564E-1,2.147367E0,-4.4637895E-1,1.4434676E-1,-4.086682E-2,2.3023136E0,-4.8710976E-2,6.4985E-2,-5.4516632E-2,2.8511643E-1,-4.7205687E-1,1.6385448E-1,2.73575E-1,-3.0358443E-1,-5.076617E-2,1.6443884E-1,2.9249592E0,-2.9878402E-2,-5.1377423E-2,6.60961E-2,2.1364248E-1,-3.4766115E-2,1.723899E0,-2.5039116E-1,2.908338E-1,1.9766144E-2,-2.7649036E-2,1.9472651E-1,3.0893943E-1,8.100286E-2,-4.803187E-2,7.096327E-2,2.6303706E-1,6.2312018E-2,-5.1264834E-2,2.1633727E-2,2.6966503E-1,-3.197999E-2,-4.4033088E-2,1.4374126E-1,-9.65709E-3,-5.1210936E-2,1.8540783E-2,-4.4438705E-2,6.6038854E-2,3.1602636E-1,-2.8407073E-2,2.3269343E-1,-4.793502E-2,6.8994306E-2],"categories":[],"categories_nodes":[],"categories_segments":[],"categories_sizes":[],"default_left":[0,0,0,0,0,0,0,0,0,0,0,0,0,0,0,0,0,0,0,0,0,0,0,0,0,0,0,0,0,0,0,0,0,0,0,0,0,0,0,0,0,0,0,0,0,0,0,0,0,0,0,0,0,0,0,0,0,0,0,0,0,0,0,0,0,0,0,0,0,0,0,0,0,0,0,0,0,0,0,0,0,0,0],"id":15,"left_children":[1,3,5,7,9,11,13,15,17,19,21,23,25,27,29,31,33,35,-1,37,39,41,-1,43,45,47,49,51,53,55,57,59,61,63,65,67,-1,-1,69,-1,-1,-1,71,73,-1,-1,75,-1,-1,77,-1,-1,-1,-1,-1,79,81,-1,-1,-1,-1,-1,-1,-1,-1,-1,-1,-1,-1,-1,-1,-1,-1,-1,-1,-1,-1,-1,-1,-1,-1,-1,-1],"loss_changes":[2.5934152E2,2.4193175E2,6.743677E1,6.926053E1,3.3540035E1,4.485363E1,2.6008335E1,4.1639404E1,1.5637474E1,2.2355734E1,1.1749476E1,1.536824E1,4.0874687E1,8.70898E0,2.4854664E1,2.927539E1,1.4110588E1,6.9551044E0,0E0,1.8150558E1,2.1109567E0,3.9147644E0,0E0,9.000839E0,1.9960175E1,8.11198E0,1.2057228E1,3.2128835E0,7.693092E0,1.1950275E1,5.956726E0,1.2250483E1,1.4239563E1,2.1819894E0,9.5848846E-1,7.385752E-1,0E0,0E0,1.2572498E1,0E0,0E0,0E0,6.117408E0,8.823975E0,0E0,0E0,5.0999194E-1,0E0,0E0,2.5624924E0,0E0,0E0,0E0,0E0,0E0,6.751237E0,2.1203196E0,0E0,0E0,0E0,0E0,0E0,0E0,0E0,0E0,0E0,0E0,0E0,0E0,0E0,0E0,0E0,0E0,0E0,0E0,0E0,0E0,0E0,0E0,0E0,0E0,0E0,0E0],"parents":[2147483647,0,0,1,1,2,2,3,3,4,4,5,5,6,6,7,7,8,8,9,9,10,10,11,11,12,12,13,13,14,14,15,15,16,16,17,17,19,19,20,20,21,21,23,23,24,24,25,25,26,26,27,27,28,28,29,29,30,30,31,31,32,32,33,33,34,34,35,35,38,38,42,42,43,43,46,46,49,49,55,55,56,56],"right_children":[2,4,6,8,10,12,14,16,18,20,22,24,26,28,30,32,34,36,-1,38,40,42,-1,44,46,48,50,52,54,56,58,60,62,64,66,68,-1,-1,70,-1,-1,-1,72,74,-1,-1,76,-1,-1,78,-1,-1,-1,-1,-1,80,82,-1,-1,-1,-1,-1,-1,-1,-1,-1,-1,-1,-1,-1,-1,-1,-1,-1,-1,-1,-1,-1,-1,-1,-1,-1,-1],"split_conditions":[3.9046377E-1,4.459497E-2,1.7592175E0,9.3823485E-2,1.7266363E-1,2.1217687E0,7.079495E-1,5.927459E-1,1.4585963E0,4.7544503E-1,2.570555E0,1.6403667E0,2.912163E-1,1.5593214E0,1.0812016E0,3.6229398E-2,2.0769477E-1,6.8751985E-1,2.3051088E-1,1.3639013E-1,3.052476E-1,1.3689656E0,1.8116722E-1,2.2314465E0,9.07567E-2,6.945384E-1,1.0877728E-1,9.5470786E-1,6.153534E-1,4.514477E-2,3.2564962E-1,3.0826643E-1,1.4917495E0,9.9494994E-1,1.3370062E0,1.4215759E0,1.4434676E-1,-4.086682E-2,5.3424674E-1,-4.8710976E-2,6.4985E-2,-5.4516632E-2,6.335892E-1,2.7681468E-3,1.6385448E-1,2.73575E-1,1.9055094E-3,-5.076617E-2,1.6443884E-1,4.8127476E-2,-2.9878402E-2,-5.1377423E-2,6.60961E-2,2.1364248E-1,-3.4766115E-2,5.372894E-1,5.891906E-1,2.908338E-1,1.9766144E-2,-2.7649036E-2,1.9472651E-1,3.0893943E-1,8.100286E-2,-4.803187E-2,7.096327E-2,2.6303706E-1,6.2312018E-2,-5.1264834E-2,2.1633727E-2,2.6966503E-1,-3.197999E-2,-4.4033088E-2,1.4374126E-1,-9.65709E-3,-5.1210936E-2,1.8540783E-2,-4.4438705E-2,6.6038854E-2,3.1602636E-1,-2.8407073E-2,2.3269343E-1,-4.793502E-2,6.8994306E-2],"split_indices":[642,889,946,764,1192,1234,1028,216,476,825,64,1099,149,761,851,637,209,812,0,460,963,8,0,760,150,760,155,780,863,590,1189,1152,247,1009,170,736,0,0,13,0,0,0,464,527,0,0,46,0,0,244,0,0,0,0,0,521,715,0,0,0,0,0,0,0,0,0,0,0,0,0,0,0,0,0,0,0,0,0,0,0,0,0,0],"split_type":[0,0,0,0,0,0,0,0,0,0,0,0,0,0,0,0,0,0,0,0,0,0,0,0,0,0,0,0,0,0,0,0,0,0,0,0,0,0,0,0,0,0,0,0,0,0,0,0,0,0,0,0,0,0,0,0,0,0,0,0,0,0,0,0,0,0,0,0,0,0,0,0,0,0,0,0,0,0,0,0,0,0,0],"sum_hessian":[8.563378E2,1.97374E2,6.589638E2,9.8074974E1,9.929903E1,6.1871875E2,4.0245083E1,8.153636E1,1.6538612E1,2.1671719E1,7.7627304E1,5.9780334E2,2.091536E1,1.839182E1,2.185326E1,7.1579475E1,9.956883E0,1.4560568E1,1.9780455E0,1.3136787E1,8.53493E0,7.6291885E1,1.3354228E0,5.900984E2,7.705007E0,1.2053216E1,8.8621435E0,1.4572465E1,3.8193564E0,1.1341774E1,1.0511487E1,8.479018E0,6.310046E1,7.4286747E0,2.528209E0,1.3291933E1,1.2686346E0,2.8116803E0,1.0325108E1,7.4201E0,1.1148305E0,7.0730965E1,5.5609202E0,5.89022E2,1.0763832E0,2.494543E0,5.210464E0,1.0990297E1,1.0629187E0,7.7254972E0,1.1366463E0,1.2659439E1,1.9130261E0,2.1646729E0,1.6546835E0,4.0295978E0,7.3121767E0,9.467776E0,1.0437108E0,4.50301E0,3.9760087E0,5.9342003E1,3.7584565E0,6.4186063E0,1.0100682E0,1.3687831E0,1.1594259E0,1.2289471E1,1.0024619E0,8.950609E0,1.3744978E0,3.7916746E0,1.7692455E0,5.710278E1,5.319192E2,1.0940735E0,4.11639E0,1.0854685E0,6.640029E0,1.0528338E0,2.976764E0,6.274623E0,1.0375538E0],"tree_param":{"num_deleted":"0","num_feature":"1280","num_nodes":"83","size_leaf_vector":"1"}},{"base_weights":[-2.2547064E-2,-4.424459E-1,1.6197526E0,-4.76315E-1,2.2572029E0,6.289206E-2,2.7202053E0,-5.187412E-1,3.6715865E-1,-3.3835627E-2,2.880542E-1,-2.735965E-1,1.854619E0,2.963401E0,2.5244575E-2,-5.308574E-1,6.279014E-1,-1.9418189E-1,2.3039594E0,-4.0995646E-1,1.9876875E0,2.419259E0,-3.8165223E-2,3.0159535E0,-3.2119837E-2,1.8295997E-1,-4.864948E-2,-5.3705406E-1,1.3201742E-1,-2.6655978E-1,2.1286027E-1,-4.085716E-1,1.7365263E-1,3.4598366E-3,2.9292732E-1,-5.0765073E-1,1.4431206E0,5.9282936E-2,2.4233568E-1,-2.8326515E-2,2.7868193E-1,3.0636628E0,5.7504987E-3,-5.417034E-2,3.1103058E-2,-4.273371E-2,2.0740332E-2,-5.284229E-2,1.0602947E-1,-5.4189492E-2,6.3067615E-2,-2.8297722E-2,2.3367582E-1,3.095726E-1,5.230942E-2],"categories":[],"categories_nodes":[],"categories_segments":[],"categories_sizes":[],"default_left":[0,0,0,0,0,0,0,0,0,0,0,0,0,0,0,0,0,0,0,0,0,0,0,0,0,0,0,0,0,0,0,0,0,0,0,0,0,0,0,0,0,0,0,0,0,0,0,0,0,0,0,0,0,0,0],"id":16,"left_children":[1,3,5,7,9,11,13,15,17,-1,-1,19,21,23,25,27,29,31,33,35,37,39,-1,41,-1,-1,-1,43,-1,45,-1,47,-1,-1,-1,49,51,-1,-1,-1,-1,53,-1,-1,-1,-1,-1,-1,-1,-1,-1,-1,-1,-1,-1],"loss_changes":[5.9319995E2,6.3709167E1,2.9991556E2,2.442978E1,1.4988655E1,4.4856274E1,6.7167114E1,9.298813E0,3.635156E1,0E0,0E0,2.0179398E1,1.5771229E1,1.721106E1,9.662608E0,8.039841E0,1.0239861E1,1.16891985E1,1.0539349E1,1.1605235E1,8.377409E-1,1.0250694E1,0E0,1.2909424E1,0E0,0E0,0E0,2.6829834E0,0E0,5.0039375E-1,0E0,4.905848E0,0E0,0E0,0E0,2.5944843E0,5.702057E0,0E0,0E0,0E0,0E0,5.8113403E0,0E0,0E0,0E0,0E0,0E0,0E0,0E0,0E0,0E0,0E0,0E0,0E0,0E0],"parents":[2147483647,0,0,1,1,2,2,3,3,4,4,5,5,6,6,7,7,8,8,11,11,12,12,13,13,14,14,15,15,16,16,17,17,18,18,19,19,20,20,21,21,23,23,27,27,29,29,31,31,35,35,36,36,41,41],"right_children":[2,4,6,8,10,12,14,16,18,-1,-1,20,22,24,26,28,30,32,34,36,38,40,-1,42,-1,-1,-1,44,-1,46,-1,48,-1,-1,-1,50,52,-1,-1,-1,-1,54,-1,-1,-1,-1,-1,-1,-1,-1,-1,-1,-1,-1,-1],"split_conditions":[8.272878E-1,1.8890375E0,4.233312E-1,7.776924E-1,3.200971E-2,3.817764E-1,1.0261054E0,1.8379093E0,6.54222E-1,-3.3835627E-2,2.880542E-1,2.0573545E0,3.14978E-1,1.9496257E0,6.232077E-2,2.3623435E0,1.3738391E0,1.6832829E0,2.94823E-1,1.4187102E0,1.1706803E-1,1.34542035E-2,-3.8165223E-2,1.2420018E0,-3.2119837E-2,1.8295997E-1,-4.864948E-2,1.6603602E0,1.3201742E-1,2.8558946E-1,2.1286027E-1,1.2027252E0,1.7365263E-1,3.4598366E-3,2.9292732E-1,1.8211304E0,1.4567173E0,5.9282936E-2,2.4233568E-1,-2.8326515E-2,2.7868193E-1,1.4429071E0,5.7504987E-3,-5.417034E-2,3.1103058E-2,-4.273371E-2,2.0740332E-2,-5.284229E-2,1.0602947E-1,-5.4189492E-2,6.3067615E-2,-2.8297722E-2,2.3367582E-1,3.095726E-1,5.230942E-2],"split_indices":[435,105,407,923,88,859,933,335,715,0,0,336,416,1213,332,801,1017,868,868,1253,115,88,0,371,0,0,0,294,0,1039,0,1254,0,0,0,1028,52,0,0,0,0,896,0,0,0,0,0,0,0,0,0,0,0,0,0],"split_type":[0,0,0,0,0,0,0,0,0,0,0,0,0,0,0,0,0,0,0,0,0,0,0,0,0,0,0,0,0,0,0,0,0,0,0,0,0,0,0,0,0,0,0,0,0,0,0,0,0,0,0,0,0,0,0],"sum_hessian":[8.5816986E2,6.840137E2,1.741562E2,6.7635187E2,7.6617765E0,7.255975E1,1.0159644E2,6.443276E2,3.2024292E1,1.5722356E0,6.0895405E0,6.180079E1,1.07589655E1,9.3095795E1,8.500652E0,6.381218E2,6.2057824E0,2.5525894E1,6.4983983E0,5.905817E1,2.7426195E0,8.524717E0,2.2342477E0,9.171024E1,1.3855456E0,1.3092116E0,7.1914406E0,6.367002E2,1.4216014E0,4.403529E0,1.8022535E0,2.3684322E1,1.8415719E0,1.6317724E0,4.866626E0,5.6790237E1,2.2679338E0,1.2146081E0,1.5280113E0,1.0480629E0,7.4766545E0,9.021976E1,1.4904865E0,6.33588E2,3.1121788E0,3.361589E0,1.0419403E0,2.2489553E1,1.1947706E0,5.564037E1,1.1498688E0,1.006732E0,1.2612017E0,8.887953E1,1.3402268E0],"tree_param":{"num_deleted":"0","num_feature":"1280","num_nodes":"55","size_leaf_vector":"1"}},{"base_weights":[-5.2658175E-3,-3.3088097E-1,1.2203251E0,-4.1564524E-1,9.191062E-1,7.985436E-2,2.4532983E0,-5.0955766E-1,4.3706685E-1,-7.220565E-2,2.2522051E0,-3.3752486E-1,1.306328E0,1.5742648E-1,2.7820466E0,-5.197562E-1,8.5545146E-1,-9.889763E-2,2.49923E0,-3.1438133E-1,1.4250121E0,1.9912636E-1,2.9935687E0,-4.155899E-1,1.1899852E0,-2.3124655E-1,1.9243267E0,-4.9424287E-2,1.7441597E0,2.9727087E0,3.706542E-2,-5.266477E-1,8.8788426E-1,-3.901495E-2,2.3667319E-1,-4.8118082E-1,7.098636E-1,3.1202083E0,-3.8144358E-2,-4.8245472E-1,1.4395915E-1,2.1755104E-1,-2.8228281E-2,-4.4069942E-2,1.6422664E-1,6.161016E-2,3.1684816E-1,-5.270086E-1,2.2689581E-1,2.1908405E-1,-3.185537E-2,-4.7414538E-2,7.173559E-2,2.55249E0,-2.3400675E-1,5.636375E-2,2.1260945E-1,2.960331E-1,3.092201E0,-4.404769E-2,1.1453163E-1,-5.3183533E-2,7.585783E-2,1.5930212E-1,-2.8139085E-2,-5.3650122E-2,6.417205E-2,1.7633277E-1,-1.9943673E-2,6.8951055E-2,3.3050936E-1,-5.2627187E-2,2.0680506E-2,-5.4354604E-2,2.1295274E-2,1.6825038E-1,-4.8614442E-2,-3.049813E-2,2.860321E-1,-4.051389E-2,1.8341383E-2,1.1642607E-1,-3.7435465E-2,1.5741976E-2,3.141244E-1],"categories":[],"categories_nodes":[],"categories_segments":[],"categories_sizes":[],"default_left":[0,0,0,0,0,0,0,0,0,0,0,0,0,0,0,0,0,0,0,0,0,0,0,0,0,0,0,0,0,0,0,0,0,0,0,0,0,0,0,0,0,0,0,0,0,0,0,0,0,0,0,0,0,0,0,0,0,0,0,0,0,0,0,0,0,0,0,0,0,0,0,0,0,0,0,0,0,0,0,0,0,0,0,0,0],"id":17,"left_children":[1,3,5,7,9,11,13,15,17,19,21,23,25,27,29,31,33,35,37,39,41,43,45,47,49,51,53,-1,55,57,59,61,63,-1,-1,65,67,69,-1,71,-1,-1,-1,-1,-1,-1,-1,73,75,-1,-1,-1,-1,77,79,-1,-1,81,83,-1,-1,-1,-1,-1,-1,-1,-1,-1,-1,-1,-1,-1,-1,-1,-1,-1,-1,-1,-1,-1,-1,-1,-1,-1,-1],"loss_changes":[3.434954E2,7.243585E1,2.5386969E2,5.1277756E1,5.7646255E1,4.901765E1,6.506421E1,8.445892E0,7.074862E1,9.844904E0,2.7687332E1,9.031889E0,2.353458E1,1.319826E1,3.9589478E1,6.007904E0,9.658618E0,1.629232E1,2.479712E1,7.5123024E0,5.4690876E0,6.2648935E0,3.695572E0,5.0485554E0,6.344473E0,2.1510184E0,2.4242157E1,0E0,4.6725178E-1,2.1766418E1,3.6477206E0,4.1968994E0,3.0493734E0,0E0,0E0,2.5574865E0,1.660074E1,2.6489716E0,0E0,7.688484E-1,0E0,0E0,0E0,0E0,0E0,0E0,0E0,8.37492E-1,1.2105224E1,0E0,0E0,0E0,0E0,1.2828506E1,4.2058712E-1,0E0,0E0,2.843434E0,9.260986E0,0E0,0E0,0E0,0E0,0E0,0E0,0E0,0E0,0E0,0E0,0E0,0E0,0E0,0E0,0E0,0E0,0E0,0E0,0E0,0E0,0E0,0E0,0E0,0E0,0E0,0E0],"parents":[2147483647,0,0,1,1,2,2,3,3,4,4,5,5,6,6,7,7,8,8,9,9,10,10,11,11,12,12,13,13,14,14,15,15,16,16,17,17,18,18,19,19,20,20,21,21,22,22,23,23,24,24,25,25,26,26,28,28,29,29,30,30,31,31,32,32,35,35,36,36,37,37,39,39,47,47,48,48,53,53,54,54,57,57,58,58],"right_children":[2,4,6,8,10,12,14,16,18,20,22,24,26,28,30,32,34,36,38,40,42,44,46,48,50,52,54,-1,56,58,60,62,64,-1,-1,66,68,70,-1,72,-1,-1,-1,-1,-1,-1,-1,74,76,-1,-1,-1,-1,78,80,-1,-1,82,84,-1,-1,-1,-1,-1,-1,-1,-1,-1,-1,-1,-1,-1,-1,-1,-1,-1,-1,-1,-1,-1,-1,-1,-1,-1,-1],"split_conditions":[1.6999913E0,8.2035625E-1,4.5990504E-2,1.7195562E0,1.07829E0,1.8279219E0,3.450939E-1,2.1330092E0,1.8971821E0,1.2059246E0,8.638103E-1,2.247108E0,1.13290094E-1,1.0457006E0,7.2358173E-1,1.5715891E0,5.3694636E-1,4.294381E-1,5.3202015E-1,6.401654E-1,8.8942355E-1,1.3512446E0,4.4858217E-1,1.0689001E0,6.908261E-3,1.9391147E-2,7.638941E-3,-4.9424287E-2,4.4520292E-1,1.4665355E-1,9.7624564E-1,2.1070025E0,5.2322738E-2,-3.901495E-2,2.3667319E-1,1.5379968E0,3.0040711E-2,3.8111457E-1,-3.8144358E-2,2.6261654E0,1.4395915E-1,2.1755104E-1,-2.8228281E-2,-4.4069942E-2,1.6422664E-1,6.161016E-2,3.1684816E-1,1.9510834E0,8.0242933E-4,2.1908405E-1,-3.185537E-2,-4.7414538E-2,7.173559E-2,4.5549344E-2,4.4683638E-1,5.636375E-2,2.1260945E-1,5.066638E-4,6.452298E-3,-4.404769E-2,1.1453163E-1,-5.3183533E-2,7.585783E-2,1.5930212E-1,-2.8139085E-2,-5.3650122E-2,6.417205E-2,1.7633277E-1,-1.9943673E-2,6.8951055E-2,3.3050936E-1,-5.2627187E-2,2.0680506E-2,-5.4354604E-2,2.1295274E-2,1.6825038E-1,-4.8614442E-2,-3.049813E-2,2.860321E-1,-4.051389E-2,1.8341383E-2,1.1642607E-1,-3.7435465E-2,1.5741976E-2,3.141244E-1],"split_indices":[180,604,718,48,193,421,742,35,758,776,408,390,555,761,595,818,480,726,1261,649,128,129,409,871,9,1062,605,0,110,311,362,159,46,0,0,1069,46,740,0,36,0,0,0,0,0,0,0,825,898,0,0,0,0,339,142,0,0,18,441,0,0,0,0,0,0,0,0,0,0,0,0,0,0,0,0,0,0,0,0,0,0,0,0,0,0],"split_type":[0,0,0,0,0,0,0,0,0,0,0,0,0,0,0,0,0,0,0,0,0,0,0,0,0,0,0,0,0,0,0,0,0,0,0,0,0,0,0,0,0,0,0,0,0,0,0,0,0,0,0,0,0,0,0,0,0,0,0,0,0,0,0,0,0,0,0,0,0,0,0,0,0,0,0,0,0,0,0,0,0,0,0,0,0],"sum_hessian":[8.5872577E2,6.7904663E2,1.7967915E2,6.365484E2,4.249822E1,9.389411E1,8.578504E1,5.737604E2,6.2788006E1,2.4916088E1,1.7582129E1,7.059488E1,2.3299227E1,1.0930288E1,7.485475E1,5.7012006E2,3.6403506E0,5.0591194E1,1.2196814E1,2.212705E1,2.789038E0,5.0010824E0,1.2581047E1,6.785501E1,2.739874E0,6.859262E0,1.6439964E1,8.236205E0,2.6940837E0,6.9915565E1,4.9391866E0,5.679653E2,2.1547785E0,2.4022512E0,1.2380995E0,3.4628242E1,1.596295E1,9.96544E0,2.2313738E0,2.0853693E1,1.2733568E0,1.74689E0,1.0421479E0,3.9461534E0,1.0549289E0,1.1720837E0,1.1408963E1,5.7979965E1,9.875044E0,1.3751942E0,1.3646797E0,5.8591375E0,1.0001245E0,1.2592431E1,3.8475332E0,1.2637382E0,1.4303455E0,3.1363993E0,6.677917E1,3.8729084E0,1.0662781E0,5.662658E2,1.6994535E0,1.1181016E0,1.036677E0,3.350006E1,1.1281812E0,6.960126E0,9.002824E0,1.0387194E0,8.926721E0,1.9829569E1,1.0241246E0,5.6972134E1,1.0078323E0,2.799827E0,7.0752172E0,1.2255361E0,1.1366895E1,2.7496622E0,1.0978711E0,1.0455704E0,2.090829E0,1.1667932E0,6.561237E1],"tree_param":{"num_deleted":"0","num_feature":"1280","num_nodes":"85","size_leaf_vector":"1"}},{"base_weights":[-4.6400446E-3,-2.467392E-1,1.1005137E0,-3.669268E-1,5.659707E-1,-9.873946E-2,1.848636E0,-3.9553833E-1,1.509162E0,-6.0859997E-2,2.5083754E0,8.1794006E-1,-3.9028642E-1,2.5170066E0,7.0949477E-1,1.0692389E-1,-4.670394E-1,-4.080883E-2,2.3796873E0,8.665253E-1,-4.610482E-1,3.016292E0,1.5349156E-1,1.7278911E0,-4.7578525E-2,-4.520832E-1,1.0080897E-1,2.746678E0,1.5478078E-1,-3.268528E-2,1.9555882E0,-1.457872E-1,1.8073791E0,-4.7616073E-1,1.3658743E-1,2.9466242E-1,-2.8756473E-2,-2.1936793E-3,2.1218112E0,-5.207992E-1,1.1120134E-1,1.3048055E-2,3.223314E0,-4.1414253E-2,1.1858054E-1,-1.0234759E-1,2.4314861E0,-5.163068E-1,4.1602808E-1,1.2499632E0,3.0451193E0,-4.542261E-2,1.6623549E-1,-3.86174E-1,1.88163E0,-2.0774858E-1,2.7077632E0,-3.551624E-2,1.0574056E-1,2.8609893E-1,-4.916104E-4,-4.88751E-2,7.113845E-2,-4.223509E-2,1.70502E-1,-9.197376E-3,2.94689E-1,-5.4126944E-2,2.1896157E-2,3.4401008E-1,4.9394183E-2,2.0420585E-2,-3.22162E-2,2.8069863E-1,2.0842103E-2,-5.3942718E-2,1.9376498E-2,1.14368044E-1,-3.380897E-2,4.207906E-3,2.2424212E-1,6.116239E-2,3.1467065E-1,-5.245597E-2,5.0696313E-2,2.2483794E-1,5.8969498E-2,-3.9350096E-2,2.168724E-2,1.6749222E-2,3.0091283E-1],"categories":[],"categories_nodes":[],"categories_segments":[],"categories_sizes":[],"default_left":[0,0,0,0,0,0,0,0,0,0,0,0,0,0,0,0,0,0,0,0,0,0,0,0,0,0,0,0,0,0,0,0,0,0,0,0,0,0,0,0,0,0,0,0,0,0,0,0,0,0,0,0,0,0,0,0,0,0,0,0,0,0,0,0,0,0,0,0,0,0,0,0,0,0,0,0,0,0,0,0,0,0,0,0,0,0,0,0,0,0,0],"id":18,"left_children":[1,3,5,7,9,11,13,15,17,19,21,23,25,27,29,31,33,-1,35,37,39,41,43,45,-1,47,-1,49,51,53,55,57,59,61,-1,-1,-1,63,65,67,-1,-1,69,-1,-1,71,73,75,77,79,81,-1,-1,83,85,87,89,-1,-1,-1,-1,-1,-1,-1,-1,-1,-1,-1,-1,-1,-1,-1,-1,-1,-1,-1,-1,-1,-1,-1,-1,-1,-1,-1,-1,-1,-1,-1,-1,-1,-1],"loss_changes":[2.2981137E2,6.902768E1,1.38662E2,3.3576485E1,1.11150116E2,1.642007E1,7.062271E1,2.1820076E1,1.6721416E1,2.6340836E1,2.6168427E1,1.8316029E1,4.4640994E0,3.1879578E1,3.387478E1,3.305184E1,9.52227E0,0E0,1.088274E1,2.3360474E1,5.2299347E0,1.0489319E1,3.4232855E0,1.1761341E1,0E0,2.7299528E0,0E0,2.040741E1,6.5722947E0,1.6896778E1,2.2795403E1,1.7343307E1,1.9007133E1,8.253677E0,0E0,0E0,0E0,1.0516135E1,1.6273212E1,8.507004E-1,0E0,0E0,8.357788E0,0E0,0E0,2.9773098E-1,4.839199E0,8.014431E-1,2.395764E0,1.2742434E1,9.076233E0,0E0,0E0,2.861596E0,5.1966476E-1,4.3662393E-1,7.3118362E0,0E0,0E0,0E0,0E0,0E0,0E0,0E0,0E0,0E0,0E0,0E0,0E0,0E0,0E0,0E0,0E0,0E0,0E0,0E0,0E0,0E0,0E0,0E0,0E0,0E0,0E0,0E0,0E0,0E0,0E0,0E0,0E0,0E0,0E0],"parents":[2147483647,0,0,1,1,2,2,3,3,4,4,5,5,6,6,7,7,8,8,9,9,10,10,11,11,12,12,13,13,14,14,15,15,16,16,18,18,19,19,20,20,21,21,22,22,23,23,25,25,27,27,28,28,29,29,30,30,31,31,32,32,33,33,37,37,38,38,39,39,42,42,45,45,46,46,47,47,48,48,49,49,50,50,53,53,54,54,55,55,56,56],"right_children":[2,4,6,8,10,12,14,16,18,20,22,24,26,28,30,32,34,-1,36,38,40,42,44,46,-1,48,-1,50,52,54,56,58,60,62,-1,-1,-1,64,66,68,-1,-1,70,-1,-1,72,74,76,78,80,82,-1,-1,84,86,88,90,-1,-1,-1,-1,-1,-1,-1,-1,-1,-1,-1,-1,-1,-1,-1,-1,-1,-1,-1,-1,-1,-1,-1,-1,-1,-1,-1,-1,-1,-1,-1,-1,-1,-1],"split_conditions":[1.3062451E0,1.7939678E0,1.8394887E-1,2.9630635E0,7.430737E-1,4.8578076E-2,1.6803126E-1,6.264132E-4,5.463126E-1,4.8339197E-1,1.2712182E0,4.6790666E-3,1.9063789E0,7.692957E-1,8.450353E-1,1.1406814E0,1.9366354E0,-4.080883E-2,1.501819E-1,2.7336544E-1,1.6906163E0,1.5197287E-1,6.6007715E-1,4.9885985E-2,-4.7578525E-2,1.6327978E0,1.0080897E-1,7.725994E-2,1.1576288E0,1.1438437E0,1.0197549E0,1.800261E0,7.6089584E-4,1.8697697E0,1.3658743E-1,2.9466242E-1,-2.8756473E-2,9.7247034E-1,3.9772227E-2,1.4269075E0,1.1120134E-1,1.3048055E-2,1.3686153E-1,-4.1414253E-2,1.1858054E-1,1.8493879E-1,1.8432647E-2,1.4131395E0,2.592292E-2,2.3720595E-1,6.500073E-2,-4.542261E-2,1.6623549E-1,3.094536E-1,1.7048334E-1,9.4542694E-1,1.3284491E-1,-3.551624E-2,1.0574056E-1,2.8609893E-1,-4.916104E-4,-4.88751E-2,7.113845E-2,-4.223509E-2,1.70502E-1,-9.197376E-3,2.94689E-1,-5.4126944E-2,2.1896157E-2,3.4401008E-1,4.9394183E-2,2.0420585E-2,-3.22162E-2,2.8069863E-1,2.0842103E-2,-5.3942718E-2,1.9376498E-2,1.14368044E-1,-3.380897E-2,4.207906E-3,2.2424212E-1,6.116239E-2,3.1467065E-1,-5.245597E-2,5.0696313E-2,2.2483794E-1,5.8969498E-2,-3.9350096E-2,2.168724E-2,1.6749222E-2,3.0091283E-1],"split_indices":[305,464,1117,500,1117,236,955,1153,1104,207,222,880,873,1266,591,597,562,0,1211,1056,1175,694,641,1195,0,437,0,528,427,650,593,732,17,183,0,0,0,1217,247,947,0,0,17,0,0,885,1246,922,968,591,1143,0,0,278,223,446,1210,0,0,0,0,0,0,0,0,0,0,0,0,0,0,0,0,0,0,0,0,0,0,0,0,0,0,0,0,0,0,0,0,0,0],"split_type":[0,0,0,0,0,0,0,0,0,0,0,0,0,0,0,0,0,0,0,0,0,0,0,0,0,0,0,0,0,0,0,0,0,0,0,0,0,0,0,0,0,0,0,0,0,0,0,0,0,0,0,0,0,0,0,0,0,0,0,0,0,0,0,0,0,0,0,0,0,0,0,0,0,0,0,0,0,0,0,0,0,0,0,0,0,0,0,0,0,0,0],"sum_hessian":[8.569108E2,7.035625E2,1.5334831E2,6.1339856E2,9.016394E1,5.9245205E1,9.41031E1,6.049617E2,8.436878E0,6.8898476E1,2.1265463E1,1.3860288E1,4.538492E1,5.854393E1,3.555917E1,7.5300964E1,5.296607E2,2.800424E0,5.636454E0,2.0417717E1,4.848076E1,1.7261518E1,4.0039434E0,7.940022E0,5.920265E0,4.411223E1,1.2726914E0,5.320795E1,5.3359804E0,2.2895975E1,1.2663197E1,6.6354095E1,8.946867E0,5.2777454E2,1.8862019E0,4.5620317E0,1.0744221E0,1.2656828E1,7.760889E0,4.7351105E1,1.1296548E0,1.2645404E0,1.5996978E1,2.9697826E0,1.0341609E0,2.442073E0,5.497949E0,4.1450905E1,2.6613216E0,9.708264E0,4.3499683E1,4.298316E0,1.0376647E0,2.000096E1,2.8950155E0,3.4537215E0,9.209475E0,5.7119232E1,9.234862E0,5.2917557E0,3.6551113E0,5.2282007E2,4.954463E0,1.0761063E1,1.8957648E0,2.3483944E0,5.4124947E0,4.6337208E1,1.0138941E0,1.4578635E1,1.4183433E0,1.0494778E0,1.3925953E0,4.4787707E0,1.0191782E0,4.037654E1,1.0743635E0,1.0915236E0,1.569798E0,4.849056E0,4.8592086E0,2.0244749E0,4.147521E1,1.767501E1,2.3259485E0,1.6782739E0,1.2167416E0,2.4536502E0,1.0000715E0,1.1416904E0,8.067784E0],"tree_param":{"num_deleted":"0","num_feature":"1280","num_nodes":"91","size_leaf_vector":"1"}},{"base_weights":[-2.834809E-3,-4.1009814E-1,1.461983E0,-4.6072406E-1,1.517582E0,2.5773177E0,9.3917206E-2,-4.9095607E-1,7.5022006E-1,4.742051E-2,2.8036258E-1,2.5645208E-1,2.9498596E0,-3.144102E-1,1.3291868E0,-5.0588536E-1,7.11146E-1,2.5457456E0,-4.1299605E-1,-4.8095256E-2,1.6034631E-1,2.2308473E-1,-3.5325882E-1,3.0776534E0,-2.0319691E-1,-4.1761094E-1,2.0620959E-1,-2.7318072E-1,2.3156004E0,-5.151321E-1,1.4179969E0,-4.5359977E-2,2.2892919E-1,3.1529662E-1,-2.8844431E-2,2.1638045E-2,-4.9909115E-2,-5.069237E-2,7.018845E-2,1.017867E-2,3.1242433E0,-3.8977362E-2,2.1497173E-2,-5.100583E-1,1.2448081E0,-4.847153E-2,6.980492E-2,1.3753223E-1,2.8458185E0,-5.2587867E-2,6.378761E-2,2.0531574E-1,1.5173474E-2,3.1549367E-1,5.8220606E-2,-5.4268744E-2,2.9771656E-2,1.9512445E-1,-2.7842358E-2,-3.440928E-2,6.905255E-2,3.0806378E-1,5.7964463E-2],"categories":[],"categories_nodes":[],"categories_segments":[],"categories_sizes":[],"default_left":[0,0,0,0,0,0,0,0,0,0,0,0,0,0,0,0,0,0,0,0,0,0,0,0,0,0,0,0,0,0,0,0,0,0,0,0,0,0,0,0,0,0,0,0,0,0,0,0,0,0,0,0,0,0,0,0,0,0,0,0,0,0,0],"id":19,"left_children":[1,3,5,7,9,11,13,15,17,19,-1,21,23,25,27,29,31,33,35,-1,-1,-1,37,39,41,43,-1,45,47,49,51,-1,-1,-1,-1,-1,-1,-1,-1,-1,53,-1,-1,55,57,-1,-1,59,61,-1,-1,-1,-1,-1,-1,-1,-1,-1,-1,-1,-1,-1,-1],"loss_changes":[5.14163E2,6.651119E1,2.8584995E2,2.4452774E1,3.29359E1,8.851642E1,4.341529E1,1.1889664E1,3.534566E1,8.317229E0,0E0,1.9298475E1,3.6436646E1,1.6772524E1,3.4408817E1,1.2029816E1,1.6288908E1,1.225927E1,6.9455326E-1,0E0,0E0,0E0,2.4006548E0,1.1532593E1,4.2706954E-1,1.0318359E1,0E0,2.194975E0,1.5005539E1,8.177063E0,2.3463345E0,0E0,0E0,0E0,0E0,0E0,0E0,0E0,0E0,0E0,4.7269287E0,0E0,0E0,1.7534733E0,4.427809E0,0E0,0E0,1.2126448E0,3.893036E0,0E0,0E0,0E0,0E0,0E0,0E0,0E0,0E0,0E0,0E0,0E0,0E0,0E0,0E0],"parents":[2147483647,0,0,1,1,2,2,3,3,4,4,5,5,6,6,7,7,8,8,9,9,11,11,12,12,13,13,14,14,15,15,16,16,17,17,18,18,22,22,23,23,24,24,25,25,27,27,28,28,29,29,30,30,40,40,43,43,44,44,47,47,48,48],"right_children":[2,4,6,8,10,12,14,16,18,20,-1,22,24,26,28,30,32,34,36,-1,-1,-1,38,40,42,44,-1,46,48,50,52,-1,-1,-1,-1,-1,-1,-1,-1,-1,54,-1,-1,56,58,-1,-1,60,62,-1,-1,-1,-1,-1,-1,-1,-1,-1,-1,-1,-1,-1,-1],"split_conditions":[8.785223E-1,1.1074656E0,6.55982E-2,8.216519E-1,2.5282168E-1,4.2017373E-1,1.0044553E-1,1.6588272E0,3.7362702E-2,6.338043E-1,2.8036258E-1,5.092325E-2,1.920344E0,1.0587854E0,6.345589E-1,3.2657502E0,1.4428602E0,2.8833172E-1,6.2045068E-2,-4.8095256E-2,1.6034631E-1,2.2308473E-1,1.7904093E0,1.8425043E-1,1.6442168E-1,1.0608864E0,2.0620959E-1,5.558864E-1,2.3645116E-1,1.285501E0,3.370299E-1,-4.5359977E-2,2.2892919E-1,3.1529662E-1,-2.8844431E-2,2.1638045E-2,-4.9909115E-2,-5.069237E-2,7.018845E-2,1.017867E-2,2.046925E0,-3.8977362E-2,2.1497173E-2,5.197614E-1,1.2725137E-1,-4.847153E-2,6.980492E-2,6.1200015E-2,1.5885437E-1,-5.2587867E-2,6.378761E-2,2.0531574E-1,1.5173474E-2,3.1549367E-1,5.8220606E-2,-5.4268744E-2,2.9771656E-2,1.9512445E-1,-2.7842358E-2,-3.440928E-2,6.905255E-2,3.0806378E-1,5.7964463E-2],"split_indices":[950,103,1081,864,1061,1059,514,241,348,192,0,444,530,1035,236,1045,1134,249,879,0,0,0,950,701,940,1048,0,41,390,232,100,0,0,0,0,0,0,0,0,0,563,0,0,1165,87,0,0,1052,586,0,0,0,0,0,0,0,0,0,0,0,0,0,0],"split_type":[0,0,0,0,0,0,0,0,0,0,0,0,0,0,0,0,0,0,0,0,0,0,0,0,0,0,0,0,0,0,0,0,0,0,0,0,0,0,0,0,0,0,0,0,0,0,0,0,0,0,0,0,0,0,0,0,0,0,0,0,0,0,0],"sum_hessian":[8.598653E2,6.7336865E2,1.8649666E2,6.568783E2,1.6490337E1,1.0225111E2,8.424555E1,6.4145844E2,1.5419867E1,8.178187E0,8.312151E0,1.43765135E1,8.7874596E1,6.387626E1,2.0369293E1,6.3416174E2,7.2966995E0,5.594982E0,9.824884E0,6.6208954E0,1.557292E0,2.7647395E0,1.16117735E1,8.447474E1,3.399859E0,6.200782E1,1.8684394E0,8.036902E0,1.2332391E1,6.3185706E2,2.3046577E0,4.6082034E0,2.688496E0,4.5151453E0,1.0798373E0,1.0001642E0,8.82472E0,1.0589195E1,1.022579E0,1.3512357E0,8.3123505E1,2.3978844E0,1.0019746E0,5.939788E1,2.6099412E0,7.0108585E0,1.0260435E0,2.6609476E0,9.671443E0,6.2656116E2,5.295905E0,1.1209531E0,1.1837045E0,8.189358E1,1.2299211E0,5.7407154E1,1.9907244E0,1.5910586E0,1.0188828E0,1.6241608E0,1.0367869E0,8.437732E0,1.2337117E0],"tree_param":{"num_deleted":"0","num_feature":"1280","num_nodes":"63","size_leaf_vector":"1"}},{"base_weights":[1.0635233E-2,-2.162923E-1,1.7115835E0,-3.057997E-1,1.568897E0,2.1483855E0,-4.088139E-1,-4.1650894E-1,1.2608621E0,2.1738033E0,-3.8641497E-1,2.2545512E0,-2.1356958E-1,-5.163734E-2,6.701546E-2,-4.6625033E-1,1.0511091E0,1.9427018E0,-3.2007337E-1,2.404143E0,-3.769604E-2,-4.857371E-2,2.2451233E-2,2.2955868E0,-3.0105237E-2,-3.9437745E-2,2.110881E-2,-4.9949655E-1,6.089227E-1,1.9718374E0,-4.9096104E-2,2.219071E0,9.221719E-2,-5.1187396E-2,1.1273092E-1,2.4902396E-1,1.9221494E-2,1.7284295E-2,2.324034E-1,-5.117303E-2,6.0650032E-2,2.4248521E-1,-2.4364715E-2,2.4356984E-1,-3.8014334E-2,-3.0776361E-2,2.3386355E-1,1.1048917E-1,-4.250304E-2],"categories":[],"categories_nodes":[],"categories_segments":[],"categories_sizes":[],"default_left":[0,0,0,0,0,0,0,0,0,0,0,0,0,0,0,0,0,0,0,0,0,0,0,0,0,0,0,0,0,0,0,0,0,0,0,0,0,0,0,0,0,0,0,0,0,0,0,0,0],"id":20,"left_children":[1,3,5,7,9,11,13,15,17,19,21,23,25,-1,-1,27,29,31,33,35,-1,-1,-1,37,-1,-1,-1,39,41,43,-1,45,47,-1,-1,-1,-1,-1,-1,-1,-1,-1,-1,-1,-1,-1,-1,-1,-1],"loss_changes":[3.3061005E2,1.2123804E2,9.425635E1,1.2549091E2,4.3711105E1,2.1484467E1,2.4421258E0,4.9670647E1,5.2149986E1,1.7259369E1,6.8021977E-1,9.10614E0,4.3001556E-1,0E0,0E0,2.3620956E1,3.2760887E1,1.694802E1,4.8141146E0,4.408661E0,0E0,0E0,0E0,4.374176E0,0E0,0E0,0E0,8.879028E0,3.1579638E1,1.643982E1,0E0,9.522903E0,3.298974E0,0E0,0E0,0E0,0E0,0E0,0E0,0E0,0E0,0E0,0E0,0E0,0E0,0E0,0E0,0E0,0E0],"parents":[2147483647,0,0,1,1,2,2,3,3,4,4,5,5,6,6,7,7,8,8,9,9,10,10,11,11,12,12,15,15,16,16,17,17,18,18,19,19,23,23,27,27,28,28,29,29,31,31,32,32],"right_children":[2,4,6,8,10,12,14,16,18,20,22,24,26,-1,-1,28,30,32,34,36,-1,-1,-1,38,-1,-1,-1,40,42,44,-1,46,48,-1,-1,-1,-1,-1,-1,-1,-1,-1,-1,-1,-1,-1,-1,-1,-1],"split_conditions":[2.9377074E0,2.2350535E0,9.0894175E-1,1.6361053E0,1.4432624E-1,3.8425454E-1,1.7962403E0,2.6201992E0,3.9792326E-1,4.61773E-4,1.0779709E0,2.5670078E0,2.216219E-1,-5.163734E-2,6.701546E-2,1.677918E0,5.7024467E-1,2.582059E0,6.166071E-1,1.0621742E-2,-3.769604E-2,-4.857371E-2,2.2451233E-2,4.0866464E-2,-3.0105237E-2,-3.9437745E-2,2.110881E-2,1.7261807E0,1.685016E-3,3.1298518E-1,-4.9096104E-2,5.150834E-3,9.176186E-3,-5.1187396E-2,1.1273092E-1,2.4902396E-1,1.9221494E-2,1.7284295E-2,2.324034E-1,-5.117303E-2,6.0650032E-2,2.4248521E-1,-2.4364715E-2,2.4356984E-1,-3.8014334E-2,-3.0776361E-2,2.3386355E-1,1.1048917E-1,-4.250304E-2],"split_indices":[374,909,149,890,816,478,33,781,501,196,455,255,412,0,0,90,204,580,400,429,0,0,0,193,0,0,0,1058,732,953,0,1248,212,0,0,0,0,0,0,0,0,0,0,0,0,0,0,0,0],"split_type":[0,0,0,0,0,0,0,0,0,0,0,0,0,0,0,0,0,0,0,0,0,0,0,0,0,0,0,0,0,0,0,0,0,0,0,0,0,0,0,0,0,0,0,0,0,0,0,0,0],"sum_hessian":[8.5456146E2,7.547423E2,9.981912E1,7.194963E2,3.5246033E1,8.2757805E1,1.7061317E1,6.7269403E2,4.6802258E1,2.6833061E1,8.41297E0,7.9241516E1,3.5162888E0,1.5988852E1,1.0724667E0,6.51302E2,2.1392008E1,3.2539505E1,1.4262752E1,2.4663383E1,2.1696792E0,7.412752E0,1.0002172E0,7.808936E1,1.1521508E0,2.5162444E0,1.0000443E0,6.322861E2,1.901595E1,1.3220005E1,8.172002E0,2.8137934E1,4.4015713E0,1.3164585E1,1.0981661E0,2.3618248E1,1.0451342E0,1.1262153E0,7.696315E1,6.2590015E2,6.3859496E0,5.4862833E0,1.3529667E1,1.1012508E1,2.2074964E0,1.2001613E0,2.6937773E1,1.1040157E0,3.2975557E0],"tree_param":{"num_deleted":"0","num_feature":"1280","num_nodes":"49","size_leaf_vector":"1"}},{"base_weights":[1.7097993E-2,-4.2755163E-1,1.5712966E0,-4.7858104E-1,1.7800426E0,2.016828E0,5.8982845E-2,-5.090474E-1,6.816784E-1,-3.5655115E-2,2.0978959E0,-1.0731411E-1,2.1931477E0,-4.266423E-1,2.1119428E0,-5.2865547E-1,2.3688224E-1,-3.0707827E-1,1.9233825E0,2.2343159E-1,2.0798834E-2,-4.9983274E-2,1.5771556E-1,2.2754457E0,8.437312E-1,-5.056208E-1,1.18289255E-1,2.3765321E-1,1.7168034E-2,-5.365668E-1,1.3418677E-1,1.5923316E0,-3.537024E-1,-4.914927E-2,7.0081405E-2,2.224038E-1,1.4596174E-2,2.3004951E0,-2.9605651E-2,-2.7116722E-1,1.78138E-1,-5.32507E-2,1.803561E-2,-5.4133963E-2,7.885315E-2,2.5558993E-1,-3.433007E-2,7.087798E-2,-5.066043E-2,2.3269103E-1,5.35096E-3,2.1400401E-2,-4.3929763E-2],"categories":[],"categories_nodes":[],"categories_segments":[],"categories_sizes":[],"default_left":[0,0,0,0,0,0,0,0,0,0,0,0,0,0,0,0,0,0,0,0,0,0,0,0,0,0,0,0,0,0,0,0,0,0,0,0,0,0,0,0,0,0,0,0,0,0,0,0,0,0,0,0,0],"id":21,"left_children":[1,3,5,7,9,11,13,15,17,-1,19,21,23,25,27,29,31,33,35,-1,-1,-1,-1,37,39,41,-1,-1,-1,43,-1,45,47,-1,-1,-1,-1,49,-1,51,-1,-1,-1,-1,-1,-1,-1,-1,-1,-1,-1,-1,-1],"loss_changes":[5.935623E2,7.608827E1,1.2861554E2,2.3449722E1,1.11392975E1,5.549823E1,4.527478E1,9.448227E0,2.164618E1,0E0,3.0068054E0,8.896188E0,1.321582E1,5.2793884E0,4.049328E0,9.915558E0,1.4185432E1,2.2792892E0,3.8116283E0,0E0,0E0,0E0,0E0,8.917664E0,1.0334349E1,7.5638866E-1,0E0,0E0,0E0,4.344879E0,0E0,1.0848497E1,2.417528E0,0E0,0E0,0E0,0E0,7.3984375E0,0E0,5.1596767E-1,0E0,0E0,0E0,0E0,0E0,0E0,0E0,0E0,0E0,0E0,0E0,0E0,0E0],"parents":[2147483647,0,0,1,1,2,2,3,3,4,4,5,5,6,6,7,7,8,8,10,10,11,11,12,12,13,13,14,14,15,15,16,16,17,17,18,18,23,23,24,24,25,25,29,29,31,31,32,32,37,37,39,39],"right_children":[2,4,6,8,10,12,14,16,18,-1,20,22,24,26,28,30,32,34,36,-1,-1,-1,-1,38,40,42,-1,-1,-1,44,-1,46,48,-1,-1,-1,-1,50,-1,52,-1,-1,-1,-1,-1,-1,-1,-1,-1,-1,-1,-1,-1],"split_conditions":[5.27033E-1,1.8695816E0,3.778277E-1,1.6293987E0,8.020559E-2,1.2167835E-1,1.4870788E0,2.055678E0,2.8751E-1,-3.5655115E-2,5.9349477E-2,1.9316982E0,4.5715278E-1,2.010551E0,2.551189E-1,1.8248452E0,4.4518054E-2,1.0600133E0,8.7911725E-1,2.2343159E-1,2.0798834E-2,-4.9983274E-2,1.5771556E-1,4.935038E-1,1.190123E-1,2.0952923E0,1.18289255E-1,2.3765321E-1,1.7168034E-2,3.2547607E0,1.3418677E-1,5.9433702E-2,6.790186E-2,-4.914927E-2,7.0081405E-2,2.224038E-1,1.4596174E-2,2.3375862E0,-2.9605651E-2,1.3242367E-1,1.78138E-1,-5.32507E-2,1.803561E-2,-5.4133963E-2,7.885315E-2,2.5558993E-1,-3.433007E-2,7.087798E-2,-5.066043E-2,2.3269103E-1,5.35096E-3,2.1400401E-2,-4.3929763E-2],"split_indices":[894,1183,407,288,979,1274,1136,1153,211,0,0,644,61,129,368,1138,443,1094,127,0,0,0,0,741,1222,775,0,0,0,27,0,221,1093,0,0,0,0,948,0,966,0,0,0,0,0,0,0,0,0,0,0,0,0],"split_type":[0,0,0,0,0,0,0,0,0,0,0,0,0,0,0,0,0,0,0,0,0,0,0,0,0,0,0,0,0,0,0,0,0,0,0,0,0,0,0,0,0,0,0,0,0,0,0,0,0,0,0,0,0],"sum_hessian":[8.569264E2,6.6686426E2,1.9006213E2,6.5256323E2,1.43010435E1,1.4655348E2,4.3508648E1,6.364134E2,1.61498E1,1.8362316E0,1.2464812E1,1.1262626E1,1.3529086E2,3.5826187E1,7.6824594E0,6.203964E2,1.601698E1,9.409669E0,6.740131E0,1.1455667E1,1.009145E0,9.704527E0,1.558099E0,1.2686724E2,8.423621E0,3.4804234E1,1.0219545E0,6.562671E0,1.1197883E0,6.184937E2,1.9027371E0,4.346088E0,1.1670892E1,8.3873825E0,1.0222865E0,5.5500526E0,1.1900783E0,1.257477E2,1.119538E0,4.1728053E0,4.2508154E0,3.3706852E1,1.0973837E0,6.168633E2,1.6304212E0,2.6876938E0,1.6583942E0,1.0108937E0,1.0659998E1,1.2425146E2,1.4962454E0,1.0036739E0,3.1691313E0],"tree_param":{"num_deleted":"0","num_feature":"1280","num_nodes":"53","size_leaf_vector":"1"}},{"base_weights":[6.908798E-3,-4.241654E-1,5.8900076E-1,-5.059659E-1,9.573754E-2,2.6460724E-2,1.6568537E0,-5.1500154E-1,7.632311E-1,-3.1094012E-1,1.0178531E0,-2.9022893E-1,1.3575231E0,7.099799E-1,2.2331305E0,-5.3071547E-1,-5.025002E-2,-2.9722525E-2,1.453628E-1,-4.3056536E-1,1.7437941E-1,-4.848961E-2,1.8349085E0,-4.0823358E-1,4.9145138E-1,-3.0464074E-2,1.9202439E0,-1.8194611E-1,1.6243986E0,2.4003868E0,6.399534E-1,-5.4032063E-1,2.1783516E-2,-4.9975604E-2,8.9333075E-1,-5.144032E-1,6.0481226E-1,2.1495862E0,-3.4288514E-2,-5.2510506E-1,1.5328927E-1,-3.200313E-1,1.4866643E0,-4.244546E-1,1.4671883E-1,-2.4463913E-1,2.2288265E0,-3.5869622E-1,1.160933E0,2.2091831E-1,2.2203996E0,2.4536345E0,3.2075394E-2,-4.360802E-2,1.563494E0,-5.4520942E-2,8.670172E-3,1.5367316E-1,-4.6852127E-2,-1.3415838E-2,2.0380521E-1,-5.3676497E-2,1.6644014E-2,-3.5455167E-2,1.6140935E-1,2.3326416E-1,4.7188498E-2,-5.391114E-2,7.0938565E-2,-2.6638964E-2,1.2329691E-1,-5.1028915E-2,6.585059E-2,1.9809309E-1,-3.834645E-2,-5.0160885E-2,2.1391923E-2,2.131594E-2,-4.1279793E-2,2.4599889E-1,2.8003648E-2,-4.812575E-2,9.5520824E-2,1.6157549E-2,1.657637E-1,1.3271628E-1,-4.585192E-2,2.4893971E-1,-6.2022376E-4,2.4911872E-1,4.5939323E-2,-2.7799437E-2,2.1152523E-1],"categories":[],"categories_nodes":[],"categories_segments":[],"categories_sizes":[],"default_left":[0,0,0,0,0,0,0,0,0,0,0,0,0,0,0,0,0,0,0,0,0,0,0,0,0,0,0,0,0,0,0,0,0,0,0,0,0,0,0,0,0,0,0,0,0,0,0,0,0,0,0,0,0,0,0,0,0,0,0,0,0,0,0,0,0,0,0,0,0,0,0,0,0,0,0,0,0,0,0,0,0,0,0,0,0,0,0,0,0,0,0,0,0],"id":22,"left_children":[1,3,5,7,9,11,13,15,17,19,21,23,25,27,29,31,33,-1,-1,35,-1,-1,37,39,41,43,45,47,49,51,53,55,57,-1,59,61,63,65,-1,67,69,71,73,75,-1,77,79,81,83,85,87,89,-1,-1,91,-1,-1,-1,-1,-1,-1,-1,-1,-1,-1,-1,-1,-1,-1,-1,-1,-1,-1,-1,-1,-1,-1,-1,-1,-1,-1,-1,-1,-1,-1,-1,-1,-1,-1,-1,-1,-1,-1],"loss_changes":[2.141634E2,2.0902908E1,2.1809451E2,5.2539062E0,2.5631258E1,1.0108025E2,6.677338E1,3.0513077E0,2.9206703E0,1.2453587E1,2.6544058E1,1.8074686E1,3.6051773E1,4.014885E1,1.9092102E1,2.1746979E0,6.7614536E0,0E0,0E0,4.2862043E0,0E0,0E0,1.0155865E1,1.1165001E1,2.1367966E1,9.047653E0,2.2460655E1,6.501129E0,1.9776081E1,6.9306335E0,9.345845E0,1.2754059E0,6.607175E0,0E0,6.345955E0,7.425461E-1,4.338771E0,2.6295662E0,0E0,2.8036804E0,1.3864142E1,3.1422389E0,1.1663635E1,7.0227337E-1,0E0,4.7242743E-1,1.2290283E1,4.2307634E0,1.3294091E0,6.871426E0,1.0135345E1,3.9333496E0,0E0,0E0,5.5766077E0,0E0,0E0,0E0,0E0,0E0,0E0,0E0,0E0,0E0,0E0,0E0,0E0,0E0,0E0,0E0,0E0,0E0,0E0,0E0,0E0,0E0,0E0,0E0,0E0,0E0,0E0,0E0,0E0,0E0,0E0,0E0,0E0,0E0,0E0,0E0,0E0,0E0,0E0],"parents":[2147483647,0,0,1,1,2,2,3,3,4,4,5,5,6,6,7,7,8,8,9,9,10,10,11,11,12,12,13,13,14,14,15,15,16,16,19,19,22,22,23,23,24,24,25,25,26,26,27,27,28,28,29,29,30,30,31,31,32,32,34,34,35,35,36,36,37,37,39,39,40,40,41,41,42,42,43,43,45,45,46,46,47,47,48,48,49,49,50,50,51,51,54,54],"right_children":[2,4,6,8,10,12,14,16,18,20,22,24,26,28,30,32,34,-1,-1,36,-1,-1,38,40,42,44,46,48,50,52,54,56,58,-1,60,62,64,66,-1,68,70,72,74,76,-1,78,80,82,84,86,88,90,-1,-1,92,-1,-1,-1,-1,-1,-1,-1,-1,-1,-1,-1,-1,-1,-1,-1,-1,-1,-1,-1,-1,-1,-1,-1,-1,-1,-1,-1,-1,-1,-1,-1,-1,-1,-1,-1,-1,-1,-1],"split_conditions":[2.4314341E-1,1.2747259E0,6.662532E-1,2.583073E0,7.168419E-1,4.3517202E-1,4.8210818E-1,1.9747237E0,9.1702193E-1,1.5276623E0,1.1024086E-1,3.806621E-1,1.965044E0,3.2692453E-1,1.368343E-1,2.0555642E0,1.5603092E-1,-2.9722525E-2,1.453628E-1,1.491779E0,1.7437941E-1,-4.848961E-2,3.202594E-4,1.057271E0,1.0561463E0,1.8262498E0,1.0531763E-1,8.048167E-1,9.659117E-1,9.725417E-2,1.5079573E-1,2.3514483E0,8.283985E-3,-4.9975604E-2,9.9822575E-1,1.9176022E0,7.718809E-1,5.3957725E-1,-3.4288514E-2,2.2297769E0,1.0015386E0,9.229622E-1,4.8498297E-1,1.6317397E0,1.4671883E-1,1.5899517E-1,2.528718E0,2.7861583E0,7.009177E-1,3.1778764E-4,8.797007E-1,2.8092035E-3,3.2075394E-2,-4.360802E-2,5.976511E-1,-5.4520942E-2,8.670172E-3,1.5367316E-1,-4.6852127E-2,-1.3415838E-2,2.0380521E-1,-5.3676497E-2,1.6644014E-2,-3.5455167E-2,1.6140935E-1,2.3326416E-1,4.7188498E-2,-5.391114E-2,7.0938565E-2,-2.6638964E-2,1.2329691E-1,-5.1028915E-2,6.585059E-2,1.9809309E-1,-3.834645E-2,-5.0160885E-2,2.1391923E-2,2.131594E-2,-4.1279793E-2,2.4599889E-1,2.8003648E-2,-4.812575E-2,9.5520824E-2,1.6157549E-2,1.657637E-1,1.3271628E-1,-4.585192E-2,2.4893971E-1,-6.2022376E-4,2.4911872E-1,4.5939323E-2,-2.7799437E-2,2.1152523E-1],"split_indices":[1259,779,1032,1091,1026,77,1037,1161,7,401,98,963,187,629,685,245,1165,0,0,124,0,0,720,1026,146,1123,1175,214,272,108,953,38,707,0,176,150,89,363,0,756,879,1117,259,301,0,1268,1198,761,410,209,1157,1169,0,0,747,0,0,0,0,0,0,0,0,0,0,0,0,0,0,0,0,0,0,0,0,0,0,0,0,0,0,0,0,0,0,0,0,0,0,0,0,0,0],"split_type":[0,0,0,0,0,0,0,0,0,0,0,0,0,0,0,0,0,0,0,0,0,0,0,0,0,0,0,0,0,0,0,0,0,0,0,0,0,0,0,0,0,0,0,0,0,0,0,0,0,0,0,0,0,0,0,0,0,0,0,0,0,0,0,0,0,0,0,0,0,0,0,0,0,0,0,0,0,0,0,0,0,0,0,0,0,0,0,0,0,0,0,0,0],"sum_hessian":[8.5150073E2,4.8936658E2,3.6213416E2,4.2286124E2,6.6505356E1,2.3785696E2,1.24277176E2,4.2046213E2,2.3991175E0,4.6611317E1,1.9894041E1,1.9277373E2,4.5083244E1,4.7864143E1,7.641304E1,4.0657333E2,1.3888783E1,1.1705806E0,1.2285368E0,4.47939E1,1.8174185E0,7.1500382E0,1.2744002E1,1.6790419E2,2.4869535E1,1.3278018E1,3.1805227E1,2.4635574E1,2.3228567E1,6.86946E1,7.7184324E0,3.9964752E2,6.9258103E0,9.725893E0,4.16289E0,4.1903973E1,2.8899267E0,1.1146373E1,1.5976295E0,1.390319E2,2.8872282E1,1.4073021E1,1.07965145E1,1.1079814E1,2.1982033E0,3.993783E0,2.7811445E1,2.2417824E1,2.2177496E0,7.332486E0,1.5896082E1,6.680428E1,