{"learner":{"attributes":{"scikit_learn":"{\"_estimator_type\": \"classifier\"}"},"feature_names":[],"feature_types":[],"gradient_booster":{"model":{"gbtree_model_param":{"num_parallel_tree":"1","num_trees":"1000"},"iteration_indptr":[0,10,20,30,40,50,60,70,80,90,100,110,120,130,140,150,160,170,180,190,200,210,220,230,240,250,260,270,280,290,300,310,320,330,340,350,360,370,380,390,400,410,420,430,440,450,460,470,480,490,500,510,520,530,540,550,560,570,580,590,600,610,620,630,640,650,660,670,680,690,700,710,720,730,740,750,760,770,780,790,800,810,820,830,840,850,860,870,880,890,900,910,920,930,940,950,960,970,980,990,1000],"tree_info":[0,1,2,3,4,5,6,7,8,9,0,1,2,3,4,5,6,7,8,9,0,1,2,3,4,5,6,7,8,9,0,1,2,3,4,5,6,7,8,9,0,1,2,3,4,5,6,7,8,9,0,1,2,3,4,5,6,7,8,9,0,1,2,3,4,5,6,7,8,9,0,1,2,3,4,5,6,7,8,9,0,1,2,3,4,5,6,7,8,9,0,1,2,3,4,5,6,7,8,9,0,1,2,3,4,5,6,7,8,9,0,1,2,3,4,5,6,7,8,9,0,1,2,3,4,5,6,7,8,9,0,1,2,3,4,5,6,7,8,9,0,1,2,3,4,5,6,7,8,9,0,1,2,3,4,5,6,7,8,9,0,1,2,3,4,5,6,7,8,9,0,1,2,3,4,5,6,7,8,9,0,1,2,3,4,5,6,7,8,9,0,1,2,3,4,5,6,7,8,9,0,1,2,3,4,5,6,7,8,9,0,1,2,3,4,5,6,7,8,9,0,1,2,3,4,5,6,7,8,9,0,1,2,3,4,5,6,7,8,9,0,1,2,3,4,5,6,7,8,9,0,1,2,3,4,5,6,7,8,9,0,1,2,3,4,5,6,7,8,9,0,1,2,3,4,5,6,7,8,9,0,1,2,3,4,5,6,7,8,9,0,1,2,3,4,5,6,7,8,9,0,1,2,3,4,5,6,7,8,9,0,1,2,3,4,5,6,7,8,9,0,1,2,3,4,5,6,7,8,9,0,1,2,3,4,5,6,7,8,9,0,1,2,3,4,5,6,7,8,9,0,1,2,3,4,5,6,7,8,9,0,1,2,3,4,5,6,7,8,9,0,1,2,3,4,5,6,7,8,9,0,1,2,3,4,5,6,7,8,9,0,1,2,3,4,5,6,7,8,9,0,1,2,3,4,5,6,7,8,9,0,1,2,3,4,5,6,7,8,9,0,1,2,3,4,5,6,7,8,9,0,1,2,3,4,5,6,7,8,9,0,1,2,3,4,5,6,7,8,9,0,1,2,3,4,5,6,7,8,9,0,1,2,3,4,5,6,7,8,9,0,1,2,3,4,5,6,7,8,9,0,1,2,3,4,5,6,7,8,9,0,1,2,3,4,5,6,7,8,9,0,1,2,3,4,5,6,7,8,9,0,1,2,3,4,5,6,7,8,9,0,1,2,3,4,5,6,7,8,9,0,1,2,3,4,5,6,7,8,9,0,1,2,3,4,5,6,7,8,9,0,1,2,3,4,5,6,7,8,9,0,1,2,3,4,5,6,7,8,9,0,1,2,3,4,5,6,7,8,9,0,1,2,3,4,5,6,7,8,9,0,1,2,3,4,5,6,7,8,9,0,1,2,3,4,5,6,7,8,9,0,1,2,3,4,5,6,7,8,9,0,1,2,3,4,5,6,7,8,9,0,1,2,3,4,5,6,7,8,9,0,1,2,3,4,5,6,7,8,9,0,1,2,3,4,5,6,7,8,9,0,1,2,3,4,5,6,7,8,9,0,1,2,3,4,5,6,7,8,9,0,1,2,3,4,5,6,7,8,9,0,1,2,3,4,5,6,7,8,9,0,1,2,3,4,5,6,7,8,9,0,1,2,3,4,5,6,7,8,9,0,1,2,3,4,5,6,7,8,9,0,1,2,3,4,5,6,7,8,9,0,1,2,3,4,5,6,7,8,9,0,1,2,3,4,5,6,7,8,9,0,1,2,3,4,5,6,7,8,9,0,1,2,3,4,5,6,7,8,9,0,1,2,3,4,5,6,7,8,9,0,1,2,3,4,5,6,7,8,9,0,1,2,3,4,5,6,7,8,9,0,1,2,3,4,5,6,7,8,9,0,1,2,3,4,5,6,7,8,9,0,1,2,3,4,5,6,7,8,9,0,1,2,3,4,5,6,7,8,9,0,1,2,3,4,5,6,7,8,9,0,1,2,3,4,5,6,7,8,9,0,1,2,3,4,5,6,7,8,9,0,1,2,3,4,5,6,7,8,9,0,1,2,3,4,5,6,7,8,9,0,1,2,3,4,5,6,7,8,9,0,1,2,3,4,5,6,7,8,9,0,1,2,3,4,5,6,7,8,9,0,1,2,3,4,5,6,7,8,9,0,1,2,3,4,5,6,7,8,9,0,1,2,3,4,5,6,7,8,9,0,1,2,3,4,5,6,7,8,9,0,1,2,3,4,5,6,7,8,9,0,1,2,3,4,5,6,7,8,9,0,1,2,3,4,5,6,7,8,9],"trees":[{"base_weights":[1.0640246E-2,-2.7672654E-1,2.9033496E0,-4.2318484E-1,7.7304673E-1,7.3244554E-1,4.3936768E0,-4.5057076E-1,1.299639E0,2.2399635E0,-4.339763E-1,2.6909413E0,-2.6777878E-1,4.655014E0,1.3513511E-1,-5.29799E-1,-6.5554254E-2,3.185484E0,-1.9662924E-1,1.04601E0,4.0599294E0,-5.0719154E-1,1.6346155E-1,3.6585367E0,7.389161E-2,1.3087249E-1,-4.8076925E-1,4.786831E0,1.3274336E-2,-3.4351148E-2,6.7307696E-2,-5.368294E-1,1.3114755E-1,9.1492236E-1,-3.9171547E-1,3.71134E-1,6.7307696E-2,-4.6357617E-2,6.7307696E-2,1.9186046E0,-3.3562824E-1,4.4680853E0,6.3758396E-2,-5.4470915E-2,4.1984733E-2,1.3274336E-2,4.2795393E-1,-3.6912754E-2,6.7307696E-2,-5.273834E-2,1.9230768E-2,4.8541567E-1,1.15384616E-1,-5.4210436E-2,6.3758396E-2,-1.2528476E-2,2.2434917E-1,-5.0095882E-2,1.09375E-1,3.1660232E-1,2.5510187E-3,-5.028463E-2,6.7307696E-2,4.6371555E-1,1.460177E-1],"categories":[],"categories_nodes":[],"categories_segments":[],"categories_sizes":[],"default_left":[0,0,0,0,0,0,0,0,0,0,0,0,0,0,0,0,0,0,0,0,0,0,0,0,0,0,0,0,0,0,0,0,0,0,0,0,0,0,0,0,0,0,0,0,0,0,0,0,0,0,0,0,0,0,0,0,0,0,0,0,0,0,0,0,0],"id":0,"left_children":[1,3,5,7,9,11,13,15,17,19,21,23,25,27,29,31,33,35,37,39,41,43,-1,45,47,-1,49,51,-1,-1,-1,53,-1,55,57,-1,-1,-1,-1,59,61,63,-1,-1,-1,-1,-1,-1,-1,-1,-1,-1,-1,-1,-1,-1,-1,-1,-1,-1,-1,-1,-1,-1,-1],"loss_changes":[7.195515E2,1.2139137E2,2.498515E2,3.321888E1,1.7229556E2,6.5443794E1,5.076526E1,2.0756287E1,3.1891123E1,9.1015625E1,8.995382E0,2.8242744E1,8.278268E0,2.528357E1,1.1839004E0,8.019501E0,3.7921326E1,4.054962E0,1.96504E0,3.4184013E1,2.0925598E1,2.0664825E0,0E0,1.738604E1,1.3261805E0,0E0,7.5401783E-1,4.725708E0,0E0,0E0,0E0,3.8376007E0,0E0,4.121553E1,1.496463E1,0E0,0E0,0E0,0E0,4.0536713E1,2.2984428E0,8.774414E-1,0E0,0E0,0E0,0E0,0E0,0E0,0E0,0E0,0E0,0E0,0E0,0E0,0E0,0E0,0E0,0E0,0E0,0E0,0E0,0E0,0E0,0E0,0E0],"parents":[2147483647,0,0,1,1,2,2,3,3,4,4,5,5,6,6,7,7,8,8,9,9,10,10,11,11,12,12,13,13,14,14,15,15,16,16,17,17,18,18,19,19,20,20,21,21,23,23,24,24,26,26,27,27,31,31,33,33,34,34,39,39,40,40,41,41],"right_children":[2,4,6,8,10,12,14,16,18,20,22,24,26,28,30,32,34,36,38,40,42,44,-1,46,48,-1,50,52,-1,-1,-1,54,-1,56,58,-1,-1,-1,-1,60,62,64,-1,-1,-1,-1,-1,-1,-1,-1,-1,-1,-1,-1,-1,-1,-1,-1,-1,-1,-1,-1,-1,-1,-1],"split_conditions":[1.3234472E0,5.424523E-1,5.666491E-1,1.8157365E0,1.777674E-1,5.3726896E-3,5.1028065E-2,1.012223E0,1.1753452E-2,1.5539148E0,1.4088314E0,1.4822847E-1,1.9678447E-2,1.0747987E-1,4.217062E-2,1.6707172E0,6.5315986E-4,1.693552E-1,6.181711E-1,2.306298E-1,7.579846E-1,2.076252E0,1.6346155E-1,1.9340709E-2,6.6833116E-2,1.3087249E-1,5.6771755E-1,5.342172E-1,1.3274336E-2,-3.4351148E-2,6.7307696E-2,3.0852733E0,1.3114755E-1,5.963834E-1,1.6356025E0,3.71134E-1,6.7307696E-2,-4.6357617E-2,6.7307696E-2,1.1034596E-3,1.3694327E0,7.3188937E-1,6.3758396E-2,-5.4470915E-2,4.1984733E-2,1.3274336E-2,4.2795393E-1,-3.6912754E-2,6.7307696E-2,-5.273834E-2,1.9230768E-2,4.8541567E-1,1.15384616E-1,-5.4210436E-2,6.3758396E-2,-1.2528476E-2,2.2434917E-1,-5.0095882E-2,1.09375E-1,3.1660232E-1,2.5510187E-3,-5.028463E-2,6.7307696E-2,4.6371555E-1,1.460177E-1],"split_indices":[1205,1260,210,132,406,885,996,1110,52,782,528,825,291,587,10,647,572,310,8,789,484,156,0,690,4,0,25,827,0,0,0,787,0,529,933,0,0,0,0,94,0,893,0,0,0,0,0,0,0,0,0,0,0,0,0,0,0,0,0,0,0,0,0,0,0],"split_type":[0,0,0,0,0,0,0,0,0,0,0,0,0,0,0,0,0,0,0,0,0,0,0,0,0,0,0,0,0,0,0,0,0,0,0,0,0,0,0,0,0,0,0,0,0,0,0,0,0,0,0,0,0,0,0,0,0,0,0,0,0,0,0,0,0],"sum_hessian":[8.6363995E2,7.8642E2,7.721999E1,6.9066E2,9.5759995E1,3.2039997E1,4.5179996E1,6.8057996E2,1.008E1,4.2839996E1,5.292E1,1.0259999E1,2.1779999E1,4.248E1,2.6999998E0,5.6412E2,1.1645999E2,3.9599998E0,6.12E0,2.682E1,1.6019999E1,5.1839996E1,1.0799999E0,7.2E0,3.06E0,1.9799999E0,1.98E1,4.1219997E1,1.26E0,1.6199999E0,1.0799999E0,5.6268E2,1.4399999E0,2.8619999E1,8.784E1,2.8799999E0,1.0799999E0,5.04E0,1.0799999E0,1.6199999E1,1.062E1,1.4039999E1,1.9799999E0,5.0219997E1,1.6199999E0,1.26E0,5.9399996E0,1.9799999E0,1.0799999E0,1.872E1,1.0799999E0,4.014E1,1.0799999E0,5.6069995E2,1.9799999E0,1.656E1,1.2059999E1,8.2439995E1,5.3999996E0,9.36E0,6.8399997E0,9.54E0,1.0799999E0,1.278E1,1.26E0],"tree_param":{"num_deleted":"0","num_feature":"1280","num_nodes":"65","size_leaf_vector":"1"}},{"base_weights":[1.757955E-2,-3.0765918E-1,3.3589478E0,-4.4190532E-1,1.2338481E0,1.0147601E0,4.546172E0,-4.7883564E-1,1.196319E0,2.2764672E-1,2.5E0,3.2136104E-1,2.982709E0,5.188679E-1,4.8102865E0,-5.165526E-1,3.5851473E-1,-4.9065422E-2,2.7116704E0,2.3913043E0,-8.216679E-2,8.6523736E-1,3.6825597E0,1.2321793E0,-4.294976E-1,4.0272376E-1,-1.330461E-9,1.6346155E-1,-3.7974685E-2,4.8921487E-1,6.7307696E-2,-5.223749E-1,1.6346155E-1,-2.9079163E-1,2.459893E0,7.389161E-2,4.1197187E-1,-2.8846154E-2,3.2954547E-1,1.7391305E0,-3.6568698E-1,2.03125E0,-2.2193214E-1,4.0463214E0,-3.0973453E-2,2.368421E0,-9.090911E-2,-5.062167E-2,1.9230768E-2,-5.281794E-2,9.731544E-2,-4.814109E-2,6.066946E-2,3.3636364E-1,-3.355706E-3,-3.6912754E-2,6.7307696E-2,2.78481E-1,-3.2786887E-2,-5.3359687E-2,5.6451615E-2,3.3490568E-1,-3.7974685E-2,-4.7112465E-2,6.7307696E-2,4.3957707E-1,4.9180325E-2,-3.0973453E-2,3.275862E-1,-4.298643E-2,6.7307696E-2],"categories":[],"categories_nodes":[],"categories_segments":[],"categories_sizes":[],"default_left":[0,0,0,0,0,0,0,0,0,0,0,0,0,0,0,0,0,0,0,0,0,0,0,0,0,0,0,0,0,0,0,0,0,0,0,0,0,0,0,0,0,0,0,0,0,0,0,0,0,0,0,0,0,0,0,0,0,0,0,0,0,0,0,0,0,0,0,0,0,0,0],"id":1,"left_children":[1,3,5,7,9,11,13,15,17,19,21,23,25,27,29,31,33,-1,35,37,39,41,43,45,47,-1,-1,-1,-1,-1,-1,49,-1,51,53,55,-1,-1,-1,57,59,61,63,65,-1,67,69,-1,-1,-1,-1,-1,-1,-1,-1,-1,-1,-1,-1,-1,-1,-1,-1,-1,-1,-1,-1,-1,-1,-1,-1],"loss_changes":[9.4067426E2,1.6379303E2,2.0907129E2,4.452014E1,8.027917E1,3.6021427E1,5.141089E1,2.2643387E1,4.299911E1,2.4636728E1,5.0943405E1,1.500045E1,2.1621738E1,4.8718786E0,1.277417E1,9.381485E0,4.3340366E1,0E0,3.2156998E1,1.2096003E1,1.7604042E1,1.7006353E1,2.4402084E1,1.4978192E1,6.860213E-1,0E0,0E0,0E0,0E0,0E0,0E0,6.415039E0,0E0,4.527964E0,1.6968594E1,1.3261805E0,0E0,0E0,0E0,1.085558E1,4.871352E0,2.1606049E1,2.0255094E0,1.607248E1,0E0,1.3943672E1,1.7135952E0,0E0,0E0,0E0,0E0,0E0,0E0,0E0,0E0,0E0,0E0,0E0,0E0,0E0,0E0,0E0,0E0,0E0,0E0,0E0,0E0,0E0,0E0,0E0,0E0],"parents":[2147483647,0,0,1,1,2,2,3,3,4,4,5,5,6,6,7,7,8,8,9,9,10,10,11,11,12,12,13,13,14,14,15,15,16,16,18,18,19,19,20,20,21,21,22,22,23,23,24,24,31,31,33,33,34,34,35,35,39,39,40,40,41,41,42,42,43,43,45,45,46,46],"right_children":[2,4,6,8,10,12,14,16,18,20,22,24,26,28,30,32,34,-1,36,38,40,42,44,46,48,-1,-1,-1,-1,-1,-1,50,-1,52,54,56,-1,-1,-1,58,60,62,64,66,-1,68,70,-1,-1,-1,-1,-1,-1,-1,-1,-1,-1,-1,-1,-1,-1,-1,-1,-1,-1,-1,-1,-1,-1,-1,-1],"split_conditions":[2.6450229E0,7.171679E-1,1.81424E-1,1.5860795E0,1.9765589E-1,9.5804334E-1,2.7377814E-1,2.1261322E0,3.6334825E-1,1.4754889E-2,3.7266338E-1,8.410765E-3,1.0537535E-1,6.963225E-2,6.6271335E-1,2.9808207E0,1.5307399E0,-4.9065422E-2,8.659432E-1,6.999388E-1,9.576934E-4,6.3368736E-4,9.3946373E-1,8.1108373E-1,1.4657154E0,4.0272376E-1,-1.330461E-9,1.6346155E-1,-3.7974685E-2,4.8921487E-1,6.7307696E-2,2.158391E0,1.6346155E-1,1.0519694E0,9.482663E-1,1.4476997E-1,4.1197187E-1,-2.8846154E-2,3.2954547E-1,9.1734E-2,1.0888124E0,3.6375466E-1,1.88408E0,1.3262614E0,-3.0973453E-2,1.7191235E-2,1.8888623E0,-5.062167E-2,1.9230768E-2,-5.281794E-2,9.731544E-2,-4.814109E-2,6.066946E-2,3.3636364E-1,-3.355706E-3,-3.6912754E-2,6.7307696E-2,2.78481E-1,-3.2786887E-2,-5.3359687E-2,5.6451615E-2,3.3490568E-1,-3.7974685E-2,-4.7112465E-2,6.7307696E-2,4.3957707E-1,4.9180325E-2,-3.0973453E-2,3.275862E-1,-4.298643E-2,6.7307696E-2],"split_indices":[262,196,988,591,1037,195,1000,163,988,953,591,57,342,11,226,777,937,0,1071,527,408,1103,441,20,23,0,0,0,0,0,0,241,0,527,683,2,0,0,0,155,195,559,147,2,0,777,46,0,0,0,0,0,0,0,0,0,0,0,0,0,0,0,0,0,0,0,0,0,0,0,0],"split_type":[0,0,0,0,0,0,0,0,0,0,0,0,0,0,0,0,0,0,0,0,0,0,0,0,0,0,0,0,0,0,0,0,0,0,0,0,0,0,0,0,0,0,0,0,0,0,0,0,0,0,0,0,0,0,0,0,0,0,0,0,0,0,0,0,0,0,0,0,0,0,0],"sum_hessian":[8.6363995E2,7.8786E2,7.578E1,7.2539996E2,6.246E1,2.6099998E1,4.9679996E1,7.101E2,1.5299999E1,3.546E1,2.6999998E1,2.016E1,5.9399996E0,3.2399998E0,4.644E1,6.7986E2,3.0239998E1,7.5599995E0,7.74E0,3.6E0,3.1859999E1,1.2059999E1,1.494E1,8.82E0,1.1339999E1,4.14E0,1.8E0,1.0799999E0,2.1599998E0,4.5359997E1,1.0799999E0,6.7877997E2,1.0799999E0,2.3759998E1,6.4799995E0,3.06E0,4.68E0,1.0799999E0,2.52E0,3.6E0,2.8259998E1,5.3999996E0,6.66E0,1.3679999E1,1.26E0,4.3199997E0,4.5E0,1.0259999E1,1.0799999E0,6.768E2,1.9799999E0,1.998E1,3.7799997E0,4.5E0,1.9799999E0,1.9799999E0,1.0799999E0,2.1599998E0,1.4399999E0,2.43E1,3.9599998E0,3.2399998E0,2.1599998E0,5.58E0,1.0799999E0,1.224E1,1.4399999E0,1.26E0,3.06E0,3.4199998E0,1.0799999E0],"tree_param":{"num_deleted":"0","num_feature":"1280","num_nodes":"71","size_leaf_vector":"1"}},{"base_weights":[7.170594E-3,-3.7105587E-1,3.1501398E0,-4.708126E-1,2.804054E0,4.1084065E0,1.1149226E-1,2.4595575E-1,-5.330244E-1,-2.3364505E-2,4.1315136E0,4.517685E0,9.830867E-1,-4.0697676E-1,1.3483146E0,-3.7428024E-1,1.5326633E0,-5.444936E-1,4.6539378E-1,-4.8128348E-2,1.6346155E-1,4.650838E-1,-1.330461E-9,4.7277985E0,7.013575E-1,-5.6179795E-2,2.904192E-1,-5.2109182E-2,6.7307696E-2,2.5369458E0,-1.7241381E-1,-5.1371706E-1,6.363636E-1,2.8544776E0,-9.823201E-3,-5.4887E-1,8.0152676E-2,-4.7112465E-2,2.5E-1,4.8245E0,1.0714286E-1,2.1153846E-1,-3.8922157E-2,-4.6357617E-2,1.15384616E-1,1.9230768E-2,3.3221477E-1,1.9230768E-2,-3.6912754E-2,-5.4016627E-2,1.9230768E-2,-4.1237116E-2,1.9465649E-1,3.542601E-1,-3.5714287E-2,1.3087249E-1,-4.878049E-2,-5.5032928E-2,1.9230768E-2,4.8747763E-1,1.15384616E-1],"categories":[],"categories_nodes":[],"categories_segments":[],"categories_sizes":[],"default_left":[0,0,0,0,0,0,0,0,0,0,0,0,0,0,0,0,0,0,0,0,0,0,0,0,0,0,0,0,0,0,0,0,0,0,0,0,0,0,0,0,0,0,0,0,0,0,0,0,0,0,0,0,0,0,0,0,0,0,0,0,0],"id":2,"left_children":[1,3,5,7,9,11,13,15,17,19,21,23,25,27,29,31,33,35,37,-1,-1,-1,-1,39,41,43,-1,-1,-1,45,47,49,51,53,55,57,-1,-1,-1,59,-1,-1,-1,-1,-1,-1,-1,-1,-1,-1,-1,-1,-1,-1,-1,-1,-1,-1,-1,-1,-1],"loss_changes":[1.0290133E3,2.4605139E2,2.7028436E2,3.3573776E1,8.897429E1,8.594165E1,1.5502778E1,4.8920258E1,8.159241E0,7.28564E0,3.4586975E1,4.656006E1,1.9050426E1,2.4706419E0,1.330741E1,6.200496E0,4.0601772E1,4.4634094E0,1.7145449E1,0E0,0E0,0E0,0E0,1.5614014E1,7.639472E0,4.044772E0,0E0,0E0,0E0,6.835642E0,3.622737E-1,7.9816914E-1,8.3600025E0,2.4956306E1,7.0542636E0,8.428345E-1,0E0,0E0,0E0,4.890747E0,0E0,0E0,0E0,0E0,0E0,0E0,0E0,0E0,0E0,0E0,0E0,0E0,0E0,0E0,0E0,0E0,0E0,0E0,0E0,0E0,0E0],"parents":[2147483647,0,0,1,1,2,2,3,3,4,4,5,5,6,6,7,7,8,8,9,9,10,10,11,11,12,12,13,13,14,14,15,15,16,16,17,17,18,18,23,23,24,24,25,25,29,29,30,30,31,31,32,32,33,33,34,34,35,35,39,39],"right_children":[2,4,6,8,10,12,14,16,18,20,22,24,26,28,30,32,34,36,38,-1,-1,-1,-1,40,42,44,-1,-1,-1,46,48,50,52,54,56,58,-1,-1,-1,60,-1,-1,-1,-1,-1,-1,-1,-1,-1,-1,-1,-1,-1,-1,-1,-1,-1,-1,-1,-1,-1],"split_conditions":[1.0103387E0,3.1626024E0,1.7850429E-2,3.0543044E-2,4.3344256E-1,1.2252534E-1,2.2598872E0,8.6940485E-1,1.7237564E0,1.2798606E0,2.7918482E-1,2.4624164E-1,4.01142E-1,2.530587E0,8.181206E-2,6.976097E-1,2.6203918E-1,2.3911176E0,1.3089684E0,-4.8128348E-2,1.6346155E-1,4.650838E-1,-1.330461E-9,5.9718084E-1,1.4327827E-1,2.6725182E-1,2.904192E-1,-5.2109182E-2,6.7307696E-2,1.2866522E-1,2.8260094E-3,1.6490321E0,4.5088553E-1,1.5641779E-1,4.915413E-4,3.7219331E0,8.0152676E-2,-4.7112465E-2,2.5E-1,3.1684241E0,1.0714286E-1,2.1153846E-1,-3.8922157E-2,-4.6357617E-2,1.15384616E-1,1.9230768E-2,3.3221477E-1,1.9230768E-2,-3.6912754E-2,-5.4016627E-2,1.9230768E-2,-4.1237116E-2,1.9465649E-1,3.542601E-1,-3.5714287E-2,1.3087249E-1,-4.878049E-2,-5.5032928E-2,1.9230768E-2,4.8747763E-1,1.15384616E-1],"split_indices":[25,653,1199,127,862,619,653,1255,177,315,851,439,503,11,776,1219,973,21,29,0,0,0,0,353,31,274,0,0,0,250,0,16,732,105,1101,764,0,0,0,13,0,0,0,0,0,0,0,0,0,0,0,0,0,0,0,0,0,0,0,0,0],"split_type":[0,0,0,0,0,0,0,0,0,0,0,0,0,0,0,0,0,0,0,0,0,0,0,0,0,0,0,0,0,0,0,0,0,0,0,0,0,0,0,0,0,0,0,0,0,0,0,0,0,0,0,0,0,0,0,0,0,0,0,0,0],"sum_hessian":[8.6363995E2,7.7166E2,9.1979996E1,7.4898E2,2.2679998E1,6.9659996E1,2.232E1,5.9579998E1,6.8939996E2,7.5599995E0,1.5119999E1,6.1199997E1,8.46E0,1.6199999E1,6.12E0,4.0679996E1,1.89E1,6.8201996E2,7.3799996E0,6.4799995E0,1.0799999E0,1.332E1,1.8E0,5.778E1,3.4199998E0,6.12E0,2.34E0,1.5119999E1,1.0799999E0,3.06E0,3.06E0,3.618E1,4.5E0,9.719999E0,9.179999E0,6.8039996E2,1.6199999E0,5.58E0,1.8E0,5.5979996E1,1.8E0,1.0799999E0,2.34E0,5.04E0,1.0799999E0,1.0799999E0,1.9799999E0,1.0799999E0,1.9799999E0,3.51E1,1.0799999E0,2.8799999E0,1.6199999E0,7.9199996E0,1.8E0,1.9799999E0,7.2E0,6.7931995E2,1.0799999E0,5.4899998E1,1.0799999E0],"tree_param":{"num_deleted":"0","num_feature":"1280","num_nodes":"61","size_leaf_vector":"1"}},{"base_weights":[1.29533475E-2,-2.9563457E-1,2.2343247E0,-4.3978116E-1,1.0487145E0,3.8341107E0,1.22475274E-1,-4.6796873E-1,1.9512196E0,2.2299168E0,-7.731961E-2,4.381762E0,3.663793E-1,-1.3229929E-1,3.108108E-1,-4.8537531E-1,3.203593E-1,3.74477E-1,-4.298643E-2,3.77907E0,7.788945E-1,-2.587177E-1,1.4622642E0,4.5735173E0,4.5454544E-1,-2.4390246E-1,2.596154E-1,-4.0166208E-1,9.954233E-1,-5.108584E-1,5.120828E-1,4.1217065E0,-3.0973453E-2,2.4276528E0,2.7247937E-2,-5.0335574E-1,8.579882E-1,2.9508197E-1,-3.5714287E-2,6.3758396E-2,4.724926E0,-3.2786887E-2,1.15384616E-1,6.7307696E-2,-4.7752813E-2,-4.825814E-1,1.15384616E-1,-2.631579E-1,2.2850678E0,-5.2521337E-2,3.945883E-3,-3.6764707E-2,2.90795E-1,4.441341E-1,8.0152676E-2,3.4162897E-1,-1.330461E-9,1.9465649E-1,-3.5987753E-2,-5.3621173E-2,1.9230768E-2,2.1518986E-1,-2.1739133E-2,1.8354431E-1,4.8226166E-1,-5.3918686E-2,6.7307696E-2,1.9230768E-2,-4.2452835E-2,3.203593E-1,-2.8846154E-2],"categories":[],"categories_nodes":[],"categories_segments":[],"categories_sizes":[],"default_left":[0,0,0,0,0,0,0,0,0,0,0,0,0,0,0,0,0,0,0,0,0,0,0,0,0,0,0,0,0,0,0,0,0,0,0,0,0,0,0,0,0,0,0,0,0,0,0,0,0,0,0,0,0,0,0,0,0,0,0,0,0,0,0,0,0,0,0,0,0,0,0],"id":3,"left_children":[1,3,5,7,9,11,13,15,17,19,21,23,25,27,-1,29,-1,-1,-1,31,33,35,37,39,41,43,-1,45,47,49,51,53,-1,55,57,59,61,-1,-1,-1,63,-1,-1,-1,-1,65,-1,67,69,-1,-1,-1,-1,-1,-1,-1,-1,-1,-1,-1,-1,-1,-1,-1,-1,-1,-1,-1,-1,-1,-1],"loss_changes":[5.9336115E2,1.4774815E2,3.5623322E2,4.7225296E1,9.846489E1,1.1241705E2,3.5812473E1,4.5010727E1,3.662861E1,7.820413E1,1.1214282E1,3.689984E1,1.3261346E1,1.3716948E1,0E0,1.748558E1,0E0,0E0,0E0,2.5373383E1,2.4595589E1,1.0146463E1,1.2537004E1,2.6331177E1,2.304253E0,2.0780983E0,0E0,5.1007566E0,1.4787422E1,5.2443542E0,3.77012E1,1.3356354E1,0E0,1.4928417E1,1.1608006E1,7.842479E-1,9.873972E0,0E0,0E0,0E0,4.4887695E0,0E0,0E0,0E0,0E0,2.6538E0,0E0,4.7265294E-1,1.1372335E1,0E0,0E0,0E0,0E0,0E0,0E0,0E0,0E0,0E0,0E0,0E0,0E0,0E0,0E0,0E0,0E0,0E0,0E0,0E0,0E0,0E0,0E0],"parents":[2147483647,0,0,1,1,2,2,3,3,4,4,5,5,6,6,7,7,8,8,9,9,10,10,11,11,12,12,13,13,15,15,19,19,20,20,21,21,22,22,23,23,24,24,25,25,27,27,28,28,29,29,30,30,31,31,33,33,34,34,35,35,36,36,40,40,45,45,47,47,48,48],"right_children":[2,4,6,8,10,12,14,16,18,20,22,24,26,28,-1,30,-1,-1,-1,32,34,36,38,40,42,44,-1,46,48,50,52,54,-1,56,58,60,62,-1,-1,-1,64,-1,-1,-1,-1,66,-1,68,70,-1,-1,-1,-1,-1,-1,-1,-1,-1,-1,-1,-1,-1,-1,-1,-1,-1,-1,-1,-1,-1,-1],"split_conditions":[1.1541123E0,1.1164585E0,1.3536571E-1,2.6581316E0,2.4947876E-2,2.7308387E-1,1.5579398E0,4.0786414E0,4.790851E-4,3.0515797E-2,2.4124165E0,3.2613418E-1,9.692964E-2,3.7078425E-1,3.108108E-1,2.0139718E0,3.203593E-1,3.74477E-1,-4.298643E-2,1.031626E0,1.1275233E-2,1.4550278E0,6.312591E-2,1.9961668E-2,1.6869338E0,8.105102E-2,2.596154E-1,2.7862132E0,2.2966804E-1,1.7810367E0,1.3925135E0,1.3532887E0,-3.0973453E-2,6.902601E-1,6.532423E-2,5.356335E-1,7.1127173E-3,2.9508197E-1,-3.5714287E-2,6.3758396E-2,1.2927355E-1,-3.2786887E-2,1.15384616E-1,6.7307696E-2,-4.7752813E-2,2.008212E0,1.15384616E-1,4.840705E-3,6.446539E-1,-5.2521337E-2,3.945883E-3,-3.6764707E-2,2.90795E-1,4.441341E-1,8.0152676E-2,3.4162897E-1,-1.330461E-9,1.9465649E-1,-3.5987753E-2,-5.3621173E-2,1.9230768E-2,2.1518986E-1,-2.1739133E-2,1.8354431E-1,4.8226166E-1,-5.3918686E-2,6.7307696E-2,1.9230768E-2,-4.2452835E-2,3.203593E-1,-2.8846154E-2],"split_indices":[808,882,1266,351,429,781,8,892,705,566,1172,380,1025,1116,0,126,0,0,0,1002,325,904,1192,1091,0,185,0,827,237,1273,893,494,0,231,991,9,325,0,0,0,1028,0,0,0,0,1132,0,0,159,0,0,0,0,0,0,0,0,0,0,0,0,0,0,0,0,0,0,0,0,0,0],"split_type":[0,0,0,0,0,0,0,0,0,0,0,0,0,0,0,0,0,0,0,0,0,0,0,0,0,0,0,0,0,0,0,0,0,0,0,0,0,0,0,0,0,0,0,0,0,0,0,0,0,0,0,0,0,0,0,0,0,0,0,0,0,0,0,0,0,0,0,0,0,0,0],"sum_hessian":[8.6363995E2,7.5906E2,1.04579994E2,6.8616E2,7.2899994E1,5.9039997E1,4.5539997E1,6.7895996E2,7.2E0,3.51E1,3.78E1,5.076E1,8.28E0,4.2839996E1,2.6999998E0,6.7662E2,2.34E0,3.7799997E0,3.4199998E0,1.6199999E1,1.89E1,3.4559998E1,3.2399998E0,4.8239998E1,2.52E0,7.2E0,1.0799999E0,3.51E1,7.74E0,6.6024E2,1.638E1,1.494E1,1.26E0,5.22E0,1.3679999E1,2.88E1,5.7599998E0,1.4399999E0,1.8E0,1.9799999E0,4.626E1,1.4399999E0,1.0799999E0,1.0799999E0,6.12E0,3.4019997E1,1.0799999E0,4.3199997E0,3.4199998E0,6.435E2,1.674E1,1.2599999E1,3.7799997E0,1.332E1,1.6199999E0,3.4199998E0,1.8E0,1.6199999E0,1.2059999E1,2.772E1,1.0799999E0,2.1599998E0,3.6E0,2.1599998E0,4.41E1,3.294E1,1.0799999E0,1.0799999E0,3.2399998E0,2.34E0,1.0799999E0],"tree_param":{"num_deleted":"0","num_feature":"1280","num_nodes":"71","size_leaf_vector":"1"}},{"base_weights":[3.7009416E-3,-2.912989E-1,3.224119E0,-3.6266136E-1,2.0243084E0,1.1520736E-1,4.4609165E0,-4.0497914E-1,2.7799227E0,-4.1516247E-1,3.838897E0,-3.224156E-1,2.78481E-1,4.793132E0,-1.6196914E-8,-4.379019E-1,2.3626373E0,4.297753E-1,-4.2452835E-2,-5E-2,1.9230768E-2,4.2125983E0,-2.8846154E-2,-5.254605E-2,1.6346155E-1,4.8730427E-1,6.7307696E-2,-3.977273E-2,6.7307696E-2,-4.533316E-1,2.0711298E0,3.7676057E-1,2.2624418E-2,6.7307696E-2,4.4836488E-1,3.9628292E-3,-5.0597E-2,-3.4351148E-2,3.4177217E-1,6.7307696E-2,-3.8922157E-2],"categories":[],"categories_nodes":[],"categories_segments":[],"categories_sizes":[],"default_left":[0,0,0,0,0,0,0,0,0,0,0,0,0,0,0,0,0,0,0,0,0,0,0,0,0,0,0,0,0,0,0,0,0,0,0,0,0,0,0,0,0],"id":4,"left_children":[1,3,5,7,9,11,13,15,17,19,21,23,-1,25,27,29,31,-1,-1,-1,-1,33,-1,-1,-1,-1,-1,-1,-1,35,37,-1,39,-1,-1,-1,-1,-1,-1,-1,-1],"loss_changes":[8.223668E2,1.3177539E2,2.787937E2,1.03544525E2,1.07213295E2,2.6249527E1,7.6974365E1,7.03551E1,5.22136E1,6.6717565E-1,2.2469421E1,8.623441E0,0E0,1.2635254E1,1.4991258E0,3.007779E1,2.9832317E1,0E0,0E0,0E0,0E0,9.166412E0,0E0,0E0,0E0,0E0,0E0,0E0,0E0,1.9452988E1,1.671637E1,0E0,1.4460332E0,0E0,0E0,0E0,0E0,0E0,0E0,0E0,0E0],"parents":[2147483647,0,0,1,1,2,2,3,3,4,4,5,5,6,6,7,7,8,8,9,9,10,10,11,11,13,13,14,14,15,15,16,16,21,21,29,29,30,30,32,32],"right_children":[2,4,6,8,10,12,14,16,18,20,22,24,-1,26,28,30,32,-1,-1,-1,-1,34,-1,-1,-1,-1,-1,-1,-1,36,38,-1,40,-1,-1,-1,-1,-1,-1,-1,-1],"split_conditions":[8.9186335E-1,2.9578226E0,2.517133E-1,1.630927E0,1.0318767E0,1.284046E0,9.040866E-1,1.4177418E0,1.2726569E-1,1.8936749E-1,5.5191034E-1,8.945728E-1,2.78481E-1,7.544793E-1,6.5159464E-1,2.9858608E0,2.0951508E-1,4.297753E-1,-4.2452835E-2,-5E-2,1.9230768E-2,7.3650223E-3,-2.8846154E-2,-5.254605E-2,1.6346155E-1,4.8730427E-1,6.7307696E-2,-3.977273E-2,6.7307696E-2,7.123655E-4,5.1192332E-2,3.7676057E-1,2.0029888E-1,6.7307696E-2,4.4836488E-1,3.9628292E-3,-5.0597E-2,-3.4351148E-2,3.4177217E-1,6.7307696E-2,-3.8922157E-2],"split_indices":[317,350,458,1246,1223,1114,1088,1141,342,3,375,754,0,323,0,69,335,0,0,0,0,100,0,0,0,0,0,0,0,341,237,0,5,0,0,0,0,0,0,0,0],"split_type":[0,0,0,0,0,0,0,0,0,0,0,0,0,0,0,0,0,0,0,0,0,0,0,0,0,0,0,0,0,0,0,0,0,0,0,0,0,0,0,0,0],"sum_hessian":[8.6363995E2,7.9199994E2,7.164E1,7.6913995E2,2.2859999E1,2.0699999E1,5.094E1,7.5977997E2,9.36E0,1.008E1,1.278E1,1.8539999E1,2.1599998E0,4.7339996E1,3.6E0,7.5168E2,8.099999E0,6.12E0,3.2399998E0,9E0,1.0799999E0,1.17E1,1.0799999E0,1.746E1,1.0799999E0,4.626E1,1.0799999E0,2.52E0,1.0799999E0,7.4789996E2,3.7799997E0,4.68E0,3.4199998E0,1.0799999E0,1.062E1,7.218E1,6.7572E2,1.6199999E0,2.1599998E0,1.0799999E0,2.34E0],"tree_param":{"num_deleted":"0","num_feature":"1280","num_nodes":"41","size_leaf_vector":"1"}},{"base_weights":[-7.864566E-3,-2.933969E-1,1.591429E0,-3.7985003E-1,6.714944E-1,5.8524543E-1,2.6611884E0,-4.3114507E-1,5.347299E-1,-2.1834081E-2,1.6560509E0,-7.075474E-2,1.5768391E0,1.1314476E0,3.5089464E0,-4.6444505E-1,2.4429967E-1,-9.227616E-2,2.755611E0,-2.3952098E-1,1.6981132E0,4.6827793E-1,2.7484472E0,-2.6046988E-1,1.6981132E0,3.9106146E-1,2.6661952E0,-1.916933E-1,2.3642173E0,-1.3513516E-1,3.7746403E0,-4.753568E-1,8.6466163E-1,-3.2868528E-1,1.2134252E0,-3.4351146E-1,1.5517242E0,-3.355706E-3,3.6754968E0,-3.527228E-1,1.6346155E-1,-3.2786887E-2,2.857143E-1,2.2972972E0,-2.1821634E-1,3.387097E0,-8.982038E-2,-4.7904193E-1,8.579882E-1,-3.2786887E-2,2.857143E-1,-1.7529218E-1,2.3053892E0,3.6270022E0,9.375E-1,-5.0458718E-2,1.1832061E-1,3.4486873E0,1.3618675E-1,-3.4351148E-2,1.9230768E-2,4.4814177E0,2.4675324E0,-4.863632E-2,7.337884E-2,-3.977273E-2,2.1428572E-1,-5.2391805E-2,7.386364E-2,2.6987448E-1,1.5306122E-2,-5.3116776E-2,7.013575E-2,2.9508197E-1,-3.4351148E-2,1.15384616E-1,3.9919356E-1,-5.039788E-2,1.2025317E-1,1.9230768E-2,3.0916032E-1,-4.9682878E-2,1.15384616E-1,-2.8846154E-2,3.8372096E-1,1.9230768E-2,-3.0973453E-2,-5.3827014E-2,5.7522126E-2,-4.298643E-2,2.3053892E-1,8.8607594E-2,-4.989817E-2,2.7876106E-1,6.7307696E-2,4.0861621E-1,1.9230768E-2,-5.8365776E-3,2.7876106E-1,1.3274336E-2,4.016854E-1,-4.1871924E-2,1.15384616E-1,4.6313366E-1,1.3114755E-1,3.2922202E-1,5.631399E-2],"categories":[],"categories_nodes":[],"categories_segments":[],"categories_sizes":[],"default_left":[0,0,0,0,0,0,0,0,0,0,0,0,0,0,0,0,0,0,0,0,0,0,0,0,0,0,0,0,0,0,0,0,0,0,0,0,0,0,0,0,0,0,0,0,0,0,0,0,0,0,0,0,0,0,0,0,0,0,0,0,0,0,0,0,0,0,0,0,0,0,0,0,0,0,0,0,0,0,0,0,0,0,0,0,0,0,0,0,0,0,0,0,0,0,0,0,0,0,0,0,0,0,0,0,0,0,0],"id":5,"left_children":[1,3,5,7,9,11,13,15,17,19,21,23,25,27,29,31,33,35,37,39,41,43,45,47,49,51,53,55,57,59,61,63,65,67,69,71,73,-1,75,77,-1,-1,-1,79,81,83,85,87,89,-1,-1,91,93,95,97,-1,-1,99,101,-1,-1,103,105,-1,-1,-1,-1,-1,-1,-1,-1,-1,-1,-1,-1,-1,-1,-1,-1,-1,-1,-1,-1,-1,-1,-1,-1,-1,-1,-1,-1,-1,-1,-1,-1,-1,-1,-1,-1,-1,-1,-1,-1,-1,-1,-1,-1],"loss_changes":[3.953048E2,6.1525497E1,1.3959827E2,3.188488E1,4.151222E1,4.4904007E1,7.809448E1,1.4496407E1,5.077439E1,1.4125115E1,3.1306625E1,1.4670943E1,3.4428368E1,3.9665527E1,3.9470917E1,9.254272E0,1.744637E1,1.26183195E1,2.0700378E1,7.6625633E0,1.0893022E1,1.71256E1,2.365126E1,9.98421E0,1.0893022E1,1.5929668E1,2.0085411E1,5.9831047E0,2.9781555E1,3.185158E-1,2.362262E1,8.414307E0,9.436516E0,4.5711775E0,1.788819E1,5.509734E0,1.1779198E1,0E0,2.135315E-1,8.209059E0,0E0,0E0,0E0,5.591881E0,4.6024284E0,1.8544434E1,2.667911E-1,2.3951888E0,1.3591908E1,0E0,0E0,4.557909E0,7.52758E-1,1.299781E1,1.1954456E1,0E0,0E0,1.5254784E1,3.3857229E0,0E0,0E0,4.923004E0,2.2332169E1,0E0,0E0,0E0,0E0,0E0,0E0,0E0,0E0,0E0,0E0,0E0,0E0,0E0,0E0,0E0,0E0,0E0,0E0,0E0,0E0,0E0,0E0,0E0,0E0,0E0,0E0,0E0,0E0,0E0,0E0,0E0,0E0,0E0,0E0,0E0,0E0,0E0,0E0,0E0,0E0,0E0,0E0,0E0,0E0],"parents":[2147483647,0,0,1,1,2,2,3,3,4,4,5,5,6,6,7,7,8,8,9,9,10,10,11,11,12,12,13,13,14,14,15,15,16,16,17,17,18,18,19,19,20,20,21,21,22,22,23,23,24,24,25,25,26,26,27,27,28,28,29,29,30,30,31,31,32,32,33,33,34,34,35,35,36,36,38,38,39,39,43,43,44,44,45,45,46,46,47,47,48,48,51,51,52,52,53,53,54,54,57,57,58,58,61,61,62,62],"right_children":[2,4,6,8,10,12,14,16,18,20,22,24,26,28,30,32,34,36,38,40,42,44,46,48,50,52,54,56,58,60,62,64,66,68,70,72,74,-1,76,78,-1,-1,-1,80,82,84,86,88,90,-1,-1,92,94,96,98,-1,-1,100,102,-1,-1,104,106,-1,-1,-1,-1,-1,-1,-1,-1,-1,-1,-1,-1,-1,-1,-1,-1,-1,-1,-1,-1,-1,-1,-1,-1,-1,-1,-1,-1,-1,-1,-1,-1,-1,-1,-1,-1,-1,-1,-1,-1,-1,-1,-1,-1],"split_conditions":[1.2552773E0,5.669832E-1,1.0797794E0,1.6143587E0,1.0597793E0,3.5207954E-1,6.8323696E-1,1.086237E0,1.4199477E0,1.5182945E0,3.344161E-1,1.04318626E-1,5.581447E-1,3.5709956E-1,9.902546E-4,1.7110337E0,3.766387E-2,1.894478E0,5.909516E-1,1.5704274E0,2.2155216E-1,2.147412E-3,6.6026026E-1,7.804889E-1,2.1511474E-1,3.4887835E-1,4.814547E-1,7.341202E-1,5.4126788E-2,1.4510483E0,5.8423877E-1,1.5913982E0,5.9374636E-1,4.0052092E-1,1.2069185E-1,1.3142468E0,6.1944164E-3,-3.355706E-3,5.075688E-4,1.0600706E0,1.6346155E-1,-3.2786887E-2,2.857143E-1,9.658661E-2,1.2544093E0,1.19363535E-2,1.9538856E-1,2.6025534E0,9.512013E-2,-3.2786887E-2,2.857143E-1,3.142357E-4,6.529674E-1,6.627518E-1,1.3886133E0,-5.0458718E-2,1.1832061E-1,2.6175927E-3,3.2893464E-1,-3.4351148E-2,1.9230768E-2,1.3738106E0,5.802036E-1,-4.863632E-2,7.337884E-2,-3.977273E-2,2.1428572E-1,-5.2391805E-2,7.386364E-2,2.6987448E-1,1.5306122E-2,-5.3116776E-2,7.013575E-2,2.9508197E-1,-3.4351148E-2,1.15384616E-1,3.9919356E-1,-5.039788E-2,1.2025317E-1,1.9230768E-2,3.0916032E-1,-4.9682878E-2,1.15384616E-1,-2.8846154E-2,3.8372096E-1,1.9230768E-2,-3.0973453E-2,-5.3827014E-2,5.7522126E-2,-4.298643E-2,2.3053892E-1,8.8607594E-2,-4.989817E-2,2.7876106E-1,6.7307696E-2,4.0861621E-1,1.9230768E-2,-5.8365776E-3,2.7876106E-1,1.3274336E-2,4.016854E-1,-4.1871924E-2,1.15384616E-1,4.6313366E-1,1.3114755E-1,3.2922202E-1,5.631399E-2],"split_indices":[298,137,1266,375,1266,953,375,603,1266,805,564,105,1010,740,418,805,760,1033,918,88,461,343,614,783,1136,605,827,192,277,0,932,632,73,1007,1147,269,885,0,74,298,0,0,0,394,570,51,0,896,1090,0,0,633,11,367,529,0,0,756,76,0,0,493,503,0,0,0,0,0,0,0,0,0,0,0,0,0,0,0,0,0,0,0,0,0,0,0,0,0,0,0,0,0,0,0,0,0,0,0,0,0,0,0,0,0,0,0,0],"split_type":[0,0,0,0,0,0,0,0,0,0,0,0,0,0,0,0,0,0,0,0,0,0,0,0,0,0,0,0,0,0,0,0,0,0,0,0,0,0,0,0,0,0,0,0,0,0,0,0,0,0,0,0,0,0,0,0,0,0,0,0,0,0,0,0,0,0,0,0,0,0,0,0,0,0,0,0,0,0,0,0,0,0,0,0,0,0,0,0,0,0,0,0,0,0,0,0,0,0,0,0,0,0,0,0,0,0,0],"sum_hessian":[8.6363995E2,7.3349994E2,1.3014E2,6.7374E2,5.976E1,6.786E1,6.228E1,6.3845996E2,3.528E1,3.564E1,2.4119999E1,4.1399998E1,2.646E1,2.3039999E1,3.9239998E1,6.0875995E2,2.9699999E1,2.8259998E1,7.0199995E0,3.2399998E1,3.2399998E0,1.224E1,1.1879999E1,3.816E1,3.2399998E0,1.332E1,1.3139999E1,1.15199995E1,1.15199995E1,2.6999998E0,3.6539997E1,6.0444E2,4.3199997E0,1.908E1,1.062E1,2.5199999E1,3.06E0,1.9799999E0,5.04E0,3.1319998E1,1.0799999E0,1.4399999E0,1.8E0,2.6999998E0,9.54E0,9.54E0,2.34E0,3.2399998E1,5.7599998E0,1.4399999E0,1.8E0,1.098E1,2.34E0,7.74E0,5.3999996E0,9.9E0,1.6199999E0,7.3799996E0,4.14E0,1.6199999E0,1.0799999E0,2.214E1,1.44E1,5.9957996E2,4.8599997E0,2.52E0,1.8E0,1.656E1,2.52E0,3.7799997E0,6.8399997E0,2.1779999E1,3.4199998E0,1.4399999E0,1.6199999E0,1.0799999E0,3.9599998E0,2.9159998E1,2.1599998E0,1.0799999E0,1.6199999E0,8.46E0,1.0799999E0,1.0799999E0,8.46E0,1.0799999E0,1.26E0,3.114E1,1.26E0,3.4199998E0,2.34E0,2.1599998E0,8.82E0,1.26E0,1.0799999E0,6.66E0,1.0799999E0,4.14E0,1.26E0,1.26E0,6.12E0,3.06E0,1.0799999E0,2.0699999E1,1.4399999E0,9.54E0,4.8599997E0],"tree_param":{"num_deleted":"0","num_feature":"1280","num_nodes":"107","size_leaf_vector":"1"}},{"base_weights":[-1.9430073E-2,-2.6975667E-1,1.7383246E0,-3.714762E-1,1.6338685E0,5.7877815E-1,3.244863E0,-4.286124E-1,1.3404255E0,3.076121E-1,2.7984345E0,7.379336E-2,2.4732006E0,9.5524955E-1,3.8919668E0,-4.773961E-1,4.0790147E-1,7.227331E-2,3.2758622E0,1.5417868E0,-3.625378E-1,-3.977273E-2,3.2700894E0,-1.7540063E-1,2.3790324E0,3.694517E0,6.25E-1,-3.1914896E-1,2.1854305E0,-4.0540542E-2,4.2514973E0,-4.9496004E-1,1.0459183E0,-2.9733428E-1,2.2947762E0,2.1518986E0,-4.364472E-1,3.9556136E0,3.8167927E-3,2.9381445E-1,-1.7241381E-1,-5.0986845E-2,6.7307696E-2,1.192053E0,3.9906833E0,-4.4080606E-1,1.2566845E0,3.3783785E-1,-3.0973453E-2,4.2401218E-1,1.9230768E-2,2.596154E-1,-2.631579E-1,-4.5454547E-2,1.9230768E-2,-3.355706E-3,3.275862E-1,4.4650726E0,3.8167927E-3,-5.1648427E-2,5.928852E-3,-4.435484E-2,2.6804122E-1,8.646616E-2,-5.332799E-2,5.631399E-2,3.6348125E-1,6.7307696E-2,2.596154E-1,-5.09182E-2,1.9230768E-2,1.15384616E-1,4.2401218E-1,-3.6912754E-2,1.9230768E-2,2.2972973E-1,-3.8922157E-2,4.311532E-1,5.7522126E-2,-5.152771E-2,1.15384616E-1,2.7272728E-1,-4.03226E-3,-4.2452835E-2,1.9230768E-2,4.6374425E-1,4.9180325E-2],"categories":[],"categories_nodes":[],"categories_segments":[],"categories_sizes":[],"default_left":[0,0,0,0,0,0,0,0,0,0,0,0,0,0,0,0,0,0,0,0,0,0,0,0,0,0,0,0,0,0,0,0,0,0,0,0,0,0,0,0,0,0,0,0,0,0,0,0,0,0,0,0,0,0,0,0,0,0,0,0,0,0,0,0,0,0,0,0,0,0,0,0,0,0,0,0,0,0,0,0,0,0,0,0,0,0,0],"id":6,"left_children":[1,3,5,7,9,11,13,15,17,19,21,23,25,27,29,31,33,35,37,39,41,-1,43,45,47,49,51,53,55,-1,57,59,61,63,65,67,69,71,-1,-1,73,-1,-1,75,77,79,81,-1,-1,-1,-1,-1,83,-1,-1,-1,-1,85,-1,-1,-1,-1,-1,-1,-1,-1,-1,-1,-1,-1,-1,-1,-1,-1,-1,-1,-1,-1,-1,-1,-1,-1,-1,-1,-1,-1,-1],"loss_changes":[3.8092157E2,1.4732872E2,1.8664755E2,7.100863E1,5.878827E1,5.9321396E1,6.550333E1,2.8662537E1,5.74423E1,1.6422388E1,3.2113586E1,2.922029E1,2.7170448E1,1.8914625E1,5.749939E1,1.8166107E1,5.2552666E1,1.704116E1,2.0272697E1,1.7118414E1,2.3633108E0,0E0,2.207669E1,1.8106194E1,1.4373966E1,1.3821487E1,1.1887651E1,5.4307383E-1,1.4724638E1,0E0,2.988501E1,7.818115E0,2.0275566E1,8.483258E0,2.282837E1,3.2862568E-1,6.9518447E-1,1.2135391E0,0E0,0E0,3.622737E-1,0E0,0E0,1.1450232E1,1.1634384E1,5.3091383E0,1.43770485E1,0E0,0E0,0E0,0E0,0E0,4.7265294E-1,0E0,0E0,0E0,0E0,1.9484497E1,0E0,0E0,0E0,0E0,0E0,0E0,0E0,0E0,0E0,0E0,0E0,0E0,0E0,0E0,0E0,0E0,0E0,0E0,0E0,0E0,0E0,0E0,0E0,0E0,0E0,0E0,0E0,0E0,0E0],"parents":[2147483647,0,0,1,1,2,2,3,3,4,4,5,5,6,6,7,7,8,8,9,9,10,10,11,11,12,12,13,13,14,14,15,15,16,16,17,17,18,18,19,19,20,20,22,22,23,23,24,24,25,25,26,26,27,27,28,28,30,30,31,31,32,32,33,33,34,34,35,35,36,36,37,37,40,40,43,43,44,44,45,45,46,46,52,52,57,57],"right_children":[2,4,6,8,10,12,14,16,18,20,22,24,26,28,30,32,34,36,38,40,42,-1,44,46,48,50,52,54,56,-1,58,60,62,64,66,68,70,72,-1,-1,74,-1,-1,76,78,80,82,-1,-1,-1,-1,-1,84,-1,-1,-1,-1,86,-1,-1,-1,-1,-1,-1,-1,-1,-1,-1,-1,-1,-1,-1,-1,-1,-1,-1,-1,-1,-1,-1,-1,-1,-1,-1,-1,-1,-1],"split_conditions":[3.0143857E-1,1.6219504E0,9.21E-1,1.7091151E0,1.3745041E-1,1.9360778E0,2.562591E-2,1.5624272E0,1.1130571E0,5.1005033E-4,1.1930242E-2,1.390438E0,2.0937142E-1,6.0371224E-2,8.448387E-3,1.1420509E0,4.8480686E-2,4.665256E-2,7.631894E-1,1.7815496E-1,1.4415615E0,-3.977273E-2,9.4164014E-2,1.1721478E0,1.343762E-1,1.0236492E0,4.862474E-4,3.6173138E-1,1.6049282E-1,-4.0540542E-2,8.67094E-1,1.5061512E0,2.2583425E-1,2.2521565E-2,1.14629105E-1,6.365259E-2,5.38663E-1,8.6287695E-1,3.8167927E-3,2.9381445E-1,2.8561437E-1,-5.0986845E-2,6.7307696E-2,8.76769E-2,8.7309206E-1,1.7823973E0,7.2657233E-3,3.3783785E-1,-3.0973453E-2,4.2401218E-1,1.9230768E-2,2.596154E-1,7.466981E-1,-4.5454547E-2,1.9230768E-2,-3.355706E-3,3.275862E-1,1.7624524E0,3.8167927E-3,-5.1648427E-2,5.928852E-3,-4.435484E-2,2.6804122E-1,8.646616E-2,-5.332799E-2,5.631399E-2,3.6348125E-1,6.7307696E-2,2.596154E-1,-5.09182E-2,1.9230768E-2,1.15384616E-1,4.2401218E-1,-3.6912754E-2,1.9230768E-2,2.2972973E-1,-3.8922157E-2,4.311532E-1,5.7522126E-2,-5.152771E-2,1.15384616E-1,2.7272728E-1,-4.03226E-3,-4.2452835E-2,1.9230768E-2,4.6374425E-1,4.9180325E-2],"split_indices":[578,356,470,983,526,362,1241,470,675,367,46,1056,364,404,46,1244,578,377,215,325,74,0,1094,46,1005,1010,726,8,900,0,828,1188,699,1010,714,16,1,421,0,0,0,0,0,818,1110,720,204,0,0,0,0,0,0,0,0,0,0,869,0,0,0,0,0,0,0,0,0,0,0,0,0,0,0,0,0,0,0,0,0,0,0,0,0,0,0,0,0],"split_type":[0,0,0,0,0,0,0,0,0,0,0,0,0,0,0,0,0,0,0,0,0,0,0,0,0,0,0,0,0,0,0,0,0,0,0,0,0,0,0,0,0,0,0,0,0,0,0,0,0,0,0,0,0,0,0,0,0,0,0,0,0,0,0,0,0,0,0,0,0,0,0,0,0,0,0,0,0,0,0,0,0,0,0,0,0,0,0],"sum_hessian":[8.6363995E2,7.5672E2,1.0692E2,7.191E2,3.762E1,6.1199997E1,4.5719997E1,6.966E2,2.2499998E1,1.8179998E1,1.9439999E1,4.914E1,1.2059999E1,1.062E1,3.51E1,6.5862E2,3.798E1,1.4219999E1,8.28E0,5.9399996E0,1.224E1,2.52E0,1.692E1,4.5179996E1,3.9599998E0,6.66E0,5.3999996E0,5.58E0,5.04E0,2.6999998E0,3.2399998E1,6.5177997E2,6.8399997E0,2.8259998E1,9.719999E0,2.1599998E0,1.2059999E1,6.66E0,1.6199999E0,2.8799999E0,3.06E0,1.116E1,1.0799999E0,5.04E0,1.1879999E1,3.8699997E1,6.4799995E0,2.6999998E0,1.26E0,5.58E0,1.0799999E0,1.0799999E0,4.3199997E0,4.5E0,1.0799999E0,1.9799999E0,3.06E0,3.0779999E1,1.6199999E0,6.2748E2,2.43E1,3.9599998E0,2.8799999E0,4.3199997E0,2.3939999E1,4.8599997E0,4.8599997E0,1.0799999E0,1.0799999E0,1.098E1,1.0799999E0,1.0799999E0,5.58E0,1.9799999E0,1.0799999E0,2.6999998E0,2.34E0,1.062E1,1.26E0,3.762E1,1.0799999E0,2.52E0,3.9599998E0,3.2399998E0,1.0799999E0,2.9339998E1,1.4399999E0],"tree_param":{"num_deleted":"0","num_feature":"1280","num_nodes":"87","size_leaf_vector":"1"}},{"base_weights":[-5.5514644E-3,-2.7173916E-1,2.8237507E0,-4.207545E-1,1.3065693E0,4.0940466E0,7.0151305E-1,-4.9426094E-1,6.6889614E-2,1.7126544E-1,2.9970868E0,5.331412E-1,4.6041565E0,-1.2948209E-1,2.3E0,-5.09163E-1,1.7241378E-1,-9.0670764E-2,2.8599222E0,-3.0047268E-1,1.1997019E0,3.5513608E0,2.4647886E-1,-4.5454547E-2,2.540984E-1,1.3274336E-2,4.7446375E0,-4.1711813E-1,1.9465649E-1,-1.3513516E-1,3.2191782E0,-5.1549757E-1,7.386364E-1,2.3053892E0,-4.2763162E-1,-3.0985174E-1,8.8719153E-1,3.71134E-1,1.3274336E-2,-4.6601266E-1,2.1153846E-1,5.4945037E-2,2.9323308E0,6.066946E-1,4.105263E0,-4.347826E-2,1.6346155E-1,6.7307696E-2,4.8424372E-1,-5.235904E-2,6.7307696E-2,-3.4351148E-2,1.9230768E-2,3.874598E-1,-2.8846154E-2,-5.262983E-2,-1.4326668E-3,1.6346155E-1,-3.2786887E-2,2.7876106E-1,6.7307696E-2,-5.054152E-2,1.9230768E-2,-3.9880633E-2,2.1428572E-1,-4.6875004E-2,1.5576594E-1,-5.3532418E-2,6.7307696E-2,-4.8302874E-2,1.7213115E-1,1.9230768E-2,3.5849056E-1,-3.977273E-2,1.9026549E-1,4.418605E-1,7.1428575E-2],"categories":[],"categories_nodes":[],"categories_segments":[],"categories_sizes":[],"default_left":[0,0,0,0,0,0,0,0,0,0,0,0,0,0,0,0,0,0,0,0,0,0,0,0,0,0,0,0,0,0,0,0,0,0,0,0,0,0,0,0,0,0,0,0,0,0,0,0,0,0,0,0,0,0,0,0,0,0,0,0,0,0,0,0,0,0,0,0,0,0,0,0,0,0,0,0,0],"id":7,"left_children":[1,3,5,7,9,11,13,15,17,19,21,23,25,27,29,31,33,35,37,39,41,43,45,-1,-1,-1,47,49,-1,51,53,55,57,59,61,63,65,-1,-1,67,-1,69,71,73,75,-1,-1,-1,-1,-1,-1,-1,-1,-1,-1,-1,-1,-1,-1,-1,-1,-1,-1,-1,-1,-1,-1,-1,-1,-1,-1,-1,-1,-1,-1,-1,-1],"loss_changes":[6.519497E2,1.8663379E2,1.9780847E2,2.5974075E1,1.3095538E2,8.175598E1,3.892578E1,6.3370056E0,4.2365326E1,2.07563E1,4.0989914E1,1.4917839E1,2.4759888E1,1.2802636E1,2.2818253E1,5.245987E0,1.9544147E1,1.9894556E1,1.1442268E1,1.2831453E1,2.6456633E1,3.4664825E1,6.082187E0,0E0,0E0,0E0,1.23342285E1,2.4951706E0,0E0,3.185158E-1,1.7900215E1,3.3106232E0,3.8995328E0,7.52758E-1,6.835637E-1,1.7331518E1,1.6203289E1,0E0,0E0,2.6136045E0,0E0,8.989242E0,8.823128E0,6.9788194E0,1.7031982E1,0E0,0E0,0E0,0E0,0E0,0E0,0E0,0E0,0E0,0E0,0E0,0E0,0E0,0E0,0E0,0E0,0E0,0E0,0E0,0E0,0E0,0E0,0E0,0E0,0E0,0E0,0E0,0E0,0E0,0E0,0E0,0E0],"parents":[2147483647,0,0,1,1,2,2,3,3,4,4,5,5,6,6,7,7,8,8,9,9,10,10,11,11,12,12,13,13,14,14,15,15,16,16,17,17,18,18,19,19,20,20,21,21,22,22,26,26,27,27,29,29,30,30,31,31,32,32,33,33,34,34,35,35,36,36,39,39,41,41,42,42,43,43,44,44],"right_children":[2,4,6,8,10,12,14,16,18,20,22,24,26,28,30,32,34,36,38,40,42,44,46,-1,-1,-1,48,50,-1,52,54,56,58,60,62,64,66,-1,-1,68,-1,70,72,74,76,-1,-1,-1,-1,-1,-1,-1,-1,-1,-1,-1,-1,-1,-1,-1,-1,-1,-1,-1,-1,-1,-1,-1,-1,-1,-1,-1,-1,-1,-1,-1,-1],"split_conditions":[1.5189037E0,1.4571837E0,2.0489408E-1,2.8495017E-1,4.9563015E-1,1.1341542E-1,1.0366876E0,1.9620687E0,1.3653015E0,1.1372824E0,2.4047127E-1,8.592115E-2,1.5817846E-1,2.2275418E-1,5.709949E-1,2.386208E0,1.3078295E-1,1.197717E0,5.351664E-1,8.62968E-1,6.988729E-2,1.8820373E-2,1.6410908E0,-4.5454547E-2,2.540984E-1,1.3274336E-2,4.389725E-2,1.0383826E0,1.9465649E-1,5.8129057E-2,3.112683E0,1.4889803E0,1.8321125E-2,1.5304936E-1,5.635692E-1,1.865017E0,4.8224486E-2,3.71134E-1,1.3274336E-2,1.650482E0,2.1153846E-1,5.226723E-1,4.5419753E-2,1.24524206E-1,5.1135576E-1,-4.347826E-2,1.6346155E-1,6.7307696E-2,4.8424372E-1,-5.235904E-2,6.7307696E-2,-3.4351148E-2,1.9230768E-2,3.874598E-1,-2.8846154E-2,-5.262983E-2,-1.4326668E-3,1.6346155E-1,-3.2786887E-2,2.7876106E-1,6.7307696E-2,-5.054152E-2,1.9230768E-2,-3.9880633E-2,2.1428572E-1,-4.6875004E-2,1.5576594E-1,-5.3532418E-2,6.7307696E-2,-4.8302874E-2,1.7213115E-1,1.9230768E-2,3.5849056E-1,-3.977273E-2,1.9026549E-1,4.418605E-1,7.1428575E-2],"split_indices":[1055,715,1145,681,839,407,584,269,959,979,117,28,643,798,389,288,1264,1255,1266,475,485,721,168,0,0,0,15,52,0,0,255,1181,42,0,9,696,288,0,0,331,0,312,272,272,774,0,0,0,0,0,0,0,0,0,0,0,0,0,0,0,0,0,0,0,0,0,0,0,0,0,0,0,0,0,0,0,0],"split_type":[0,0,0,0,0,0,0,0,0,0,0,0,0,0,0,0,0,0,0,0,0,0,0,0,0,0,0,0,0,0,0,0,0,0,0,0,0,0,0,0,0,0,0,0,0,0,0,0,0,0,0,0,0,0,0,0,0,0,0,0,0,0,0,0,0,0,0,0,0,0,0,0,0,0,0,0,0],"sum_hessian":[8.6363995E2,7.9019995E2,7.3439995E1,7.2269995E2,6.75E1,4.5359997E1,2.8079998E1,6.2801996E2,9.467999E1,4.1039997E1,2.646E1,5.9399996E0,3.942E1,1.908E1,9E0,6.1451996E2,1.3499999E1,9.053999E1,4.14E0,2.8619999E1,1.2419999E1,2.1779999E1,4.68E0,4.5E0,1.4399999E0,1.26E0,3.816E1,1.746E1,1.6199999E0,2.6999998E0,6.2999997E0,6.12E2,2.52E0,2.34E0,1.116E1,7.452E1,1.6019999E1,2.8799999E0,1.26E0,2.7539999E1,1.0799999E0,8.099999E0,4.3199997E0,3.7799997E0,1.8E1,3.6E0,1.0799999E0,1.0799999E0,3.7079998E1,1.638E1,1.0799999E0,1.6199999E0,1.0799999E0,5.22E0,1.0799999E0,5.9904E2,1.2959999E1,1.0799999E0,1.4399999E0,1.26E0,1.0799999E0,1.008E1,1.0799999E0,7.271999E1,1.8E0,5.3999996E0,1.062E1,2.646E1,1.0799999E0,6.66E0,1.4399999E0,1.0799999E0,3.2399998E0,2.52E0,1.26E0,1.6199999E1,1.8E0],"tree_param":{"num_deleted":"0","num_feature":"1280","num_nodes":"77","size_leaf_vector":"1"}},{"base_weights":[-1.480387E-2,-3.0958906E-1,1.5718077E0,-3.9294308E-1,1.4810282E0,8.2514733E-1,3.7083812E0,-4.414664E-1,1.3152508E0,1.7441858E-1,2.7548544E0,2.1444888E0,1.3130715E-1,4.9839228E-1,4.257259E0,-4.6814358E-1,1.2385321E0,2.504303E0,-3.8116595E-1,-1.4429112E-1,2.3451328E-1,3.6019738E0,3.0075186E-1,2.6994967E0,-1.8172148E-8,1.4088398E0,-3.275454E-1,2.1311477E-1,-4.393306E-2,4.464286E0,4.1984733E-2,-4.952593E-1,7.604307E-1,-4.5454547E-2,2.5E0,3.3516483E0,-3.977273E-2,1.9230768E-2,-4.846939E-2,-3.8358012E-1,1.6346155E-1,4.0072203E0,-2.8846154E-2,-4.2452835E-2,1.6346155E-1,7.46888E-1,3.540146E0,-4.7752813E-2,1.6346155E-1,2.6293104E0,1.12016276E-1,-4.397666E-1,1.2162162E0,4.6541123E0,1.3087249E-1,-5.012524E-2,1.460177E-1,2.7832514E-1,-1.8942155E-9,-3.4351148E-2,3.5355648E-1,3.8520408E-1,1.3274336E-2,-5.152395E-2,6.7307696E-2,4.3000004E-1,6.7307696E-2,2.4431817E-1,-1.9662924E-2,1.3028169E-1,4.172414E-1,-1.1363639E-2,3.6686394E-1,-3.6585372E-2,1.5648855E-1,-5.4234065E-2,2.4495676E-2,2.596154E-1,-3.4351148E-2,4.7594228E-1,1.15384616E-1],"categories":[],"categories_nodes":[],"categories_segments":[],"categories_sizes":[],"default_left":[0,0,0,0,0,0,0,0,0,0,0,0,0,0,0,0,0,0,0,0,0,0,0,0,0,0,0,0,0,0,0,0,0,0,0,0,0,0,0,0,0,0,0,0,0,0,0,0,0,0,0,0,0,0,0,0,0,0,0,0,0,0,0,0,0,0,0,0,0,0,0,0,0,0,0,0,0,0,0,0,0],"id":8,"left_children":[1,3,5,7,9,11,13,15,17,19,21,23,25,27,29,31,33,35,37,39,-1,41,43,45,47,49,51,-1,-1,53,-1,55,57,-1,59,61,-1,-1,-1,63,-1,65,-1,-1,-1,67,69,-1,-1,71,73,75,77,79,-1,-1,-1,-1,-1,-1,-1,-1,-1,-1,-1,-1,-1,-1,-1,-1,-1,-1,-1,-1,-1,-1,-1,-1,-1,-1,-1],"loss_changes":[4.0488705E2,1.0953821E2,2.1332578E2,5.8462418E1,5.391189E1,9.290738E1,5.9262512E1,3.1045944E1,4.036924E1,1.2237817E1,3.317726E1,4.168109E1,4.019404E1,1.0459544E1,2.1657288E1,2.2692795E1,2.4416182E1,2.9906876E1,6.2279594E-1,7.412229E0,0E0,2.0327194E1,5.84064E0,4.30213E1,7.181288E0,2.8352974E1,9.314795E0,0E0,0E0,1.0681274E1,0E0,8.419876E0,2.2857872E1,0E0,2.0060207E1,1.4146187E1,0E0,0E0,0E0,2.4141011E0,0E0,7.9217377E0,0E0,0E0,0E0,1.590905E1,2.1695953E1,0E0,0E0,2.6872528E1,7.3903737E0,3.502719E0,8.855417E0,4.0997314E0,0E0,0E0,0E0,0E0,0E0,0E0,0E0,0E0,0E0,0E0,0E0,0E0,0E0,0E0,0E0,0E0,0E0,0E0,0E0,0E0,0E0,0E0,0E0,0E0,0E0,0E0,0E0],"parents":[2147483647,0,0,1,1,2,2,3,3,4,4,5,5,6,6,7,7,8,8,9,9,10,10,11,11,12,12,13,13,14,14,15,15,16,16,17,17,18,18,19,19,21,21,22,22,23,23,24,24,25,25,26,26,29,29,31,31,32,32,34,34,35,35,39,39,41,41,45,45,46,46,49,49,50,50,51,51,52,52,53,53],"right_children":[2,4,6,8,10,12,14,16,18,20,22,24,26,28,30,32,34,36,38,40,-1,42,44,46,48,50,52,-1,-1,54,-1,56,58,-1,60,62,-1,-1,-1,64,-1,66,-1,-1,-1,68,70,-1,-1,72,74,76,78,80,-1,-1,-1,-1,-1,-1,-1,-1,-1,-1,-1,-1,-1,-1,-1,-1,-1,-1,-1,-1,-1,-1,-1,-1,-1,-1,-1],"split_conditions":[1.280431E0,1.492817E0,1.5443172E0,3.2020836E0,1.491314E-1,2.1296833E-2,1.4822847E-1,2.2154982E0,1.4204705E-1,4.1415095E-1,1.3780932E-1,4.5059556E-1,1.875128E-3,2.1296833E-2,4.5843947E-1,1.3795652E0,3.7476403E-1,1.8507066E-1,8.786844E-4,3.1901687E-1,2.3451328E-1,1.6965649E0,3.3494496E-1,1.3639246E-2,1.0166417E-1,1.1244211E0,1.9541925E0,2.1311477E-1,-4.393306E-2,5.1142186E-1,4.1984733E-2,3.042286E0,8.184437E-2,-4.5454547E-2,8.721595E-2,1.5590088E0,-3.977273E-2,1.9230768E-2,-4.846939E-2,1.5409617E-1,1.6346155E-1,7.908009E-1,-2.8846154E-2,-4.2452835E-2,1.6346155E-1,2.7661592E-1,1.4554395E-1,-4.7752813E-2,1.6346155E-1,2.002206E-2,1.3267287E0,1.9964082E0,3.2078978E-3,7.9331055E-2,1.3087249E-1,-5.012524E-2,1.460177E-1,2.7832514E-1,-1.8942155E-9,-3.4351148E-2,3.5355648E-1,3.8520408E-1,1.3274336E-2,-5.152395E-2,6.7307696E-2,4.3000004E-1,6.7307696E-2,2.4431817E-1,-1.9662924E-2,1.3028169E-1,4.172414E-1,-1.1363639E-2,3.6686394E-1,-3.6585372E-2,1.5648855E-1,-5.4234065E-2,2.4495676E-2,2.596154E-1,-3.4351148E-2,4.7594228E-1,1.15384616E-1],"split_indices":[473,882,1253,418,1056,1131,825,1273,869,21,119,777,388,1131,24,249,721,316,5,566,0,572,17,649,929,455,621,0,0,1100,0,669,280,0,283,1172,0,0,0,103,0,815,0,0,0,1190,1253,0,0,976,976,199,570,703,0,0,0,0,0,0,0,0,0,0,0,0,0,0,0,0,0,0,0,0,0,0,0,0,0,0,0],"split_type":[0,0,0,0,0,0,0,0,0,0,0,0,0,0,0,0,0,0,0,0,0,0,0,0,0,0,0,0,0,0,0,0,0,0,0,0,0,0,0,0,0,0,0,0,0,0,0,0,0,0,0,0,0,0,0,0,0,0,0,0,0,0,0,0,0,0,0,0,0,0,0,0,0,0,0,0,0,0,0,0,0],"sum_hessian":[8.6363995E2,7.2899994E2,1.3464E2,6.9731995E2,3.1679998E1,1.00799995E2,3.384E1,6.7877997E2,1.8539999E1,1.6199999E1,1.548E1,3.4019997E1,6.678E1,5.22E0,2.8619999E1,6.6887994E2,9.9E0,1.062E1,7.9199996E0,1.494E1,1.26E0,1.116E1,4.3199997E0,2.682E1,7.2E0,1.7099998E1,4.9679996E1,1.4399999E0,3.7799997E0,2.6999998E1,1.6199999E0,6.5501996E2,1.386E1,4.5E0,5.3999996E0,8.099999E0,2.52E0,1.0799999E0,6.8399997E0,1.386E1,1.0799999E0,1.008E1,1.0799999E0,3.2399998E0,1.0799999E0,8.639999E0,1.8179998E1,6.12E0,1.0799999E0,8.28E0,8.82E0,4.698E1,2.6999998E0,2.5019999E1,1.9799999E0,6.5375995E2,1.26E0,3.06E0,1.0799999E1,1.6199999E0,3.7799997E0,6.8399997E0,1.26E0,1.278E1,1.0799999E0,9E0,1.0799999E0,2.52E0,6.12E0,4.68E0,1.3499999E1,2.52E0,5.7599998E0,7.2E0,1.6199999E0,4.1039997E1,5.9399996E0,1.0799999E0,1.6199999E0,2.3939999E1,1.0799999E0],"tree_param":{"num_deleted":"0","num_feature":"1280","num_nodes":"81","size_leaf_vector":"1"}},{"base_weights":[-4.3949136E-3,-2.8124273E-1,2.256937E0,-3.240316E-1,3.13278E0,3.8416257E0,2.5257248E-1,-3.9564365E-1,9.472656E-1,4.1978613E-1,-3.7974685E-2,4.614458E0,8.881579E-1,-1.6595292E-1,2.65625E0,-4.3499961E-1,8.633093E-1,2.65625E0,-3.660566E-1,4.7503743E0,4.9180325E-2,-2.5059667E-1,2.6987448E0,-3.185596E-1,2.3451328E-1,3.5887095E-1,-3.2786887E-2,-4.502777E-1,2.5675676E0,2.4E0,-3.625378E-1,3.6614175E0,1.7684886E-1,-4.8780492E-1,1.15384616E-1,4.8453608E-1,1.0176992E-1,-4.794521E-2,6.7307696E-2,3.5795456E-1,1.3274336E-2,1.5648855E-1,-4.5243624E-1,-5.1404905E-2,2.2624414E-3,6.7307696E-2,3.0916032E-1,-1.1363639E-2,3.262032E-1,6.7307696E-2,-5.0986845E-2,4.2007104E-1,-3.2786887E-2,-4.435484E-2,1.460177E-1,-5.3016454E-2,1.9230768E-2,-5.087297E-2,5.7522126E-2],"categories":[],"categories_nodes":[],"categories_segments":[],"categories_sizes":[],"default_left":[0,0,0,0,0,0,0,0,0,0,0,0,0,0,0,0,0,0,0,0,0,0,0,0,0,0,0,0,0,0,0,0,0,0,0,0,0,0,0,0,0,0,0,0,0,0,0,0,0,0,0,0,0,0,0,0,0,0,0],"id":9,"left_children":[1,3,5,7,9,11,13,15,17,-1,-1,19,21,23,25,27,29,31,33,35,-1,37,39,41,-1,-1,-1,43,45,47,49,51,53,55,-1,-1,-1,-1,-1,-1,-1,-1,57,-1,-1,-1,-1,-1,-1,-1,-1,-1,-1,-1,-1,-1,-1,-1,-1],"loss_changes":[5.4193805E2,1.1367663E2,2.9893542E2,6.980021E1,3.7658577E1,1.1609979E2,4.345737E1,3.6179398E1,9.290488E1,0E0,0E0,2.0917847E1,2.5747955E1,1.506373E1,1.898508E1,3.333087E1,4.276464E1,4.4012955E1,5.011348E0,9.272278E0,0E0,2.094137E0,1.0328285E1,9.8106E0,0E0,0E0,0E0,2.1082153E1,1.5923996E0,2.2039043E1,2.3633108E0,2.8699997E1,5.599857E0,7.634163E-1,0E0,0E0,0E0,0E0,0E0,0E0,0E0,0E0,2.2873154E0,0E0,0E0,0E0,0E0,0E0,0E0,0E0,0E0,0E0,0E0,0E0,0E0,0E0,0E0,0E0,0E0],"parents":[2147483647,0,0,1,1,2,2,3,3,4,4,5,5,6,6,7,7,8,8,11,11,12,12,13,13,14,14,15,15,16,16,17,17,18,18,19,19,21,21,22,22,23,23,27,27,28,28,29,29,30,30,31,31,32,32,33,33,42,42],"right_children":[2,4,6,8,10,12,14,16,18,-1,-1,20,22,24,26,28,30,32,34,36,-1,38,40,42,-1,-1,-1,44,46,48,50,52,54,56,-1,-1,-1,-1,-1,-1,-1,-1,58,-1,-1,-1,-1,-1,-1,-1,-1,-1,-1,-1,-1,-1,-1,-1,-1],"split_conditions":[7.9902774E-1,2.1295936E0,2.6879018E-2,1.7725444E0,4.4732907E-1,1.0256933E-1,1.5180488E0,1.6972734E0,1.2837041E-3,4.1978613E-1,-3.7974685E-2,4.4158328E-1,1.6583745E0,1.8492217E0,3.8983092E-1,3.2050498E0,7.075592E-3,3.637674E-2,2.034835E0,1.8213348E-1,4.9180325E-2,3.432485E-1,1.4199477E0,5.0694016E-3,2.3451328E-1,3.5887095E-1,-3.2786887E-2,1.3908722E0,1.1293998E0,1.259906E-1,7.7303965E-3,9.4692465E-3,6.7294437E-1,1.193536E0,1.15384616E-1,4.8453608E-1,1.0176992E-1,-4.794521E-2,6.7307696E-2,3.5795456E-1,1.3274336E-2,1.5648855E-1,1.3920534E0,-5.1404905E-2,2.2624414E-3,6.7307696E-2,3.0916032E-1,-1.1363639E-2,3.262032E-1,6.7307696E-2,-5.0986845E-2,4.2007104E-1,-3.2786887E-2,-4.435484E-2,1.460177E-1,-5.3016454E-2,1.9230768E-2,-5.087297E-2,5.7522126E-2],"split_indices":[344,590,728,770,332,609,946,1239,1241,0,0,2,684,1253,192,756,2,542,909,532,0,30,1266,1261,0,0,0,684,81,971,102,634,1031,16,0,0,0,0,0,0,0,0,738,0,0,0,0,0,0,0,0,0,0,0,0,0,0,0,0],"split_type":[0,0,0,0,0,0,0,0,0,0,0,0,0,0,0,0,0,0,0,0,0,0,0,0,0,0,0,0,0,0,0,0,0,0,0,0,0,0,0,0,0,0,0,0,0,0,0,0,0,0,0,0,0,0,0,0,0,0,0],"sum_hessian":[8.6363995E2,7.7022E2,9.342E1,7.6157996E2,8.639999E0,5.1659996E1,4.176E1,7.2162E2,3.996E1,6.4799995E0,2.1599998E0,4.05E1,1.116E1,3.6359997E1,5.3999996E0,7.0037994E2,2.124E1,1.692E1,2.3039999E1,3.9059998E1,1.4399999E0,7.3799996E0,3.7799997E0,3.51E1,1.26E0,3.9599998E0,1.4399999E0,6.9768E2,2.6999998E0,9E0,1.224E1,1.17E1,5.22E0,2.196E1,1.0799999E0,3.78E1,1.26E0,6.2999997E0,1.0799999E0,2.52E0,1.26E0,1.6199999E0,3.348E1,6.1469995E2,8.2979996E1,1.0799999E0,1.6199999E0,2.52E0,6.4799995E0,1.0799999E0,1.116E1,1.0259999E1,1.4399999E0,3.9599998E0,1.26E0,2.088E1,1.0799999E0,3.2219997E1,1.26E0],"tree_param":{"num_deleted":"0","num_feature":"1280","num_nodes":"59","size_leaf_vector":"1"}},{"base_weights":[9.2744585E-3,-2.6732144E-1,2.1278267E0,-4.1480166E-1,6.834075E-1,2.6379871E0,-4.6345952E-1,-4.657482E-1,4.7575128E-1,1.7562163E0,-4.2534235E-1,2.3259938E-1,2.8634977E0,-5.18527E-2,2.1599565E-2,-5.339171E-1,-1.16774656E-1,1.5476364E0,-3.839917E-1,2.300759E0,1.1328605E-3,-5.0162953E-1,1.6485022E-1,-4.739433E-2,2.0549345E-1,2.9842982E0,5.4862197E-2,-5.376768E-1,6.241736E-2,-4.28331E-1,7.139946E-1,2.737587E0,1.9393368E-1,-5.2483022E-2,9.774398E-2,2.6728058E0,1.0212962E-1,-3.516722E-1,2.0422733E-1,-5.40825E-2,3.74597E-2,3.0627062E0,2.5418463E-1,-3.803137E-2,7.161612E-2,-5.4519083E-2,1.0083214E-2,-4.9235497E-2,1.4427719E-1,1.8376549E-1,-3.8799573E-2,-2.8067607E-2,3.1839117E-1,-4.7159944E-2,1.5710336E-1,2.9046705E-1,-1.2349254E-2,-4.5657206E-2,1.3331503E-1,6.814595E-2,-5.0846465E-2,1.8664792E-2,3.105032E-1,6.921844E-2,-2.9154107E-2],"categories":[],"categories_nodes":[],"categories_segments":[],"categories_sizes":[],"default_left":[0,0,0,0,0,0,0,0,0,0,0,0,0,0,0,0,0,0,0,0,0,0,0,0,0,0,0,0,0,0,0,0,0,0,0,0,0,0,0,0,0,0,0,0,0,0,0,0,0,0,0,0,0,0,0,0,0,0,0,0,0,0,0,0,0],"id":10,"left_children":[1,3,5,7,9,11,13,15,17,19,21,23,25,-1,-1,27,29,31,33,35,37,39,-1,-1,-1,41,43,45,-1,47,49,51,53,-1,-1,55,57,59,-1,-1,-1,61,63,-1,-1,-1,-1,-1,-1,-1,-1,-1,-1,-1,-1,-1,-1,-1,-1,-1,-1,-1,-1,-1,-1],"loss_changes":[5.0669965E2,1.0752917E2,1.3323026E2,3.0292267E1,1.2337454E2,4.4671387E1,7.5839925E-1,1.4863464E1,3.4100838E1,5.0259598E1,8.975058E0,1.1599648E1,2.5733154E1,0E0,0E0,2.619751E0,2.71757E1,2.585748E1,4.535225E0,3.255899E1,1.0406664E1,1.9349775E0,0E0,0E0,0E0,1.4882629E1,1.4713331E0,2.5663605E0,0E0,9.829625E0,3.623699E1,1.2535416E1,8.750993E0,0E0,0E0,2.2590118E1,5.3190145E0,2.342862E0,0E0,0E0,0E0,8.066956E0,9.5067936E-1,0E0,0E0,0E0,0E0,0E0,0E0,0E0,0E0,0E0,0E0,0E0,0E0,0E0,0E0,0E0,0E0,0E0,0E0,0E0,0E0,0E0,0E0],"parents":[2147483647,0,0,1,1,2,2,3,3,4,4,5,5,6,6,7,7,8,8,9,9,10,10,11,11,12,12,15,15,16,16,17,17,18,18,19,19,20,20,21,21,25,25,26,26,27,27,29,29,30,30,31,31,32,32,35,35,36,36,37,37,41,41,42,42],"right_children":[2,4,6,8,10,12,14,16,18,20,22,24,26,-1,-1,28,30,32,34,36,38,40,-1,-1,-1,42,44,46,-1,48,50,52,54,-1,-1,56,58,60,-1,-1,-1,62,64,-1,-1,-1,-1,-1,-1,-1,-1,-1,-1,-1,-1,-1,-1,-1,-1,-1,-1,-1,-1,-1,-1],"split_conditions":[1.3234472E0,5.424523E-1,4.507969E-1,1.3987259E0,1.777674E-1,1.2568101E-1,1.2736051E0,1.0558201E0,6.118697E-4,4.7412512E-1,1.4517603E0,4.270617E-1,1.184644E0,-5.18527E-2,2.1599565E-2,1.568186E0,6.0526115E-1,5.2393116E-2,1.8084642E0,3.7927648E-1,1.4973038E0,1.7592082E0,1.6485022E-1,-4.739433E-2,2.0549345E-1,6.963681E-1,1.5069032E-1,1.7512832E0,6.241736E-2,1.645731E0,2.798263E-1,5.90772E-4,1.9893564E-1,-5.2483022E-2,9.774398E-2,6.091156E-1,1.7395228E0,9.307657E-3,2.0422733E-1,-5.40825E-2,3.74597E-2,1.1848325E-1,6.349114E-2,-3.803137E-2,7.161612E-2,-5.4519083E-2,1.0083214E-2,-4.9235497E-2,1.4427719E-1,1.8376549E-1,-3.8799573E-2,-2.8067607E-2,3.1839117E-1,-4.7159944E-2,1.5710336E-1,2.9046705E-1,-1.2349254E-2,-4.5657206E-2,1.3331503E-1,6.814595E-2,-5.0846465E-2,1.8664792E-2,3.105032E-1,6.921844E-2,-2.9154107E-2],"split_indices":[1205,1260,406,1039,406,1039,970,1110,825,199,528,662,484,0,0,647,918,614,106,764,30,832,0,0,0,1066,576,132,0,949,979,1263,398,0,0,460,1194,981,0,0,0,195,434,0,0,0,0,0,0,0,0,0,0,0,0,0,0,0,0,0,0,0,0,0,0],"split_type":[0,0,0,0,0,0,0,0,0,0,0,0,0,0,0,0,0,0,0,0,0,0,0,0,0,0,0,0,0,0,0,0,0,0,0,0,0,0,0,0,0,0,0,0,0,0,0,0,0,0,0,0,0,0,0,0,0,0,0,0,0,0,0,0,0],"sum_hessian":[8.6272974E2,7.638731E2,9.885663E1,6.6177936E2,1.02093704E2,8.2580536E1,1.627609E1,6.264203E2,3.535909E1,5.1591053E1,5.0502647E1,7.2526226E0,7.532791E1,1.5274958E1,1.0011327E0,5.2360803E2,1.0281225E2,1.5381758E1,1.9977333E1,3.91372E1,1.2453854E1,4.944202E1,1.0606283E0,5.7595115E0,1.4931111E0,7.216167E1,3.1662436E0,5.224477E2,1.1603708E0,7.512367E1,2.7688574E1,7.6419387E0,7.7398195E0,1.866134E1,1.3159927E0,3.3288525E1,5.848675E0,1.1324206E1,1.1296475E0,4.769146E1,1.7505605E0,7.002865E1,2.1330218E0,2.165867E0,1.0003765E0,5.1651544E2,5.932242E0,7.335068E1,1.7729943E0,1.3378955E1,1.430962E1,1.032283E0,6.6096554E0,5.661323E0,2.0784965E0,3.0703856E1,2.5846705E0,4.4556007E0,1.3930742E0,1.051229E0,1.0272978E1,1.0941033E0,6.893455E1,1.0344208E0,1.098601E0],"tree_param":{"num_deleted":"0","num_feature":"1280","num_nodes":"65","size_leaf_vector":"1"}},{"base_weights":[1.574827E-2,-3.8356555E-1,1.9233544E0,-4.6206877E-1,1.0273014E0,2.7500849E0,3.5750267E-1,-4.969921E-1,7.006189E-1,2.5134373E-1,2.8691342E0,3.0196564E0,1.1013168E0,-6.059814E-2,1.7160571E0,-5.116644E-1,8.0974E-1,1.519396E0,-3.9187732E-1,1.6789662E0,-1.7391792E-1,5.955353E-2,3.08462E-1,3.1056015E0,1.7217766E-1,-2.0161158E-1,2.0052764E0,-2.3031498E-1,1.6727084E0,2.2789214E0,-3.9556872E-2,-5.221173E-1,6.6164E-1,-4.485309E-2,2.5353548E-1,-1.7733823E-1,2.146853E0,-4.8956327E-2,2.162027E-2,-3.6200635E-2,2.602169E-1,-4.2397177E-1,1.1475897E0,3.1450617E-1,7.671373E-2,6.445997E-2,-3.208872E-2,-4.6498146E-2,7.0206344E-2,2.5368152E0,-3.38406E-2,-3.4759474E-1,1.1914266E0,2.1681511E-1,1.9964268E-2,2.6707902E0,-3.0357545E-2,-5.266711E-2,9.4022654E-2,-4.31893E-2,2.330389E-1,2.1676345E-2,-3.747436E-2,2.5962886E-1,-3.0620871E-2,-5.2446015E-2,6.609802E-2,2.0992802E-1,-3.197172E-2,1.6953917E-2,2.927709E-1,-4.7403723E-2,4.492108E-2,2.0290606E-1,-2.7990524E-2,2.9269227E-1,5.899769E-2],"categories":[],"categories_nodes":[],"categories_segments":[],"categories_sizes":[],"default_left":[0,0,0,0,0,0,0,0,0,0,0,0,0,0,0,0,0,0,0,0,0,0,0,0,0,0,0,0,0,0,0,0,0,0,0,0,0,0,0,0,0,0,0,0,0,0,0,0,0,0,0,0,0,0,0,0,0,0,0,0,0,0,0,0,0,0,0,0,0,0,0,0,0,0,0,0,0],"id":11,"left_children":[1,3,5,7,9,11,13,15,17,19,21,23,25,27,29,31,33,35,37,39,41,-1,-1,43,45,47,49,51,53,55,-1,57,59,-1,-1,61,63,-1,-1,-1,-1,65,67,-1,-1,-1,-1,-1,-1,69,-1,71,73,-1,-1,75,-1,-1,-1,-1,-1,-1,-1,-1,-1,-1,-1,-1,-1,-1,-1,-1,-1,-1,-1,-1,-1],"loss_changes":[6.5902747E2,7.971573E1,1.9287897E2,2.78956E1,5.3617405E1,4.0168762E1,3.0149166E1,1.3053513E1,1.8663124E1,1.7198103E1,3.6374283E0,1.9908081E1,1.845462E1,1.2567851E1,1.5737022E1,8.348221E0,1.787126E1,1.2890718E1,6.6705465E-1,1.316135E1,7.8759127E0,0E0,0E0,5.064148E0,1.0235354E0,2.0367463E0,1.2243984E1,6.850176E0,2.3509521E0,1.0933777E1,0E0,4.805847E0,1.2325896E1,0E0,0E0,3.998888E-1,1.0336643E1,0E0,0E0,0E0,0E0,2.4763384E0,6.016371E0,0E0,0E0,0E0,0E0,0E0,0E0,6.506275E0,0E0,3.8834357E0,4.4713836E0,0E0,0E0,2.956417E0,0E0,0E0,0E0,0E0,0E0,0E0,0E0,0E0,0E0,0E0,0E0,0E0,0E0,0E0,0E0,0E0,0E0,0E0,0E0,0E0,0E0],"parents":[2147483647,0,0,1,1,2,2,3,3,4,4,5,5,6,6,7,7,8,8,9,9,10,10,11,11,12,12,13,13,14,14,15,15,16,16,17,17,18,18,19,19,20,20,23,23,24,24,25,25,26,26,27,27,28,28,29,29,31,31,32,32,35,35,36,36,41,41,42,42,49,49,51,51,52,52,55,55],"right_children":[2,4,6,8,10,12,14,16,18,20,22,24,26,28,30,32,34,36,38,40,42,-1,-1,44,46,48,50,52,54,56,-1,58,60,-1,-1,62,64,-1,-1,-1,-1,66,68,-1,-1,-1,-1,-1,-1,70,-1,72,74,-1,-1,76,-1,-1,-1,-1,-1,-1,-1,-1,-1,-1,-1,-1,-1,-1,-1,-1,-1,-1,-1,-1,-1],"split_conditions":[1.9391373E0,2.2975645E0,2.8152632E-2,1.010974E0,3.6002785E-1,1.1874685E-1,7.1583104E-1,2.537543E0,1.2936342E-1,6.4244084E-2,8.809057E-2,1.3669671E-1,6.3251984E-1,2.2120128E0,2.4655482E-1,2.0386312E0,1.9845873E-1,1.4457839E-2,1.1972927E0,1.0790147E-1,3.307587E-1,5.955353E-2,3.08462E-1,3.216213E-1,1.6209447E-1,5.8061697E-2,3.0340475E-1,1.5072532E0,4.9714765E-1,8.9901376E-1,-3.9556872E-2,2.2917004E0,5.583788E-1,-4.485309E-2,2.5353548E-1,3.1041127E-4,7.0109355E-1,-4.8956327E-2,2.162027E-2,-3.6200635E-2,2.602169E-1,1.0110806E0,4.9477962E-1,3.1450617E-1,7.671373E-2,6.445997E-2,-3.208872E-2,-4.6498146E-2,7.0206344E-2,2.4958804E-2,-3.38406E-2,1.7707103E0,1.652235E-2,2.1681511E-1,1.9964268E-2,1.187704E-3,-3.0357545E-2,-5.266711E-2,9.4022654E-2,-4.31893E-2,2.330389E-1,2.1676345E-2,-3.747436E-2,2.5962886E-1,-3.0620871E-2,-5.2446015E-2,6.609802E-2,2.0992802E-1,-3.197172E-2,1.6953917E-2,2.927709E-1,-4.7403723E-2,4.492108E-2,2.0290606E-1,-2.7990524E-2,2.9269227E-1,5.899769E-2],"split_indices":[262,163,960,196,1037,342,243,121,819,291,1133,616,419,121,852,677,149,243,909,428,596,0,0,743,606,523,1173,185,97,559,0,113,1114,0,0,688,1043,0,0,0,0,1162,64,0,0,0,0,0,0,491,0,203,182,0,0,617,0,0,0,0,0,0,0,0,0,0,0,0,0,0,0,0,0,0,0,0,0],"split_type":[0,0,0,0,0,0,0,0,0,0,0,0,0,0,0,0,0,0,0,0,0,0,0,0,0,0,0,0,0,0,0,0,0,0,0,0,0,0,0,0,0,0,0,0,0,0,0,0,0,0,0,0,0,0,0,0,0,0,0,0,0,0,0,0,0,0,0,0,0,0,0,0,0,0,0,0,0],"sum_hessian":[8.631996E2,7.144456E2,1.4875395E2,6.774249E2,3.702067E1,9.68587E1,5.1895256E1,6.582265E2,1.9198421E1,2.6846712E1,1.0173962E1,8.2533165E1,1.4325536E1,4.0413292E1,1.1481965E1,6.5151953E2,6.7069707E0,1.0750584E1,8.447838E0,5.485056E0,2.1361656E1,1.2066132E0,8.967348E0,8.002707E1,2.5060961E0,6.1861105E0,8.139425E0,3.7598915E1,2.8143766E0,9.002955E0,2.479009E0,6.463165E2,5.2029905E0,4.3067102E0,2.4002602E0,3.0959795E0,7.654604E0,7.446488E0,1.0013494E0,1.8976661E0,3.5873897E0,1.8533876E1,2.827779E0,7.835987E1,1.6672025E0,1.1228871E0,1.3832089E0,5.165977E0,1.0201334E0,6.567528E0,1.5718976E0,3.5431664E1,2.1672506E0,1.7529393E0,1.0614372E0,7.787143E0,1.2158126E0,6.44948E2,1.3685653E0,3.5909953E0,1.6119953E0,1.0005034E0,2.095476E0,6.4199853E0,1.2346184E0,1.7435596E1,1.0982809E0,1.45401E0,1.373769E0,1.133954E0,5.4335737E0,3.0928757E1,4.502906E0,1.1394782E0,1.0277724E0,6.5716033E0,1.2155397E0],"tree_param":{"num_deleted":"0","num_feature":"1280","num_nodes":"77","size_leaf_vector":"1"}},{"base_weights":[4.9856347E-3,-4.2798024E-1,1.9457936E0,-4.8928073E-1,1.7363768E0,2.620316E0,-2.751947E-1,-5.1865125E-1,5.385234E-1,-1.9410911E-1,2.607524E0,2.9724693E0,4.977666E-1,-4.516146E-1,1.4002936E0,-3.2910522E-2,-5.418377E-1,-2.985427E-1,2.1953688E0,-4.614232E-2,6.969491E-2,2.9275602E-1,-3.0905103E-2,3.0461626E0,-3.7702106E-2,-1.9771563E-1,1.7212476E0,-5.3604584E-2,7.720437E-2,-2.840644E-2,2.139776E-1,-3.1956694E-1,1.6520095E0,-5.4804695E-1,1.07277595E-1,-5.097257E-2,1.0988849E-1,-3.1842396E-2,2.8690952E-1,3.086509E0,-2.9698892E-2,-5.030761E-2,8.767809E-1,2.3553448E0,-3.3274297E-2,5.434815E-2,-5.2937694E-2,2.5636855E-1,-3.220645E-2,-5.495991E-2,1.30761145E-2,3.1274375E-1,8.626089E-2,-2.845556E-2,1.5921825E-1,2.74546E-1,5.829828E-2],"categories":[],"categories_nodes":[],"categories_segments":[],"categories_sizes":[],"default_left":[0,0,0,0,0,0,0,0,0,0,0,0,0,0,0,0,0,0,0,0,0,0,0,0,0,0,0,0,0,0,0,0,0,0,0,0,0,0,0,0,0,0,0,0,0,0,0,0,0,0,0,0,0,0,0,0,0],"id":12,"left_children":[1,3,5,7,9,11,13,15,17,19,21,23,25,27,29,31,33,35,37,-1,-1,-1,-1,39,-1,41,43,-1,-1,-1,-1,45,47,49,-1,-1,-1,-1,-1,51,-1,-1,53,55,-1,-1,-1,-1,-1,-1,-1,-1,-1,-1,-1,-1,-1],"loss_changes":[7.2723315E2,9.473093E1,2.3720038E2,2.1074905E1,3.365143E1,8.9093994E1,1.1769415E1,7.531021E0,2.787919E1,2.0030046E0,1.3645683E1,2.6752686E1,1.6034882E1,4.0137763E0,5.382227E0,1.5791133E1,7.000885E0,4.668453E0,1.22746315E1,0E0,0E0,0E0,0E0,1.4621887E1,0E0,4.593853E0,9.624338E0,0E0,0E0,0E0,0E0,5.329691E0,9.386456E0,7.43927E-1,0E0,0E0,0E0,0E0,0E0,6.448303E0,0E0,0E0,3.0830233E0,2.0711803E0,0E0,0E0,0E0,0E0,0E0,0E0,0E0,0E0,0E0,0E0,0E0,0E0,0E0],"parents":[2147483647,0,0,1,1,2,2,3,3,4,4,5,5,6,6,7,7,8,8,9,9,10,10,11,11,12,12,13,13,14,14,15,15,16,16,17,17,18,18,23,23,25,25,26,26,31,31,32,32,33,33,39,39,42,42,43,43],"right_children":[2,4,6,8,10,12,14,16,18,20,22,24,26,28,30,32,34,36,38,-1,-1,-1,-1,40,-1,42,44,-1,-1,-1,-1,46,48,50,-1,-1,-1,-1,-1,52,-1,-1,54,56,-1,-1,-1,-1,-1,-1,-1,-1,-1,-1,-1,-1,-1],"split_conditions":[7.0428056E-1,3.1626024E0,6.959076E-2,1.3860073E0,6.9945186E-1,1.4907841E-1,2.145801E0,4.227648E-3,1.2952216E0,1.7593138E-1,5.2901584E-1,1.2517941E-1,2.544132E-1,2.5704882E0,5.769747E-1,2.806399E-1,2.3911176E0,1.1348714E0,7.0893037E-4,-4.614232E-2,6.969491E-2,2.9275602E-1,-3.0905103E-2,5.253766E-1,-3.7702106E-2,1.3072311E0,3.1265434E-2,-5.3604584E-2,7.720437E-2,-2.840644E-2,2.139776E-1,1.35449E-3,5.622122E-2,2.3016129E0,1.07277595E-1,-5.097257E-2,1.0988849E-1,-3.1842396E-2,2.8690952E-1,8.2994354E-1,-2.9698892E-2,-5.030761E-2,7.0283186E-1,4.7795776E-1,-3.3274297E-2,5.434815E-2,-5.2937694E-2,2.5636855E-1,-3.220645E-2,-5.495991E-2,1.30761145E-2,3.1274375E-1,8.626089E-2,-2.845556E-2,1.5921825E-1,2.74546E-1,5.829828E-2],"split_indices":[25,653,501,177,29,566,1255,127,1051,15,1097,105,526,1148,350,495,21,649,775,0,0,0,0,993,0,1216,1244,0,0,0,0,820,100,884,0,0,0,0,0,1133,0,0,102,725,0,0,0,0,0,0,0,0,0,0,0,0,0],"split_type":[0,0,0,0,0,0,0,0,0,0,0,0,0,0,0,0,0,0,0,0,0,0,0,0,0,0,0,0,0,0,0,0,0,0,0,0,0,0,0,0,0,0,0,0,0,0,0,0,0,0,0,0,0,0,0,0,0],"sum_hessian":[8.634499E2,7.065978E2,1.5685213E2,6.878888E2,1.8708948E1,1.20174805E2,3.667733E1,6.692594E2,1.8629383E1,6.059068E0,1.264988E1,1.0273034E2,1.744446E1,3.3844177E1,2.8331516E0,3.0601292E1,6.3865814E2,1.2921192E1,5.7081904E0,5.0317307E0,1.0273373E0,1.1395667E1,1.254214E0,1.0060741E2,2.1229393E0,1.1656675E1,5.787785E0,3.2185352E1,1.6588267E0,1.052249E0,1.7809026E0,2.684455E1,3.756742E0,6.368695E2,1.7886258E0,1.1776705E1,1.144487E0,1.3179721E0,4.3902187E0,9.948357E1,1.1238396E0,9.491184E0,2.1654904E0,4.310388E0,1.477397E0,4.938754E0,2.1905796E1,2.3655808E0,1.3911611E0,6.356065E2,1.262996E0,9.728683E1,2.1967392E0,1.055044E0,1.1104465E0,3.0827937E0,1.2275945E0],"tree_param":{"num_deleted":"0","num_feature":"1280","num_nodes":"57","size_leaf_vector":"1"}},{"base_weights":[1.2087249E-2,-3.4459934E-1,1.4886608E0,-4.642033E-1,7.4989504E-1,2.4128218E0,-1.1381851E-1,-4.8282927E-1,2.4876809E-1,1.6665024E0,-2.1945688E-1,2.708678E0,9.2989676E-2,-2.8581157E-1,1.7292513E0,-5.0450915E-1,1.260008E0,2.1953762E0,-1.5649493E-1,-3.552203E-1,1.6389494E-1,2.854124E0,-2.6432705E-1,-4.1517738E-1,1.8844266E-1,-4.133921E-1,1.159898E0,2.7798298E-1,-3.499089E-2,-5.2618074E-1,1.509388E-1,2.5180897E-1,-4.2286124E-2,2.48759E0,-4.0292356E-2,-4.8155423E-2,1.0643121E-1,-4.410432E-1,9.072056E-2,2.9749165E0,-8.320106E-3,-4.279895E-2,2.1192072E-2,-4.9969535E-2,2.1549834E-2,-4.8446968E-1,9.1552436E-1,-3.6408205E-2,2.239118E-1,-5.326834E-2,1.623428E-2,-3.971407E-2,1.7720577E-1,2.7547035E-1,-9.140588E-3,-5.3426087E-2,4.659785E-2,3.0540666E-1,-6.6468376E-3,7.037559E-2,-4.014718E-2,-5.4161716E-2,5.6723602E-2,1.6610044E-1,-2.819146E-2],"categories":[],"categories_nodes":[],"categories_segments":[],"categories_sizes":[],"default_left":[0,0,0,0,0,0,0,0,0,0,0,0,0,0,0,0,0,0,0,0,0,0,0,0,0,0,0,0,0,0,0,0,0,0,0,0,0,0,0,0,0,0,0,0,0,0,0,0,0,0,0,0,0,0,0,0,0,0,0,0,0,0,0,0,0],"id":13,"left_children":[1,3,5,7,9,11,13,15,-1,17,19,21,23,25,27,29,31,33,35,37,-1,39,41,43,-1,45,47,-1,-1,49,51,-1,-1,53,-1,-1,-1,55,-1,57,59,-1,-1,-1,-1,61,63,-1,-1,-1,-1,-1,-1,-1,-1,-1,-1,-1,-1,-1,-1,-1,-1,-1,-1],"loss_changes":[4.550817E2,9.145575E1,2.492442E2,3.5731445E1,6.162436E1,7.2959045E1,2.0289257E1,2.4248459E1,0E0,3.4621407E1,9.25942E0,4.1647034E1,1.2708599E1,1.1172468E1,1.2924892E1,8.857422E0,1.7926517E1,2.1976517E1,4.0556135E0,3.961687E0,0E0,3.122705E1,5.058254E-1,6.9536316E-1,0E0,5.545123E0,8.97949E0,0E0,0E0,2.7657166E0,1.8967392E1,0E0,0E0,1.7454102E1,0E0,0E0,0E0,2.9083076E0,0E0,2.1047668E1,1.5846488E0,0E0,0E0,0E0,0E0,3.4278498E0,3.2249384E0,0E0,0E0,0E0,0E0,0E0,0E0,0E0,0E0,0E0,0E0,0E0,0E0,0E0,0E0,0E0,0E0,0E0,0E0],"parents":[2147483647,0,0,1,1,2,2,3,3,4,4,5,5,6,6,7,7,9,9,10,10,11,11,12,12,13,13,14,14,15,15,16,16,17,17,18,18,19,19,21,21,22,22,23,23,25,25,26,26,29,29,30,30,33,33,37,37,39,39,40,40,45,45,46,46],"right_children":[2,4,6,8,10,12,14,16,-1,18,20,22,24,26,28,30,32,34,36,38,-1,40,42,44,-1,46,48,-1,-1,50,52,-1,-1,54,-1,-1,-1,56,-1,58,60,-1,-1,-1,-1,62,64,-1,-1,-1,-1,-1,-1,-1,-1,-1,-1,-1,-1,-1,-1,-1,-1,-1,-1],"split_conditions":[8.7532E-1,1.1009316E0,2.3179895E-1,4.0786414E0,6.3940305E-1,5.353809E-1,1.2772778E0,2.6581316E0,2.4876809E-1,1.5247713E-1,2.3263175E0,3.7177828E-1,1.5751692E0,7.0292664E-1,1.6947466E-1,1.6706355E0,4.790851E-4,1.8492217E0,3.6666715E-1,4.4568992E-1,1.6389494E-1,4.1720572E-1,1.413569E0,1.0690941E-1,1.8844266E-1,3.0179617E0,2.550016E-1,2.7798298E-1,-3.499089E-2,2.0954268E0,3.47616E-1,2.5180897E-1,-4.2286124E-2,9.819488E-3,-4.0292356E-2,-4.8155423E-2,1.0643121E-1,2.1960828E0,9.072056E-2,1.0402254E0,2.8928456E-1,-4.279895E-2,2.1192072E-2,-4.9969535E-2,2.1549834E-2,6.1096454E-1,6.0780108E-2,-3.6408205E-2,2.239118E-1,-5.326834E-2,1.623428E-2,-3.971407E-2,1.7720577E-1,2.7547035E-1,-9.140588E-3,-5.3426087E-2,4.659785E-2,3.0540666E-1,-6.6468376E-3,7.037559E-2,-4.014718E-2,-5.4161716E-2,5.6723602E-2,1.6610044E-1,-2.819146E-2],"split_indices":[808,882,1266,892,851,470,352,351,0,429,753,685,373,1024,584,1273,705,1253,607,9,0,435,406,369,0,353,1113,0,0,67,293,0,0,503,0,0,0,871,0,1041,758,0,0,0,0,1065,1,0,0,0,0,0,0,0,0,0,0,0,0,0,0,0,0,0,0],"split_type":[0,0,0,0,0,0,0,0,0,0,0,0,0,0,0,0,0,0,0,0,0,0,0,0,0,0,0,0,0,0,0,0,0,0,0,0,0,0,0,0,0,0,0,0,0,0,0,0,0,0,0,0,0,0,0,0,0,0,0,0,0,0,0,0,0],"sum_hessian":[8.620932E2,6.949783E2,1.6711491E2,6.270333E2,6.794496E1,1.0566911E2,6.1445797E1,6.239328E2,3.1004913E0,3.4552937E1,3.339203E1,9.35684E1,1.2100718E1,5.697398E1,4.471817E0,6.169686E2,6.96421E0,2.662456E1,7.928377E0,3.1872482E1,1.5195447E0,8.924244E1,4.3259535E0,1.0025174E1,2.0755427E0,5.301002E1,3.9639556E0,2.74686E0,1.724957E0,5.974131E2,1.9555536E1,3.7010598E0,3.2631502E0,2.3971273E1,2.6532853E0,6.739439E0,1.1889383E0,3.045286E1,1.4196239E0,8.559128E1,3.651162E0,3.2949684E0,1.0309852E0,9.02359E0,1.0015843E0,5.0921886E1,2.0881355E0,1.9180695E0,2.045886E0,5.920479E2,5.365141E0,1.51788E1,4.3767366E0,2.1659784E1,2.3114905E0,2.7987465E1,2.4653935E0,8.341626E1,2.175025E0,1.0177597E0,2.633402E0,4.875752E1,2.1643698E0,1.048345E0,1.0397906E0],"tree_param":{"num_deleted":"0","num_feature":"1280","num_nodes":"65","size_leaf_vector":"1"}},{"base_weights":[2.3455701E-3,-3.050561E-1,2.1712778E0,-3.6908787E-1,1.7266247E0,-1.9515403E-2,2.8771322E0,-5.028142E-1,2.9807952E-1,2.4858668E0,-4.733136E-2,-3.6513644E-1,2.1128151E0,3.0558903E0,4.1948485E-1,-5.139704E-1,1.5109038E0,-1.9124429E-1,2.10981E0,2.8763194E0,-3.7092075E-2,-5.2878898E-2,1.7005669E-1,6.611958E-2,2.4338114E-1,3.116675E-1,5.776703E-3,-4.4857036E-2,2.0232634E-1,-5.204392E-1,1.20663464E-1,2.0547335E-1,1.6887348E-2,-2.933666E-1,1.9464409E0,7.7020675E-2,2.960395E0,3.1094823E0,1.32919075E-2,-1.8525999E-2,-5.3767532E-2,-4.036264E-2,1.9185387E-1,-3.0322446E-2,2.841904E-1,-4.7529522E-2,1.4993928E-1,3.2809892E-1,-3.3587504E-2,3.262605E-1,6.574514E-2],"categories":[],"categories_nodes":[],"categories_segments":[],"categories_sizes":[],"default_left":[0,0,0,0,0,0,0,0,0,0,0,0,0,0,0,0,0,0,0,0,0,0,0,0,0,0,0,0,0,0,0,0,0,0,0,0,0,0,0,0,0,0,0,0,0,0,0,0,0,0,0],"id":14,"left_children":[1,3,5,7,9,11,13,15,17,19,-1,21,23,25,27,29,31,33,35,37,-1,-1,-1,-1,-1,-1,-1,-1,-1,39,-1,-1,-1,41,43,45,47,49,-1,-1,-1,-1,-1,-1,-1,-1,-1,-1,-1,-1,-1],"loss_changes":[5.7653125E2,9.9165886E1,1.6604678E2,6.573024E1,4.0122215E1,2.0780561E1,3.438739E1,1.4541E1,1.0976636E2,2.0580696E1,0E0,9.08563E0,2.2398186E-1,1.3583984E1,1.0185232E1,7.4182434E0,2.30196E0,2.1974861E1,4.5274284E1,9.504593E0,0E0,0E0,0E0,0E0,0E0,0E0,0E0,0E0,0E0,3.4157104E0,0E0,0E0,0E0,2.38078E1,1.0130981E1,7.617984E0,2.0679947E1,3.2037354E0,0E0,0E0,0E0,0E0,0E0,0E0,0E0,0E0,0E0,0E0,0E0,0E0,0E0],"parents":[2147483647,0,0,1,1,2,2,3,3,4,4,5,5,6,6,7,7,8,8,9,9,11,11,12,12,13,13,14,14,15,15,16,16,17,17,18,18,19,19,29,29,33,33,34,34,35,35,36,36,37,37],"right_children":[2,4,6,8,10,12,14,16,18,20,-1,22,24,26,28,30,32,34,36,38,-1,-1,-1,-1,-1,-1,-1,-1,-1,40,-1,-1,-1,42,44,46,48,50,-1,-1,-1,-1,-1,-1,-1,-1,-1,-1,-1,-1,-1],"split_conditions":[7.4455875E-1,1.0143682E0,2.517133E-1,1.4007391E0,7.8770524E-1,1.2972505E0,4.9161723E-1,3.565828E0,3.8148662E-1,7.618388E-1,-4.733136E-2,1.1685215E0,3.2118767E-2,1.2697786E0,5.8926314E-1,2.3927982E0,5.9018814E-4,1.6230721E0,4.322324E-1,3.719907E-1,-3.7092075E-2,-5.2878898E-2,1.7005669E-1,6.611958E-2,2.4338114E-1,3.116675E-1,5.776703E-3,-4.4857036E-2,2.0232634E-1,2.047383E-3,1.20663464E-1,2.0547335E-1,1.6887348E-2,9.1469246E-1,2.563414E-1,9.1688395E-1,8.3629704E-1,7.53924E-1,1.32919075E-2,-1.8525999E-2,-5.3767532E-2,-4.036264E-2,1.9185387E-1,-3.0322446E-2,2.841904E-1,-4.7529522E-2,1.4993928E-1,3.2809892E-1,-3.3587504E-2,3.262605E-1,6.574514E-2],"split_indices":[317,1141,458,651,375,1114,140,350,458,210,0,754,130,123,211,1225,7,93,580,902,0,0,0,0,0,0,0,0,0,838,0,0,0,1246,863,670,375,468,0,0,0,0,0,0,0,0,0,0,0,0,0],"split_type":[0,0,0,0,0,0,0,0,0,0,0,0,0,0,0,0,0,0,0,0,0,0,0,0,0,0,0,0,0,0,0,0,0,0,0,0,0,0,0,0,0,0,0,0,0,0,0,0,0,0,0],"sum_hessian":[8.627169E2,7.5637555E2,1.0634137E2,7.340588E2,2.2316744E1,2.615018E1,8.0191185E1,6.116972E2,1.2236158E2,1.6494276E1,5.8224697E0,2.321596E1,2.9342215E0,7.452701E1,5.6641774E0,6.090677E2,2.6295147E0,9.704539E1,2.5316196E1,1.4504966E1,1.9893093E0,2.220112E1,1.0148388E0,1.0854392E0,1.8487823E0,7.30073E1,1.5197072E0,4.142388E0,1.5217894E0,6.074813E2,1.5863868E0,1.4933162E0,1.1361984E0,9.34441E1,3.601284E0,7.789895E0,1.7526302E1,1.3245761E1,1.2592051E0,3.02856E1,5.771957E2,8.978594E1,3.658159E0,1.2136405E0,2.3876438E0,6.090687E0,1.6992081E0,1.5977019E1,1.5492835E0,1.2156075E1,1.0896862E0],"tree_param":{"num_deleted":"0","num_feature":"1280","num_nodes":"51","size_leaf_vector":"1"}},{"base_weights":[-5.0037196E-3,-2.8288746E-1,1.3207355E0,-4.4390562E-1,2.1724059E-1,3.4137648E-1,1.9087706E0,-4.730071E-1,4.9305087E-1,-3.7568945E-2,1.8898975E0,-1.22474134E-1,1.3749226E0,4.930583E-1,2.2535493E0,-5.0119203E-1,1.2469093E-1,-2.1493886E-1,2.560417E-1,-2.7533394E-1,9.833336E-1,2.462131E0,5.0925493E-1,-3.418233E-1,1.184202E0,2.7752763E-1,2.5177703E0,-3.399292E-1,1.5846093E0,4.3942893E-1,2.5141988E0,-5.146131E-1,3.12852E-1,-2.4278153E-1,1.8811684E0,-5.0647605E-2,1.0707698E-1,-3.6858344E-1,1.0505749E0,-1.6636348E-1,1.6754664E0,3.9628002E-1,2.854478E0,-1.4848454E-1,1.8257944E-1,-5.0316215E-1,5.1169235E-1,2.0232038E0,-3.6746748E-2,1.606362E-1,-2.4591787E-1,2.8973874E-1,1.4148596E-2,-5.031946E-2,6.4753056E-2,2.5162694E-1,4.0186726E-2,-4.5699622E-2,1.2153058E0,2.789782E0,9.751739E-1,-5.224215E-2,1.9045644E-2,1.8171363E-1,-4.682411E-2,-4.6908434E-2,9.507326E-2,-3.0626452E-2,2.8552186E-1,-4.5922052E-2,2.3897765E-2,2.0296621E-1,-4.2248E-2,1.2880895E-1,-4.9895022E-2,2.3084162E-1,3.1233577E-3,1.2111964E-1,-3.5362132E-2,3.0916438E-1,1.6956815E-2,-4.492143E-2,7.158476E-2,-5.349795E-2,1.9163346E-2,-4.0967215E-2,1.4264527E-1,6.44986E-2,2.3220864E-1,-4.7934383E-2,7.070102E-2,7.105642E-2,-3.8714234E-2,2.1643059E-1,-3.7290286E-2,2.9271182E-1,3.2539576E-2,-3.0994678E-2,2.1246052E-1],"categories":[],"categories_nodes":[],"categories_segments":[],"categories_sizes":[],"default_left":[0,0,0,0,0,0,0,0,0,0,0,0,0,0,0,0,0,0,0,0,0,0,0,0,0,0,0,0,0,0,0,0,0,0,0,0,0,0,0,0,0,0,0,0,0,0,0,0,0,0,0,0,0,0,0,0,0,0,0,0,0,0,0,0,0,0,0,0,0,0,0,0,0,0,0,0,0,0,0,0,0,0,0,0,0,0,0,0,0,0,0,0,0,0,0,0,0,0,0],"id":15,"left_children":[1,3,5,7,9,11,13,15,17,19,21,23,25,27,29,31,33,35,-1,37,39,41,43,45,47,49,51,53,55,57,59,61,63,65,67,-1,-1,69,71,73,75,77,79,81,-1,83,85,87,-1,-1,89,-1,-1,-1,-1,-1,91,-1,93,95,97,-1,-1,-1,-1,-1,-1,-1,-1,-1,-1,-1,-1,-1,-1,-1,-1,-1,-1,-1,-1,-1,-1,-1,-1,-1,-1,-1,-1,-1,-1,-1,-1,-1,-1,-1,-1,-1,-1],"loss_changes":[3.1671356E2,5.732968E1,8.514166E1,1.4901375E1,7.412926E1,2.7546452E1,4.4217255E1,8.860451E0,2.4986063E1,3.711061E1,1.690979E1,1.1965702E1,2.1590244E1,1.823906E1,3.4074463E1,5.61203E0,1.615364E1,5.5495205E0,0E0,1.5703981E1,2.3266502E1,1.1831642E1,7.196427E0,5.1203575E0,8.582947E0,7.4830785E0,7.3316E0,2.238624E0,1.2276762E1,7.898879E0,2.478006E1,2.803894E0,1.1090116E1,6.1172376E0,1.008287E1,0E0,0E0,6.5241165E0,1.2971924E1,6.334049E0,1.8788712E1,2.6978421E0,7.9315414E0,1.9481786E0,0E0,7.702255E-1,5.733961E0,1.7559052E-1,0E0,0E0,2.157946E0,0E0,0E0,0E0,0E0,0E0,1.4934605E0,0E0,9.749346E0,1.7477997E1,1.7475405E1,0E0,0E0,0E0,0E0,0E0,0E0,0E0,0E0,0E0,0E0,0E0,0E0,0E0,0E0,0E0,0E0,0E0,0E0,0E0,0E0,0E0,0E0,0E0,0E0,0E0,0E0,0E0,0E0,0E0,0E0,0E0,0E0,0E0,0E0,0E0,0E0,0E0,0E0],"parents":[2147483647,0,0,1,1,2,2,3,3,4,4,5,5,6,6,7,7,8,8,9,9,10,10,11,11,12,12,13,13,14,14,15,15,16,16,17,17,19,19,20,20,21,21,22,22,23,23,24,24,25,25,26,26,27,27,28,28,29,29,30,30,31,31,32,32,33,33,34,34,37,37,38,38,39,39,40,40,41,41,42,42,43,43,45,45,46,46,47,47,50,50,56,56,58,58,59,59,60,60],"right_children":[2,4,6,8,10,12,14,16,18,20,22,24,26,28,30,32,34,36,-1,38,40,42,44,46,48,50,52,54,56,58,60,62,64,66,68,-1,-1,70,72,74,76,78,80,82,-1,84,86,88,-1,-1,90,-1,-1,-1,-1,-1,92,-1,94,96,98,-1,-1,-1,-1,-1,-1,-1,-1,-1,-1,-1,-1,-1,-1,-1,-1,-1,-1,-1,-1,-1,-1,-1,-1,-1,-1,-1,-1,-1,-1,-1,-1,-1,-1,-1,-1,-1,-1],"split_conditions":[1.2552773E0,1.0303938E0,4.2875987E-1,1.2603531E0,1.2855711E0,8.573229E-1,3.8877603E-1,1.0256616E0,1.2103304E0,7.019672E-1,1.9857392E-1,7.083221E-1,1.6189769E-1,7.7578586E-1,3.1994793E-1,2.3640366E0,6.6113734E-1,5.5698234E-1,2.560417E-1,1.3560302E0,2.9071808E-2,8.3826315E-3,2.6211068E-1,3.5283434E-1,3.1873682E-1,5.514086E-4,3.5183832E-1,2.8046024E0,3.4217796E-1,3.5373124E-1,4.0363744E-1,2.3507586E0,1.6958135E-1,1.0666245E0,2.4055368E-1,-5.0647605E-2,1.0707698E-1,1.4767524E0,1.1478937E-1,1.132786E-2,2.9922126E-2,1.5265688E-2,8.692701E-1,5.3596985E-1,1.8257944E-1,2.8420744E0,4.555712E-1,3.0615717E-1,-3.6746748E-2,1.606362E-1,3.2776365E-1,2.8973874E-1,1.4148596E-2,-5.031946E-2,6.4753056E-2,2.5162694E-1,3.575792E-4,-4.5699622E-2,2.1360265E-1,1.0135713E0,1.1061364E-1,-5.224215E-2,1.9045644E-2,1.8171363E-1,-4.682411E-2,-4.6908434E-2,9.507326E-2,-3.0626452E-2,2.8552186E-1,-4.5922052E-2,2.3897765E-2,2.0296621E-1,-4.2248E-2,1.2880895E-1,-4.9895022E-2,2.3084162E-1,3.1233577E-3,1.2111964E-1,-3.5362132E-2,3.0916438E-1,1.6956815E-2,-4.492143E-2,7.158476E-2,-5.349795E-2,1.9163346E-2,-4.0967215E-2,1.4264527E-1,6.44986E-2,2.3220864E-1,-4.7934383E-2,7.070102E-2,7.105642E-2,-3.8714234E-2,2.1643059E-1,-3.7290286E-2,2.9271182E-1,3.2539576E-2,-3.0994678E-2,2.1246052E-1],"split_indices":[298,1266,244,805,375,120,332,603,461,1204,241,174,319,375,1266,443,165,72,0,721,1179,539,145,370,259,1127,672,868,827,520,260,1053,1032,269,643,0,0,1261,191,554,1180,217,208,1069,0,736,768,1268,0,0,49,0,0,0,0,0,704,0,964,139,1243,0,0,0,0,0,0,0,0,0,0,0,0,0,0,0,0,0,0,0,0,0,0,0,0,0,0,0,0,0,0,0,0,0,0,0,0,0,0],"split_type":[0,0,0,0,0,0,0,0,0,0,0,0,0,0,0,0,0,0,0,0,0,0,0,0,0,0,0,0,0,0,0,0,0,0,0,0,0,0,0,0,0,0,0,0,0,0,0,0,0,0,0,0,0,0,0,0,0,0,0,0,0,0,0,0,0,0,0,0,0,0,0,0,0,0,0,0,0,0,0,0,0,0,0,0,0,0,0,0,0,0,0,0,0,0,0,0,0,0,0],"sum_hessian":[8.5768286E2,7.0970966E2,1.4797324E2,5.3694916E2,1.7276045E2,5.6107697E1,9.186554E1,5.212544E2,1.5694788E1,1.5076997E2,2.1990486E1,3.9335575E1,1.677212E1,1.8467077E1,7.339846E1,4.979353E2,2.331909E1,1.2358523E1,3.3362648E0,1.22881546E2,2.7888424E1,1.499302E1,6.9974656E0,3.431379E1,5.0217867E0,9.190234E0,7.5818863E0,1.0864619E1,7.6024575E0,9.558339E0,6.3840126E1,4.9022092E2,7.714367E0,1.9997248E1,3.3218427E0,1.0568228E1,1.790296E0,1.15481865E2,7.3996806E0,1.0765523E1,1.71229E1,2.7138135E0,1.2279206E1,5.2578664E0,1.7395993E0,2.9203901E1,5.109889E0,3.06216E0,1.9596264E0,2.0124767E0,7.1777573E0,6.3484178E0,1.2334688E0,9.743977E0,1.1206422E0,4.3494344E0,3.2530231E0,4.6253457E0,4.9329934E0,5.34555E1,1.03846245E1,4.8510757E2,5.1133447E0,2.18327E0,5.531097E0,1.7320139E1,2.677108E0,1.2346823E0,2.0871603E0,1.0070297E2,1.4778893E1,4.21816E0,3.1815205E0,1.4688916E0,9.296632E0,1.2071869E1,5.051031E0,1.0057384E0,1.7080753E0,1.114339E1,1.1358169E0,4.2569933E0,1.000873E0,2.814505E1,1.0588512E0,2.8208387E0,2.2890503E0,1.1085172E0,1.9536428E0,6.164661E0,1.0130961E0,1.0083535E0,2.2446697E0,2.8608308E0,2.0721626E0,5.0455902E1,2.9995975E0,5.2477403E0,5.1368837E0],"tree_param":{"num_deleted":"0","num_feature":"1280","num_nodes":"99","size_leaf_vector":"1"}},{"base_weights":[-1.7351765E-2,-2.599942E-1,1.4166874E0,-3.6203036E-1,1.3540586E0,2.1151638E0,2.482295E-1,-4.2415586E-1,1.0734091E0,1.887434E0,-1.8475686E-1,7.075881E-1,2.5120442E0,-1.8406661E-1,1.5111507E0,-4.7195005E-1,3.57076E-1,5.1770248E-2,2.3923945E0,2.2735426E0,1.0418965E-1,-5.035081E-2,1.2705094E-1,-2.606684E-1,2.14349E0,-3.627845E-2,2.6881166E0,-5.0039035E-1,9.752222E-1,2.2170806E0,-4.1925326E-2,-5.395087E-1,-1.7269619E-1,1.9278853E0,-2.570968E-1,1.7497966E0,-3.7931633E-1,2.823639E0,-3.43007E-2,1.1574358E-1,2.5185714E0,-4.591873E-2,1.7056085E-1,-5.0275255E-2,9.168729E-2,2.666869E-1,-3.053662E-2,-4.119994E-2,6.9398314E-2,-3.504065E-2,2.7906687E0,-5.333686E-2,2.1626417E-2,1.8961887E0,-4.1949864E-2,-3.0190712E-2,2.6370132E0,-5.4532867E-2,5.5327263E-2,-3.6827873E-2,9.615807E-2,-3.8005043E-2,2.5304905E-1,-4.9201805E-2,1.1857145E-1,1.5946733E-2,2.4185519E-1,-5.118943E-2,6.5207146E-2,5.637136E-2,3.0587265E-1,6.9917776E-2,-3.5363514E-2,2.732685E-1,-2.1614104E-3,2.9546902E-1,1.08444504E-1,-2.8450137E-2,2.5369787E-1,2.8617474E-1,6.562636E-2],"categories":[],"categories_nodes":[],"categories_segments":[],"categories_sizes":[],"default_left":[0,0,0,0,0,0,0,0,0,0,0,0,0,0,0,0,0,0,0,0,0,0,0,0,0,0,0,0,0,0,0,0,0,0,0,0,0,0,0,0,0,0,0,0,0,0,0,0,0,0,0,0,0,0,0,0,0,0,0,0,0,0,0,0,0,0,0,0,0,0,0,0,0,0,0,0,0,0,0,0,0],"id":16,"left_children":[1,3,5,7,9,11,13,15,17,19,21,23,25,27,29,31,33,35,37,39,41,-1,-1,43,45,47,49,51,53,55,-1,57,59,61,63,65,67,69,-1,71,73,-1,-1,-1,-1,-1,-1,-1,-1,-1,75,-1,-1,77,-1,-1,79,-1,-1,-1,-1,-1,-1,-1,-1,-1,-1,-1,-1,-1,-1,-1,-1,-1,-1,-1,-1,-1,-1,-1,-1],"loss_changes":[2.993831E2,1.21674385E2,1.0109682E2,6.224299E1,3.6431244E1,4.1683136E1,2.632999E1,2.4992401E1,3.898971E1,2.2302368E1,6.311202E0,2.628418E1,2.7150848E1,1.3851206E1,1.7659853E1,1.2581772E1,3.80222E1,1.3385031E1,1.58875885E1,1.3910553E1,6.9852905E0,0E0,0E0,3.865415E0,1.0504456E1,1.6257945E0,1.8555878E1,8.0758715E-1,1.1265121E1,1.0473644E1,0E0,3.5516815E0,2.629639E1,1.6331661E1,1.0360791E1,3.546135E0,2.3414E0,4.1375046E0,0E0,1.2844208E0,1.3152481E1,0E0,0E0,0E0,0E0,0E0,0E0,0E0,0E0,0E0,1.2098511E1,0E0,0E0,7.834831E0,0E0,0E0,1.6582298E0,0E0,0E0,0E0,0E0,0E0,0E0,0E0,0E0,0E0,0E0,0E0,0E0,0E0,0E0,0E0,0E0,0E0,0E0,0E0,0E0,0E0,0E0,0E0,0E0],"parents":[2147483647,0,0,1,1,2,2,3,3,4,4,5,5,6,6,7,7,8,8,9,9,10,10,11,11,12,12,13,13,14,14,15,15,16,16,17,17,18,18,19,19,20,20,23,23,24,24,25,25,26,26,27,27,28,28,29,29,31,31,32,32,33,33,34,34,35,35,36,36,37,37,39,39,40,40,50,50,53,53,56,56],"right_children":[2,4,6,8,10,12,14,16,18,20,22,24,26,28,30,32,34,36,38,40,42,-1,-1,44,46,48,50,52,54,56,-1,58,60,62,64,66,68,70,-1,72,74,-1,-1,-1,-1,-1,-1,-1,-1,-1,76,-1,-1,78,-1,-1,80,-1,-1,-1,-1,-1,-1,-1,-1,-1,-1,-1,-1,-1,-1,-1,-1,-1,-1,-1,-1,-1,-1,-1,-1],"split_conditions":[3.0143857E-1,1.6219504E0,3.918531E-4,1.6385659E0,2.4959749E-2,3.7831638E-2,4.637347E-1,5.213618E-1,1.1130571E0,1.5376363E0,3.0643782E-1,2.4856731E-1,1.0125978E-2,3.215076E-1,1.4892514E0,6.0814387E-1,9.668545E-3,4.665256E-2,4.2000055E-1,2.3118755E-1,3.081454E-1,-5.035081E-2,1.2705094E-1,6.6497976E-1,1.5974894E0,5.8829266E-1,5.641762E-4,1.078488E0,8.9001125E-1,1.480518E-1,-4.1925326E-2,2.6556323E0,3.2554856E-1,7.1864605E-2,5.067338E-1,6.625054E-2,1.1187514E0,6.49845E-2,-3.43007E-2,1.8390352E-1,2.0990548E0,-4.591873E-2,1.7056085E-1,-5.0275255E-2,9.168729E-2,2.666869E-1,-3.053662E-2,-4.119994E-2,6.9398314E-2,-3.504065E-2,1.0886245E-1,-5.333686E-2,2.1626417E-2,8.462416E-2,-4.1949864E-2,-3.0190712E-2,3.2948443E-1,-5.4532867E-2,5.5327263E-2,-3.6827873E-2,9.615807E-2,-3.8005043E-2,2.5304905E-1,-4.9201805E-2,1.1857145E-1,1.5946733E-2,2.4185519E-1,-5.118943E-2,6.5207146E-2,5.637136E-2,3.0587265E-1,6.9917776E-2,-3.5363514E-2,2.732685E-1,-2.1614104E-3,2.9546902E-1,1.08444504E-1,-2.8450137E-2,2.5369787E-1,2.8617474E-1,6.562636E-2],"split_indices":[578,356,279,983,1260,729,2,136,675,1136,136,960,342,267,1228,598,557,377,839,820,384,0,0,619,442,67,46,131,547,641,0,1188,710,272,54,64,418,46,0,1183,752,0,0,0,0,0,0,0,0,0,769,0,0,1054,0,0,901,0,0,0,0,0,0,0,0,0,0,0,0,0,0,0,0,0,0,0,0,0,0,0,0],"split_type":[0,0,0,0,0,0,0,0,0,0,0,0,0,0,0,0,0,0,0,0,0,0,0,0,0,0,0,0,0,0,0,0,0,0,0,0,0,0,0,0,0,0,0,0,0,0,0,0,0,0,0,0,0,0,0,0,0,0,0,0,0,0,0,0,0,0,0,0,0,0,0,0,0,0,0,0,0,0,0,0,0],"sum_hessian":[8.583396E2,7.3482446E2,1.2351516E2,6.918625E2,4.2962E1,7.679732E1,4.6717846E1,6.638363E2,2.802619E1,3.1735481E1,1.122652E1,1.7503231E1,5.9294086E1,3.5440773E1,1.1277072E1,6.2593854E2,3.789776E1,1.6378918E1,1.1647272E1,2.5861084E1,5.874397E0,9.745864E0,1.4806556E0,1.0942772E1,6.560459E0,3.8833745E0,5.541071E1,2.828994E1,7.1508327E0,8.148675E0,3.1283967E0,5.099997E2,1.1593881E2,1.0051368E1,2.784639E1,2.696908E0,1.368201E1,1.0033243E1,1.6140295E0,2.7873325E0,2.3073751E1,4.873255E0,1.0011419E0,9.552066E0,1.3907068E0,5.331883E0,1.2285757E0,2.8518908E0,1.0314838E0,1.7301831E0,5.3680527E1,2.7289894E1,1.0000454E0,4.090339E0,3.0604935E0,1.204497E0,6.9441786E0,5.0779623E2,2.2034898E0,9.946368E1,1.647513E1,2.1575239E0,7.893844E0,2.4513966E1,3.3324237E0,1.1649827E0,1.5319253E0,1.2569916E1,1.1120943E0,1.2655216E0,8.767721E0,1.0244132E0,1.7629193E0,2.1210155E1,1.8635958E0,4.8305183E1,5.375343E0,1.0552393E0,3.0351E0,5.837123E0,1.1070555E0],"tree_param":{"num_deleted":"0","num_feature":"1280","num_nodes":"81","size_leaf_vector":"1"}},{"base_weights":[-5.181868E-3,-2.6618648E-1,2.0567133E0,-4.131703E-1,1.0861562E0,3.0327368E-1,2.6274374E0,-4.8772973E-1,5.9225425E-2,1.4749342E-1,2.2000632E0,-3.1189167E-1,1.8423736E0,5.797818E-1,3.01091E0,-5.168905E-1,-1.14348605E-1,-1.5824498E-1,1.6357954E0,-3.234163E-1,1.0639678E0,-4.0967405E-2,2.4406607E0,-5.2012295E-2,8.7846226E-1,-3.421384E-2,2.5231084E-1,2.3562467E-1,-2.8667497E-2,3.0728498E0,-2.8291604E-2,-5.239517E-1,6.243377E-1,-3.2963178E-1,1.0493841E0,-3.7026057E-1,6.995852E-1,-2.2223367E-1,2.5266423E0,-4.9546373E-1,1.8344112E-1,6.314302E-2,2.2861295E0,2.7182822E0,2.1744774E-1,1.13406874E-1,1.9203728E-2,-4.89378E-2,1.387394E-1,3.1230845E0,5.1515E-2,-5.2929826E-2,5.320176E-2,-3.5123713E-2,1.5891051E-1,-5.0644677E-2,8.001402E-2,2.545866E-1,-4.295049E-2,-4.693618E-2,1.8154119E-1,1.7919338E-1,1.0509413E-3,-4.0262297E-2,2.1104114E-2,3.146241E-1,-3.192393E-2,-5.314496E-2,2.0911058E-2,-4.7706343E-2,1.5387206E-1,1.4094435E-2,2.753491E-1,2.8945994E-1,2.8249327E-2,1.213576E-1,-3.989482E-2,3.1550652E-1,6.8734825E-2],"categories":[],"categories_nodes":[],"categories_segments":[],"categories_sizes":[],"default_left":[0,0,0,0,0,0,0,0,0,0,0,0,0,0,0,0,0,0,0,0,0,0,0,0,0,0,0,0,0,0,0,0,0,0,0,0,0,0,0,0,0,0,0,0,0,0,0,0,0,0,0,0,0,0,0,0,0,0,0,0,0,0,0,0,0,0,0,0,0,0,0,0,0,0,0,0,0,0,0],"id":17,"left_children":[1,3,5,7,9,11,13,15,17,19,21,23,25,27,29,31,33,35,37,39,41,-1,43,-1,45,-1,-1,-1,47,49,-1,51,53,55,57,59,61,63,65,67,-1,69,71,73,75,-1,-1,-1,-1,77,-1,-1,-1,-1,-1,-1,-1,-1,-1,-1,-1,-1,-1,-1,-1,-1,-1,-1,-1,-1,-1,-1,-1,-1,-1,-1,-1,-1,-1],"loss_changes":[4.6417218E2,1.5262498E2,9.6187225E1,2.4375854E1,7.843703E1,2.4177048E1,5.5563263E1,6.442505E0,3.2871883E1,1.844937E1,2.2584671E1,5.0834537E0,1.1664335E1,1.3849615E1,1.3362305E1,4.788162E0,1.1504895E1,1.56278105E1,1.9792904E1,1.1481696E1,1.7557829E1,0E0,1.8924164E1,0E0,3.3505893E-1,0E0,0E0,0E0,7.519741E0,6.1244507E0,0E0,3.3908997E0,4.191654E0,8.065778E0,1.7011436E1,1.5669952E1,1.2846741E1,4.5110074E-1,1.499474E1,7.998519E-1,0E0,7.896228E0,6.1159286E0,1.1216705E1,3.306729E0,0E0,0E0,0E0,0E0,2.4140015E0,0E0,0E0,0E0,0E0,0E0,0E0,0E0,0E0,0E0,0E0,0E0,0E0,0E0,0E0,0E0,0E0,0E0,0E0,0E0,0E0,0E0,0E0,0E0,0E0,0E0,0E0,0E0,0E0,0E0],"parents":[2147483647,0,0,1,1,2,2,3,3,4,4,5,5,6,6,7,7,8,8,9,9,10,10,11,11,12,12,13,13,14,14,15,15,16,16,17,17,18,18,19,19,20,20,22,22,24,24,28,28,29,29,31,31,32,32,33,33,34,34,35,35,36,36,37,37,38,38,39,39,41,41,42,42,43,43,44,44,49,49],"right_children":[2,4,6,8,10,12,14,16,18,20,22,24,26,28,30,32,34,36,38,40,42,-1,44,-1,46,-1,-1,-1,48,50,-1,52,54,56,58,60,62,64,66,68,-1,70,72,74,76,-1,-1,-1,-1,78,-1,-1,-1,-1,-1,-1,-1,-1,-1,-1,-1,-1,-1,-1,-1,-1,-1,-1,-1,-1,-1,-1,-1,-1,-1,-1,-1,-1,-1],"split_conditions":[1.492723E0,1.4571837E0,9.223432E-3,2.8495017E-1,4.9563015E-1,5.23818E-1,1.06201015E-1,2.2710563E-1,1.6695114E0,1.1372824E0,9.7068475E-4,1.0366876E0,6.201665E-2,1.8128688E-2,1.5321024E-1,2.1371493E0,2.4148781E0,1.197717E0,6.4551877E-3,8.62968E-1,6.988729E-2,-4.0967405E-2,2.4047127E-1,-5.2012295E-2,4.707101E-1,-3.421384E-2,2.5231084E-1,2.3562467E-1,1.4051609E0,1.4343746E0,-2.8291604E-2,2.4615915E0,1.3676132E0,8.7772286E-1,3.4173654E-4,1.865017E0,1.6152713E-3,1.7771093E0,1.726028E0,1.6126653E0,1.8344112E-1,5.226723E-1,1.4448273E-2,4.62755E-1,9.0017123E-4,1.13406874E-1,1.9203728E-2,-4.89378E-2,1.387394E-1,6.637167E-1,5.1515E-2,-5.2929826E-2,5.320176E-2,-3.5123713E-2,1.5891051E-1,-5.0644677E-2,8.001402E-2,2.545866E-1,-4.295049E-2,-4.693618E-2,1.8154119E-1,1.7919338E-1,1.0509413E-3,-4.0262297E-2,2.1104114E-2,3.146241E-1,-3.192393E-2,-5.314496E-2,2.0911058E-2,-4.7706343E-2,1.5387206E-1,1.4094435E-2,2.753491E-1,2.8945994E-1,2.8249327E-2,1.213576E-1,-3.989482E-2,3.1550652E-1,6.8734825E-2],"split_indices":[1055,715,1191,681,839,765,1063,587,849,979,831,584,186,674,826,145,363,1255,485,475,485,0,117,0,49,0,0,0,701,24,0,1235,104,1274,928,696,1149,1172,1264,1110,0,312,632,60,388,0,0,0,0,741,0,0,0,0,0,0,0,0,0,0,0,0,0,0,0,0,0,0,0,0,0,0,0,0,0,0,0,0,0],"split_type":[0,0,0,0,0,0,0,0,0,0,0,0,0,0,0,0,0,0,0,0,0,0,0,0,0,0,0,0,0,0,0,0,0,0,0,0,0,0,0,0,0,0,0,0,0,0,0,0,0,0,0,0,0,0,0,0,0,0,0,0,0,0,0,0,0,0,0,0,0,0,0,0,0,0,0,0,0,0,0],"sum_hessian":[8.604931E2,7.645798E2,9.5913284E1,6.9025195E2,7.4327835E1,2.3928606E1,7.198467E1,5.961307E2,9.4121284E1,4.0951443E1,3.3376392E1,1.766529E1,6.2633147E0,1.175068E1,6.0233994E1,5.5258954E2,4.354115E1,8.350265E1,1.061864E1,2.7479057E1,1.3472385E1,2.7579913E0,3.06184E1,1.5514379E1,2.1509132E0,1.6062328E0,4.657082E0,2.265027E0,9.485653E0,5.918806E1,1.0459334E0,5.4972906E2,2.8604882E0,3.7348637E1,6.192514E0,6.741033E1,1.6092314E1,3.6844862E0,6.934154E0,2.6163391E1,1.3156662E0,7.985086E0,5.4873E0,2.7021442E1,3.596957E0,1.0921043E0,1.0588088E0,7.6508765E0,1.8347759E0,5.783117E1,1.3568909E0,5.4745593E2,2.2730904E0,1.7384748E0,1.1220132E0,3.277146E1,4.577173E0,2.719346E0,3.4731677E0,6.523763E1,2.1727026E0,5.6056075E0,1.0486706E1,2.651364E0,1.0331223E0,5.6077137E0,1.3264402E0,2.5125814E1,1.0375758E0,6.340524E0,1.6445614E0,1.21447E0,4.27283E0,2.5021849E1,1.9995954E0,1.0046173E0,2.5923398E0,5.679021E1,1.0409594E0],"tree_param":{"num_deleted":"0","num_feature":"1280","num_nodes":"79","size_leaf_vector":"1"}},{"base_weights":[-1.2927227E-2,-3.0955306E-1,1.2611492E0,-3.9271665E-1,1.2834549E0,5.48508E-1,2.2997336E0,-4.4006443E-1,1.0809513E0,2.6274276E-1,2.206682E0,1.7803003E-1,2.3511589E0,7.081521E-1,2.7926698E0,-4.663486E-1,1.0219339E0,1.9128609E0,-3.7008604E-1,-2.7826998E-1,1.3911159E0,2.500137E0,-3.520502E-2,2.3351326E0,-1.01667486E-1,2.685473E0,-4.1711605E-3,-3.1154078E-1,1.9997023E0,2.9746864E0,4.1021273E-1,-4.901428E-1,6.218814E-1,-8.6771436E-2,2.4509911E-1,2.4591858E0,-3.929198E-2,-4.7912326E-2,2.1240225E-2,-5.053355E-2,9.485223E-2,-3.388534E-2,2.0992212E0,2.8200202E0,-3.3679616E-2,2.829503E0,-3.209905E-2,-2.6627457E-1,1.4597217E0,2.9572585E0,8.401522E-3,-4.9889628E-2,7.14904E-2,-3.313316E-2,2.6118156E-1,3.0500033E0,1.3121893E-2,-4.0401887E-2,1.6798145E-1,-5.0841834E-2,2.4510069E-2,2.0336817E-1,-1.9228837E-2,-4.695754E-2,1.1567121E-1,2.8220016E-1,3.5534956E-2,5.927335E-2,2.4948375E-1,3.0244306E-1,1.7275358E-2,3.0598962E-1,6.7360245E-2,-3.6102295E-2,1.3706951E-1,2.5406963E-1,-1.4889543E-2,3.144781E-1,5.9793603E-2,1.4386401E-2,3.1266642E-1],"categories":[],"categories_nodes":[],"categories_segments":[],"categories_sizes":[],"default_left":[0,0,0,0,0,0,0,0,0,0,0,0,0,0,0,0,0,0,0,0,0,0,0,0,0,0,0,0,0,0,0,0,0,0,0,0,0,0,0,0,0,0,0,0,0,0,0,0,0,0,0,0,0,0,0,0,0,0,0,0,0,0,0,0,0,0,0,0,0,0,0,0,0,0,0,0,0,0,0,0,0],"id":18,"left_children":[1,3,5,7,9,11,13,15,17,19,21,23,25,27,29,31,33,35,37,39,41,43,-1,45,47,49,-1,51,53,55,57,59,61,63,-1,65,-1,-1,-1,-1,-1,-1,67,69,-1,71,-1,73,75,77,-1,-1,-1,-1,-1,79,-1,-1,-1,-1,-1,-1,-1,-1,-1,-1,-1,-1,-1,-1,-1,-1,-1,-1,-1,-1,-1,-1,-1,-1,-1],"loss_changes":[3.252836E2,9.2992744E1,1.1904559E2,4.682434E1,3.228205E1,6.483859E1,4.9671753E1,2.5235077E1,2.6017973E1,1.119043E1,1.452755E1,4.9793644E1,1.33726425E1,2.2890093E1,2.042981E1,1.6711014E1,1.8737572E1,1.795813E1,6.4025044E-1,4.0435305E0,7.9411373E0,1.5858665E1,0E0,1.3342693E1,1.9322407E1,1.0045784E1,0E0,2.340033E0,1.1701273E1,9.49881E0,5.5409155E0,8.463608E0,1.6481045E1,4.136942E0,0E0,7.426178E0,0E0,0E0,0E0,0E0,0E0,0E0,1.0999279E0,7.524498E0,0E0,1.9549026E0,0E0,1.0962203E1,1.2863237E1,3.938942E0,0E0,0E0,0E0,0E0,0E0,9.572174E0,0E0,0E0,0E0,0E0,0E0,0E0,0E0,0E0,0E0,0E0,0E0,0E0,0E0,0E0,0E0,0E0,0E0,0E0,0E0,0E0,0E0,0E0,0E0,0E0,0E0],"parents":[2147483647,0,0,1,1,2,2,3,3,4,4,5,5,6,6,7,7,8,8,9,9,10,10,11,11,12,12,13,13,14,14,15,15,16,16,17,17,18,18,19,19,20,20,21,21,23,23,24,24,25,25,27,27,28,28,29,29,30,30,31,31,32,32,33,33,35,35,42,42,43,43,45,45,47,47,48,48,49,49,55,55],"right_children":[2,4,6,8,10,12,14,16,18,20,22,24,26,28,30,32,34,36,38,40,42,44,-1,46,48,50,-1,52,54,56,58,60,62,64,-1,66,-1,-1,-1,-1,-1,-1,68,70,-1,72,-1,74,76,78,-1,-1,-1,-1,-1,80,-1,-1,-1,-1,-1,-1,-1,-1,-1,-1,-1,-1,-1,-1,-1,-1,-1,-1,-1,-1,-1,-1,-1,-1,-1],"split_conditions":[1.2363982E0,1.492817E0,6.017846E-1,3.2020836E0,3.5215217E-1,3.2932758E0,8.102331E-2,2.2154982E0,1.4204705E-1,9.995198E-1,1.2166253E0,6.6717446E-2,2.9349363E-1,5.160364E-1,2.997069E-1,1.4277887E0,5.222305E-1,1.8507066E-1,1.2419541E0,4.9025026E-1,3.1174445E-3,1.6965649E0,-3.520502E-2,6.980771E-1,1.0383058E0,1.24556E0,-4.1711605E-3,3.765044E-1,7.0371237E-3,1.2665209E0,3.5788858E-1,4.7969267E-1,1.4886735E-1,3.8396928E-1,2.4509911E-1,1.3310957E0,-3.929198E-2,-4.7912326E-2,2.1240225E-2,-5.053355E-2,9.485223E-2,-3.388534E-2,7.527914E-1,1.4392133E-1,-3.3679616E-2,3.284209E-1,-3.209905E-2,3.2553368E0,3.87594E-1,3.1558567E-1,8.401522E-3,-4.9889628E-2,7.14904E-2,-3.313316E-2,2.6118156E-1,4.4966716E-4,1.3121893E-2,-4.0401887E-2,1.6798145E-1,-5.0841834E-2,2.4510069E-2,2.0336817E-1,-1.9228837E-2,-4.695754E-2,1.1567121E-1,2.8220016E-1,3.5534956E-2,5.927335E-2,2.4948375E-1,3.0244306E-1,1.7275358E-2,3.0598962E-1,6.7360245E-2,-3.6102295E-2,1.3706951E-1,2.5406963E-1,-1.4889543E-2,3.144781E-1,5.9793603E-2,1.4386401E-2,3.1266642E-1],"split_indices":[473,882,712,418,609,418,1014,1273,869,954,531,571,894,272,119,249,1090,316,696,959,960,572,0,256,996,437,0,206,579,885,478,214,280,1177,0,76,0,0,0,0,0,0,1097,181,0,971,0,254,1118,1218,0,0,0,0,0,411,0,0,0,0,0,0,0,0,0,0,0,0,0,0,0,0,0,0,0,0,0,0,0,0,0],"split_type":[0,0,0,0,0,0,0,0,0,0,0,0,0,0,0,0,0,0,0,0,0,0,0,0,0,0,0,0,0,0,0,0,0,0,0,0,0,0,0,0,0,0,0,0,0,0,0,0,0,0,0,0,0,0,0,0,0,0,0,0,0,0,0,0,0,0,0,0,0,0,0,0,0,0,0,0,0,0,0,0,0],"sum_hessian":[8.586788E2,6.971321E2,1.6154672E2,6.632598E2,3.3872257E1,9.671342E1,6.4833305E1,6.432927E2,1.9967094E1,1.66969E1,1.7175358E1,8.1137024E1,1.5576393E1,1.5907641E1,4.8925663E1,6.326007E2,1.0692033E1,1.2488761E1,7.478334E0,1.1795017E1,4.9018817E0,1.542877E1,1.746589E0,8.469463E0,7.266756E1,1.3559657E1,2.0167358E0,9.313398E0,6.594243E0,4.5222168E1,3.703497E0,6.196026E2,1.2998053E1,6.549791E0,4.1422424E0,1.0042734E1,2.446027E0,6.448652E0,1.0296824E0,1.0449091E1,1.345926E0,1.5751365E0,3.326745E0,1.3870715E1,1.5580544E0,7.0854154E0,1.3840477E0,6.648766E1,6.179898E0,1.2153191E1,1.4064665E0,8.310459E0,1.002939E0,1.4668672E0,5.127376E0,4.3984486E1,1.2376807E0,2.6717823E0,1.0317147E0,6.048761E2,1.472653E1,4.2063055E0,8.791747E0,5.483941E0,1.0658495E0,8.274415E0,1.7683187E0,1.211534E0,2.1152108E0,1.2744191E1,1.1265236E0,6.022501E0,1.0629145E0,6.3586697E1,2.9009635E0,3.349583E0,2.8303149E0,1.0949955E1,1.2032355E0,1.2043787E0,4.2780106E1],"tree_param":{"num_deleted":"0","num_feature":"1280","num_nodes":"81","size_leaf_vector":"1"}},{"base_weights":[-4.181106E-3,-3.0731064E-1,1.5776719E0,-3.5089296E-1,2.4200296E0,2.5280938E0,1.0093482E-1,-4.5649785E-1,2.520973E-1,-3.4652155E-2,2.914468E-1,2.8663132E0,1.7425469E-1,1.4892783E0,-3.5383794E-1,-5.0366956E-1,-4.8208516E-2,1.2773738E0,-4.508887E-1,2.9974504E0,-4.075789E-2,1.842616E-1,-3.9063376E-1,2.5282218E0,-2.161045E-2,-5.3799797E-2,5.90122E-1,-5.09016E-1,8.220512E-2,1.6491755E0,-2.5327185E-1,-1.5557526E-1,2.534997E0,1.14653125E-1,-4.9659553E-1,3.0697298E0,-3.250127E-2,-4.8841137E-2,2.092904E-2,2.874595E-1,1.7541096E-2,-4.5533333E-2,1.1708504E-1,2.0607758E-1,-2.7692333E-1,-5.1439952E-2,7.695529E-2,-1.4140322E-2,2.8271446E-1,-3.7924986E-2,1.1966916E-1,-4.150897E-2,1.0928891E-1,3.054717E-1,-2.187228E-2,-5.278206E-2,6.806613E-2,3.1321964E-1,7.879724E-3,2.163934E-2,-4.3297146E-2],"categories":[],"categories_nodes":[],"categories_segments":[],"categories_sizes":[],"default_left":[0,0,0,0,0,0,0,0,0,0,0,0,0,0,0,0,0,0,0,0,0,0,0,0,0,0,0,0,0,0,0,0,0,0,0,0,0,0,0,0,0,0,0,0,0,0,0,0,0,0,0,0,0,0,0,0,0,0,0,0,0],"id":19,"left_children":[1,3,5,7,9,11,13,15,17,-1,-1,19,21,23,25,27,29,31,33,35,-1,-1,37,39,41,-1,43,45,-1,47,49,51,53,-1,55,57,-1,-1,-1,-1,-1,-1,-1,-1,59,-1,-1,-1,-1,-1,-1,-1,-1,-1,-1,-1,-1,-1,-1,-1,-1],"loss_changes":[4.137343E2,8.691457E1,1.9449103E2,4.5553177E1,1.6761292E1,6.667676E1,3.5489727E1,1.1677238E1,7.768802E1,0E0,0E0,3.2869446E1,1.1714196E1,2.1803684E1,7.7091107E0,4.278E0,2.2704977E1,7.928922E1,5.257434E0,1.8046814E1,0E0,0E0,6.618382E-1,6.19331E0,3.9657373E0,0E0,1.0029598E1,4.1332245E0,0E0,1.5238232E1,1.1047568E1,7.388866E0,3.4119858E1,0E0,2.6795683E0,1.2752869E1,0E0,0E0,0E0,0E0,0E0,0E0,0E0,0E0,5.2080315E-1,0E0,0E0,0E0,0E0,0E0,0E0,0E0,0E0,0E0,0E0,0E0,0E0,0E0,0E0,0E0,0E0],"parents":[2147483647,0,0,1,1,2,2,3,3,4,4,5,5,6,6,7,7,8,8,11,11,12,12,13,13,14,14,15,15,16,16,17,17,18,18,19,19,22,22,23,23,24,24,26,26,27,27,29,29,30,30,31,31,32,32,34,34,35,35,44,44],"right_children":[2,4,6,8,10,12,14,16,18,-1,-1,20,22,24,26,28,30,32,34,36,-1,-1,38,40,42,-1,44,46,-1,48,50,52,54,-1,56,58,-1,-1,-1,-1,-1,-1,-1,-1,60,-1,-1,-1,-1,-1,-1,-1,-1,-1,-1,-1,-1,-1,-1,-1,-1],"split_conditions":[6.434861E-1,2.1295936E0,1.3255967E-1,4.6447256E-1,2.6461726E-1,3.6897886E-1,4.12412E-2,1.4769995E0,1.5045254E-2,-3.4652155E-2,2.914468E-1,6.443237E-1,1.2575257E-2,2.558376E-1,1.3727139E-1,2.8941212E0,6.8743376E-4,8.27223E-1,1.2548213E-3,1.191458E0,-4.075789E-2,1.842616E-1,1.4267974E0,3.054629E-1,5.3618795E-1,-5.3799797E-2,3.4763375E-3,3.3535922E0,8.220512E-2,5.2170813E-1,7.7756166E-1,9.8241515E-2,1.8573359E-1,1.14653125E-1,1.8097885E0,4.1430593E-1,-3.250127E-2,-4.8841137E-2,2.092904E-2,2.874595E-1,1.7541096E-2,-4.5533333E-2,1.1708504E-1,2.0607758E-1,2.820975E-1,-5.1439952E-2,7.695529E-2,-1.4140322E-2,2.8271446E-1,-3.7924986E-2,1.1966916E-1,-4.150897E-2,1.0928891E-1,3.054717E-1,-2.187228E-2,-5.278206E-2,6.806613E-2,3.1321964E-1,7.879724E-3,2.163934E-2,-4.3297146E-2],"split_indices":[344,590,894,248,69,329,210,684,862,0,0,324,173,1080,423,674,555,64,1213,631,0,0,119,1009,296,0,1030,1228,0,548,94,1163,514,0,984,862,0,0,0,0,0,0,0,0,1008,0,0,0,0,0,0,0,0,0,0,0,0,0,0,0,0],"split_type":[0,0,0,0,0,0,0,0,0,0,0,0,0,0,0,0,0,0,0,0,0,0,0,0,0,0,0,0,0,0,0,0,0,0,0,0,0,0,0,0,0,0,0,0,0,0,0,0,0,0,0,0,0,0,0,0,0,0,0,0,0],"sum_hessian":[8.608227E2,7.2306744E2,1.3775525E2,7.1255237E2,1.0515093E1,8.338017E1,5.437508E1,6.0656445E2,1.0598789E2,1.6396806E0,8.875412E0,7.271426E1,1.066592E1,1.2855293E1,4.151979E1,5.435336E2,6.3030815E1,4.277916E1,6.3208733E1,6.999501E1,2.719242E0,2.1257486E0,8.540172E0,7.218351E0,5.636942E0,3.5101746E1,6.4180436E0,5.4196405E2,1.5696049E0,6.034962E0,5.6995853E1,2.0405365E1,2.2373795E1,1.088319E0,6.2120415E1,6.8579155E1,1.4158553E0,7.5031605E0,1.0370114E0,6.098744E0,1.119607E0,4.586788E0,1.0501539E0,1.8697891E0,4.5482545E0,5.4028674E2,1.6772608E0,2.7439556E0,3.2910066E0,5.3119118E1,3.8767354E0,1.7446363E1,2.9590015E0,1.8729584E1,3.644211E0,6.105273E1,1.067684E0,6.71299E1,1.449256E0,1.000056E0,3.5481985E0],"tree_param":{"num_deleted":"0","num_feature":"1280","num_nodes":"61","size_leaf_vector":"1"}},{"base_weights":[8.142328E-3,-2.875277E-1,1.5692275E0,-4.337024E-1,5.977493E-1,1.9903346E0,-3.7332585E-1,-4.5953938E-1,1.2892246E0,1.4186658E0,-4.1037837E-1,-4.8380118E-2,2.1608286E0,-5.2707266E-2,1.0153643E-1,-5.092841E-1,6.957679E-2,-1.0216718E-1,2.6345724E-1,3.850562E-1,1.9892577E0,-4.9324402E-1,1.4598292E-1,2.2808878E0,1.0078E-1,-5.178264E-1,3.237054E-1,1.4758008E0,-2.6812413E-1,-4.287834E-2,6.519182E-2,-1.5677713E-1,1.6790396E0,2.2492087E0,-5.6593727E-2,-5.363238E-2,4.1410886E-2,2.3490338E0,-3.8945965E-2,1.22417405E-1,-4.4966877E-2,-5.3826626E-2,-2.8893355E-2,1.9703968E-1,-4.4498228E-2,-4.172018E-2,2.2664292E-1,-5.3568672E-2,9.11959E-2,-4.5395233E-2,1.5524164E-1,-2.9879106E-2,2.1823771E-1,2.3082256E-2,2.387733E-1,-4.1885898E-2,6.976697E-2,2.3747467E-1,1.4797011E-2],"categories":[],"categories_nodes":[],"categories_segments":[],"categories_sizes":[],"default_left":[0,0,0,0,0,0,0,0,0,0,0,0,0,0,0,0,0,0,0,0,0,0,0,0,0,0,0,0,0,0,0,0,0,0,0,0,0,0,0,0,0,0,0,0,0,0,0,0,0,0,0,0,0,0,0,0,0,0,0],"id":20,"left_children":[1,3,5,7,9,11,13,15,17,19,21,-1,23,-1,-1,25,27,29,-1,31,33,35,-1,37,39,41,43,45,47,-1,-1,49,51,53,55,-1,-1,57,-1,-1,-1,-1,-1,-1,-1,-1,-1,-1,-1,-1,-1,-1,-1,-1,-1,-1,-1,-1,-1],"loss_changes":[3.9641583E2,9.370389E1,1.1261798E2,2.8207634E1,8.562187E1,4.8523895E1,5.917146E0,1.6141724E1,1.7917763E1,3.2768982E1,7.987627E0,0E0,2.5858765E1,0E0,0E0,4.1485443E0,2.5785753E1,1.6581589E0,0E0,1.5312662E1,1.9483658E1,2.0065908E0,0E0,1.9044312E1,4.7894936E0,2.4371643E0,8.844109E0,1.6671148E1,1.4368342E1,0E0,0E0,8.854008E0,7.043911E0,8.484741E0,1.6799474E0,0E0,0E0,5.154785E0,0E0,0E0,0E0,0E0,0E0,0E0,0E0,0E0,0E0,0E0,0E0,0E0,0E0,0E0,0E0,0E0,0E0,0E0,0E0,0E0,0E0],"parents":[2147483647,0,0,1,1,2,2,3,3,4,4,5,5,6,6,7,7,8,8,9,9,10,10,12,12,15,15,16,16,17,17,19,19,20,20,21,21,23,23,24,24,25,25,26,26,27,27,28,28,31,31,32,32,33,33,34,34,37,37],"right_children":[2,4,6,8,10,12,14,16,18,20,22,-1,24,-1,-1,26,28,30,-1,32,34,36,-1,38,40,42,44,46,48,-1,-1,50,52,54,56,-1,-1,58,-1,-1,-1,-1,-1,-1,-1,-1,-1,-1,-1,-1,-1,-1,-1,-1,-1,-1,-1,-1,-1],"split_conditions":[1.0899146E0,5.424523E-1,5.9673835E-2,3.1486423E0,1.777674E-1,6.5328225E-2,5.2263904E-1,9.744482E-1,8.9011204E-1,7.4505645E-1,1.4517603E0,-4.8380118E-2,6.5740705E-1,-5.2707266E-2,1.0153643E-1,1.8593855E0,4.017347E-2,1.0997527E0,2.6345724E-1,1.6433105E0,6.1139065E-1,1.7592082E0,1.4598292E-1,1.5369232E0,9.415792E-3,5.179058E-1,2.7512852E-2,9.713426E-2,2.5327203E-1,-4.287834E-2,6.519182E-2,2.4121366E0,3.444737E-1,1.0211932E-1,7.7943885E-1,-5.363238E-2,4.1410886E-2,1.9106527E-1,-3.8945965E-2,1.22417405E-1,-4.4966877E-2,-5.3826626E-2,-2.8893355E-2,1.9703968E-1,-4.4498228E-2,-4.172018E-2,2.2664292E-1,-5.3568672E-2,9.11959E-2,-4.5395233E-2,1.5524164E-1,-2.9879106E-2,2.1823771E-1,2.3082256E-2,2.387733E-1,-4.1885898E-2,6.976697E-2,2.3747467E-1,1.4797011E-2],"split_indices":[1205,1260,166,313,406,812,493,132,1087,782,528,0,1066,0,0,229,1248,294,0,1194,943,832,0,484,968,1205,722,894,826,0,0,1046,177,662,398,0,0,330,0,0,0,0,0,0,0,0,0,0,0,0,0,0,0,0,0,0,0,0,0],"split_type":[0,0,0,0,0,0,0,0,0,0,0,0,0,0,0,0,0,0,0,0,0,0,0,0,0,0,0,0,0,0,0,0,0,0,0,0,0,0,0,0,0,0,0,0,0,0,0,0,0,0,0,0,0,0,0,0,0,0,0],"sum_hessian":[8.56872E2,7.211095E2,1.3576256E2,6.193535E2,1.0175598E2,1.1155503E2,2.4207525E1,6.1092535E2,8.428146E0,5.5861134E1,4.589485E1,7.073253E0,1.0448178E2,2.2353178E1,1.8543468E0,5.584595E2,5.2465904E1,4.5974298E0,3.8307166E0,2.0464735E1,3.53964E1,4.4652634E1,1.2422184E0,9.862663E1,5.8551435E0,5.531651E2,5.2943373E0,9.50711E0,4.2958794E1,3.5089765E0,1.0884532E0,1.5044113E1,5.4206223E0,3.1317696E1,4.078703E0,4.3019066E1,1.633567E0,9.628969E1,2.3369484E0,1.5229813E0,4.332162E0,5.065767E2,4.6588417E1,1.1873841E0,4.106953E0,2.940053E0,6.567056E0,3.5464027E1,7.494769E0,1.3441468E1,1.6026446E0,1.1820838E0,4.2385383E0,2.1825697E0,2.9135126E1,3.0557399E0,1.0229633E0,9.509983E1,1.1898576E0],"tree_param":{"num_deleted":"0","num_feature":"1280","num_nodes":"59","size_leaf_vector":"1"}},{"base_weights":[1.4778921E-2,-3.8482782E-1,1.5318004E0,-4.6358004E-1,9.141642E-1,2.0905423E0,3.4706956E-1,-4.7995692E-1,1.3309485E0,2.640428E-1,2.2123153E0,2.1950784E0,1.8544094E-1,-9.8842636E-2,1.444851E0,-5.021071E-1,4.827542E-1,-3.664446E-2,2.250425E-1,1.4791192E0,